{
  "challengers": [
    {
      "id": "f17c3042-671a-4777-9918-4fe03b890f8b",
      "createdAt": 1772162286963,
      "stage": "challenger",
      "source": "rl_offline_q_learning",
      "featureNames": [
        "returns",
        "volatility",
        "atr_norm",
        "rsi_norm",
        "ema_spread",
        "macd_hist_norm",
        "bb_pos",
        "adx_norm",
        "mom_3",
        "mom_12",
        "volume_z",
        "flow_imbalance",
        "returns_autocorr",
        "ema34_dist",
        "hurst_proxy",
        "bb_squeeze",
        "cross_trend_mom3",
        "cross_trend_rsi",
        "cross_vol_bbpos"
      ],
      "weights": [
        0.617171038947919,
        0.22600472884099215,
        -2.5917107422453856,
        -0.0032872983130362546,
        0.5835677244124344,
        -0.5455916147763679,
        0.002445841410019824,
        0.040745781937167685,
        -0.03336795127719818,
        -0.12073790950308605,
        0.0010644913354043164,
        -0.3917898314164647,
        0.10154799241948516,
        -0.3346719638025933,
        0.027154503405284684,
        0.036443963080785666,
        -0.5269435880832564,
        0.019383071941867395,
        0.7253765192002666,
        0.5817364141678707,
        0.2994388265748589,
        -2.0177364685654475,
        -0.0007767332579035198,
        0.05713270486946658,
        0.3956262690836962,
        0.0031870714042405352,
        0.03860481987233595,
        -0.08603050603721482,
        -0.041231958282503714,
        -0.00013239996215568635,
        0.4068406723369807,
        0.0990061435711411,
        -0.11504978287493395,
        0.015707114704154795,
        0.03953210484650858,
        -0.36430515923211854,
        0.004373026180259035,
        0.438233845881196,
        0.3393443461217883,
        0.40152571819233546,
        -1.9827914547665824,
        0.009503444558202286,
        -0.08460839212113232,
        0.8473341933866344,
        0.0008610616991568691,
        0.03606500296589537,
        0.052153126041463375,
        0.006634270936286632,
        0.000006507620454901121,
        -0.4656184109127405,
        0.10213765798898407,
        -0.15363345753125301,
        -0.004704688236662838,
        0.038347490903632334,
        -0.17726995572348458,
        -0.007841883583250369,
        0.21443089362446455
      ],
      "bias": 0,
      "kind": "rl_linear_q",
      "qWeights": [
        [
          0.617171038947919,
          0.22600472884099215,
          -2.5917107422453856,
          -0.0032872983130362546,
          0.5835677244124344,
          -0.5455916147763679,
          0.002445841410019824,
          0.040745781937167685,
          -0.03336795127719818,
          -0.12073790950308605,
          0.0010644913354043164,
          -0.3917898314164647,
          0.10154799241948516,
          -0.3346719638025933,
          0.027154503405284684,
          0.036443963080785666,
          -0.5269435880832564,
          0.019383071941867395,
          0.7253765192002666
        ],
        [
          0.5817364141678707,
          0.2994388265748589,
          -2.0177364685654475,
          -0.0007767332579035198,
          0.05713270486946658,
          0.3956262690836962,
          0.0031870714042405352,
          0.03860481987233595,
          -0.08603050603721482,
          -0.041231958282503714,
          -0.00013239996215568635,
          0.4068406723369807,
          0.0990061435711411,
          -0.11504978287493395,
          0.015707114704154795,
          0.03953210484650858,
          -0.36430515923211854,
          0.004373026180259035,
          0.438233845881196
        ],
        [
          0.3393443461217883,
          0.40152571819233546,
          -1.9827914547665824,
          0.009503444558202286,
          -0.08460839212113232,
          0.8473341933866344,
          0.0008610616991568691,
          0.03606500296589537,
          0.052153126041463375,
          0.006634270936286632,
          0.000006507620454901121,
          -0.4656184109127405,
          0.10213765798898407,
          -0.15363345753125301,
          -0.004704688236662838,
          0.038347490903632334,
          -0.17726995572348458,
          -0.007841883583250369,
          0.21443089362446455
        ]
      ],
      "qBias": [
        0.015911525712413808,
        0.017153317322068585,
        0.023171102335377714
      ],
      "training": {
        "episodes": 4,
        "avgEpisodeReward": 1.7873004599709863,
        "warmStartModelId": "83ff7b50-1e73-4ed7-b640-78f94d65e566",
        "pretrainEpisodes": 150,
        "replayEpisodes": 0
      },
      "metrics": {
        "accuracy": 0.6112852664576802,
        "f1": 35.05578049898404,
        "precision": 0.9988133928966616,
        "recall": 8.49883294841633
      },
      "evaluation": {
        "walkForwardSharpe": -1.405029967414681,
        "walkForwardProfitFactor": 0.6141655015140287,
        "walkForwardMaxDrawdown": 0.012842039018764542,
        "paperWindowProfitFactor": 50,
        "paperWindowSharpe": 23.115423743391723,
        "paperWindowNetPnl": 839.8296588488247,
        "paperWindowTrades": 51,
        "unseenProfitFactor": 0,
        "unseenSharpe": 0,
        "unseenNetPnl": 0,
        "unseenTrades": 0,
        "inSampleWinRate": 0.6112852664576802,
        "inSampleNetPnl": 1623.1248999151503
      }
    },
    {
      "id": "83ff7b50-1e73-4ed7-b640-78f94d65e566",
      "createdAt": 1772162224067,
      "stage": "challenger",
      "source": "rl_offline_q_learning",
      "featureNames": [
        "returns",
        "volatility",
        "atr_norm",
        "rsi_norm",
        "ema_spread",
        "macd_hist_norm",
        "bb_pos",
        "adx_norm",
        "mom_3",
        "mom_12",
        "volume_z",
        "flow_imbalance",
        "returns_autocorr",
        "ema34_dist",
        "hurst_proxy",
        "bb_squeeze",
        "cross_trend_mom3",
        "cross_trend_rsi",
        "cross_vol_bbpos"
      ],
      "weights": [
        0.6273486582776082,
        0.23292768805200628,
        -2.5573095812826323,
        0.0004545235889855541,
        0.6672718158071889,
        -0.5676970018431339,
        0.01047194348691357,
        0.04723650507116243,
        -0.1470815972731311,
        -0.1967788250740986,
        0.0028161793413181402,
        -0.3917898314164647,
        0.10802883952531851,
        -0.21307206444555843,
        0.038530675368867486,
        0.04857592077903959,
        -0.5692052458816228,
        -0.0006000562730688174,
        0.7069210467243006,
        0.5937906408850693,
        0.29285257781867063,
        -1.969283068527223,
        0.011687055750724245,
        0.12652077900065498,
        0.36396034054925414,
        -0.0011963537219169464,
        0.04099012708145462,
        -0.18499486223722428,
        -0.12307833492196299,
        0.00005721281472455415,
        0.4068406723369807,
        0.10790414881539478,
        0.00009857994868745407,
        0.03965833301811288,
        0.05289307498171739,
        -0.40475342124052033,
        -0.009133916755521426,
        0.39651374681319296,
        0.35369482537879093,
        0.42320219599751624,
        -1.9310119153545535,
        0.014645962060830499,
        0.008542644823585098,
        0.7904267613518475,
        0.0032121308972466044,
        0.04678574209824532,
        -0.04758907203924625,
        -0.06684092861349418,
        -0.000015149173932760481,
        -0.4656184109127405,
        0.09710689662351173,
        -0.026705543639760916,
        0.01984205740768805,
        0.048376806322717354,
        -0.21062094114434876,
        -0.015875379139644197,
        0.2075470226033211
      ],
      "bias": 0,
      "kind": "rl_linear_q",
      "qWeights": [
        [
          0.6273486582776082,
          0.23292768805200628,
          -2.5573095812826323,
          0.0004545235889855541,
          0.6672718158071889,
          -0.5676970018431339,
          0.01047194348691357,
          0.04723650507116243,
          -0.1470815972731311,
          -0.1967788250740986,
          0.0028161793413181402,
          -0.3917898314164647,
          0.10802883952531851,
          -0.21307206444555843,
          0.038530675368867486,
          0.04857592077903959,
          -0.5692052458816228,
          -0.0006000562730688174,
          0.7069210467243006
        ],
        [
          0.5937906408850693,
          0.29285257781867063,
          -1.969283068527223,
          0.011687055750724245,
          0.12652077900065498,
          0.36396034054925414,
          -0.0011963537219169464,
          0.04099012708145462,
          -0.18499486223722428,
          -0.12307833492196299,
          0.00005721281472455415,
          0.4068406723369807,
          0.10790414881539478,
          0.00009857994868745407,
          0.03965833301811288,
          0.05289307498171739,
          -0.40475342124052033,
          -0.009133916755521426,
          0.39651374681319296
        ],
        [
          0.35369482537879093,
          0.42320219599751624,
          -1.9310119153545535,
          0.014645962060830499,
          0.008542644823585098,
          0.7904267613518475,
          0.0032121308972466044,
          0.04678574209824532,
          -0.04758907203924625,
          -0.06684092861349418,
          -0.000015149173932760481,
          -0.4656184109127405,
          0.09710689662351173,
          -0.026705543639760916,
          0.01984205740768805,
          0.048376806322717354,
          -0.21062094114434876,
          -0.015875379139644197,
          0.2075470226033211
        ]
      ],
      "qBias": [
        -0.013762409343316502,
        -0.014135703156404111,
        -0.0017249355552699758
      ],
      "training": {
        "episodes": 4,
        "avgEpisodeReward": 2.159600078754272,
        "warmStartModelId": "443e1311-5c12-4f15-bd8a-b51c37711489",
        "pretrainEpisodes": 150,
        "replayEpisodes": 0
      },
      "metrics": {
        "accuracy": 0.6649746192893401,
        "f1": 11.82178416735156,
        "precision": 0.9977593613643895,
        "recall": 7.172962067847249
      },
      "evaluation": {
        "walkForwardSharpe": 1.9049123882213472,
        "walkForwardProfitFactor": 2.079994574492195,
        "walkForwardMaxDrawdown": 0.0019181267347870327,
        "paperWindowProfitFactor": 50,
        "paperWindowSharpe": 24.107336896357822,
        "paperWindowNetPnl": 859.3187142762072,
        "paperWindowTrades": 90,
        "unseenProfitFactor": 0,
        "unseenSharpe": 0,
        "unseenNetPnl": 0,
        "unseenTrades": 0,
        "inSampleWinRate": 0.6649746192893401,
        "inSampleNetPnl": 1538.25309394959
      }
    },
    {
      "id": "443e1311-5c12-4f15-bd8a-b51c37711489",
      "createdAt": 1772162161554,
      "stage": "challenger",
      "source": "rl_offline_q_learning",
      "featureNames": [
        "returns",
        "volatility",
        "atr_norm",
        "rsi_norm",
        "ema_spread",
        "macd_hist_norm",
        "bb_pos",
        "adx_norm",
        "mom_3",
        "mom_12",
        "volume_z",
        "flow_imbalance",
        "returns_autocorr",
        "ema34_dist",
        "hurst_proxy",
        "bb_squeeze",
        "cross_trend_mom3",
        "cross_trend_rsi",
        "cross_vol_bbpos"
      ],
      "weights": [
        0.61424957789706,
        0.21172497273384996,
        -2.5163886053707865,
        0.011880415340776315,
        0.6698120515172593,
        -0.5502133837058597,
        -0.010034153086321279,
        0.044139824785499125,
        -0.18836446283782476,
        -0.23805175147863566,
        0.00009988700055651919,
        -0.3917898314164647,
        0.10191766715018054,
        -0.22952844109972684,
        0.09238866779910505,
        0.0398360471791233,
        -0.5526754973307038,
        -0.002133255372615815,
        0.6715642522676428,
        0.5873696800340876,
        0.27653835648454295,
        -1.9170604598505483,
        0.027837410693011495,
        0.11137936734516077,
        0.36743639879325524,
        -0.015690015412580336,
        0.03953651383294154,
        -0.22591656983530428,
        -0.1473867452024417,
        -0.00017147686026245908,
        0.4068406723369807,
        0.10171358889533876,
        -0.02878772741586162,
        0.06807766186316185,
        0.04194108433704128,
        -0.3903013996363436,
        -0.020776715354759192,
        0.3757067250557383,
        0.34869996602124764,
        0.38573866875009855,
        -1.893082204249812,
        0.03198163768345314,
        0.01517148546213307,
        0.7738567249887351,
        -0.015867913248765377,
        0.04454378417293346,
        -0.10492252531701385,
        -0.09943236918331351,
        0.0012909626682376804,
        -0.4656184109127405,
        0.09514209019362953,
        -0.0437819872733527,
        0.04623112284852725,
        0.040420104697826455,
        -0.1971004661615395,
        -0.03222536527373752,
        0.20140177406013482
      ],
      "bias": 0,
      "kind": "rl_linear_q",
      "qWeights": [
        [
          0.61424957789706,
          0.21172497273384996,
          -2.5163886053707865,
          0.011880415340776315,
          0.6698120515172593,
          -0.5502133837058597,
          -0.010034153086321279,
          0.044139824785499125,
          -0.18836446283782476,
          -0.23805175147863566,
          0.00009988700055651919,
          -0.3917898314164647,
          0.10191766715018054,
          -0.22952844109972684,
          0.09238866779910505,
          0.0398360471791233,
          -0.5526754973307038,
          -0.002133255372615815,
          0.6715642522676428
        ],
        [
          0.5873696800340876,
          0.27653835648454295,
          -1.9170604598505483,
          0.027837410693011495,
          0.11137936734516077,
          0.36743639879325524,
          -0.015690015412580336,
          0.03953651383294154,
          -0.22591656983530428,
          -0.1473867452024417,
          -0.00017147686026245908,
          0.4068406723369807,
          0.10171358889533876,
          -0.02878772741586162,
          0.06807766186316185,
          0.04194108433704128,
          -0.3903013996363436,
          -0.020776715354759192,
          0.3757067250557383
        ],
        [
          0.34869996602124764,
          0.38573866875009855,
          -1.893082204249812,
          0.03198163768345314,
          0.01517148546213307,
          0.7738567249887351,
          -0.015867913248765377,
          0.04454378417293346,
          -0.10492252531701385,
          -0.09943236918331351,
          0.0012909626682376804,
          -0.4656184109127405,
          0.09514209019362953,
          -0.0437819872733527,
          0.04623112284852725,
          0.040420104697826455,
          -0.1971004661615395,
          -0.03222536527373752,
          0.20140177406013482
        ]
      ],
      "qBias": [
        -0.03271941855337497,
        -0.024013596449186405,
        -0.014854661907543355
      ],
      "training": {
        "episodes": 4,
        "avgEpisodeReward": 1.7578967594964863,
        "warmStartModelId": "118f93c6-1158-4286-9b50-693a20cac013",
        "pretrainEpisodes": 150,
        "replayEpisodes": 0
      },
      "metrics": {
        "accuracy": 0.65311004784689,
        "f1": 35.146276682391196,
        "precision": 0.9985805605079257,
        "recall": 8.56311932276095
      },
      "evaluation": {
        "walkForwardSharpe": -4.713941119549775,
        "walkForwardProfitFactor": 0.059015800480815096,
        "walkForwardMaxDrawdown": 0.02631667556758057,
        "paperWindowProfitFactor": 50,
        "paperWindowSharpe": 24.72150254863147,
        "paperWindowNetPnl": 866.5045013394156,
        "paperWindowTrades": 57,
        "unseenProfitFactor": 0,
        "unseenSharpe": 0,
        "unseenNetPnl": 0,
        "unseenTrades": 0,
        "inSampleWinRate": 0.65311004784689,
        "inSampleNetPnl": 1753.6608552822763
      }
    },
    {
      "id": "118f93c6-1158-4286-9b50-693a20cac013",
      "createdAt": 1772162098864,
      "stage": "challenger",
      "source": "rl_offline_q_learning",
      "featureNames": [
        "returns",
        "volatility",
        "atr_norm",
        "rsi_norm",
        "ema_spread",
        "macd_hist_norm",
        "bb_pos",
        "adx_norm",
        "mom_3",
        "mom_12",
        "volume_z",
        "flow_imbalance",
        "returns_autocorr",
        "ema34_dist",
        "hurst_proxy",
        "bb_squeeze",
        "cross_trend_mom3",
        "cross_trend_rsi",
        "cross_vol_bbpos"
      ],
      "weights": [
        0.5686817572078577,
        0.19646070582708305,
        -2.444912116570105,
        0.0120720691001503,
        0.5413581114590644,
        -0.47707608262026024,
        -0.014079651347610564,
        0.042809230212083424,
        -0.08135033072791782,
        -0.1458058704181507,
        -0.00004559893439305227,
        -0.3917898314164647,
        0.10352838172065237,
        -0.47479767055796707,
        0.051540651435432024,
        0.03800877655428924,
        -0.43823292743616094,
        0.015495113566216174,
        0.6698178451003339,
        0.5519643338903829,
        0.24397575531045404,
        -1.8626852415842394,
        0.026612153566883363,
        -0.02293687645390404,
        0.42502119010755296,
        -0.01173568649652567,
        0.04244525345285026,
        -0.11212280072888632,
        -0.04825713799138036,
        0.0010839941070679316,
        0.4068406723369807,
        0.10078935158875177,
        -0.25715322850750394,
        0.04024240192747234,
        0.045789336132335316,
        -0.2904301922815169,
        -0.016654785440572098,
        0.3836628467717808,
        0.31319933853903303,
        0.35980832113968847,
        -1.8572031452382618,
        0.038478841991061545,
        -0.10876759488057822,
        0.8166820406957678,
        -0.01887160371502036,
        0.045365099609213325,
        -0.012202326745540608,
        -0.010497612691562574,
        0.0018918365307274878,
        -0.4656184109127405,
        0.09902593558437744,
        -0.28536049309805744,
        0.023137130160665403,
        0.04536644580231565,
        -0.07764527665178647,
        -0.028627544558955886,
        0.20641414209074868
      ],
      "bias": 0,
      "kind": "rl_linear_q",
      "qWeights": [
        [
          0.5686817572078577,
          0.19646070582708305,
          -2.444912116570105,
          0.0120720691001503,
          0.5413581114590644,
          -0.47707608262026024,
          -0.014079651347610564,
          0.042809230212083424,
          -0.08135033072791782,
          -0.1458058704181507,
          -0.00004559893439305227,
          -0.3917898314164647,
          0.10352838172065237,
          -0.47479767055796707,
          0.051540651435432024,
          0.03800877655428924,
          -0.43823292743616094,
          0.015495113566216174,
          0.6698178451003339
        ],
        [
          0.5519643338903829,
          0.24397575531045404,
          -1.8626852415842394,
          0.026612153566883363,
          -0.02293687645390404,
          0.42502119010755296,
          -0.01173568649652567,
          0.04244525345285026,
          -0.11212280072888632,
          -0.04825713799138036,
          0.0010839941070679316,
          0.4068406723369807,
          0.10078935158875177,
          -0.25715322850750394,
          0.04024240192747234,
          0.045789336132335316,
          -0.2904301922815169,
          -0.016654785440572098,
          0.3836628467717808
        ],
        [
          0.31319933853903303,
          0.35980832113968847,
          -1.8572031452382618,
          0.038478841991061545,
          -0.10876759488057822,
          0.8166820406957678,
          -0.01887160371502036,
          0.045365099609213325,
          -0.012202326745540608,
          -0.010497612691562574,
          0.0018918365307274878,
          -0.4656184109127405,
          0.09902593558437744,
          -0.28536049309805744,
          0.023137130160665403,
          0.04536644580231565,
          -0.07764527665178647,
          -0.028627544558955886,
          0.20641414209074868
        ]
      ],
      "qBias": [
        -0.002231841175123367,
        -0.012167223346077142,
        -0.00922215197049045
      ],
      "training": {
        "episodes": 4,
        "avgEpisodeReward": 1.719994941600441,
        "warmStartModelId": "e1276a35-f9d1-404f-a109-95e15a74a7bc",
        "pretrainEpisodes": 150,
        "replayEpisodes": 0
      },
      "metrics": {
        "accuracy": 0.6102719033232629,
        "f1": 31.197900874728518,
        "precision": 0.9990305761617527,
        "recall": 8.246205919153391
      },
      "evaluation": {
        "walkForwardSharpe": -3.8604223945412017,
        "walkForwardProfitFactor": 0.18522046506598802,
        "walkForwardMaxDrawdown": 0.03208965701806284,
        "paperWindowProfitFactor": 50,
        "paperWindowSharpe": 21.12163575034768,
        "paperWindowNetPnl": 816.9544205249513,
        "paperWindowTrades": 64,
        "unseenProfitFactor": 0,
        "unseenSharpe": 0,
        "unseenNetPnl": 0,
        "unseenTrades": 0,
        "inSampleWinRate": 0.6102719033232629,
        "inSampleNetPnl": 1615.0675456038662
      }
    },
    {
      "id": "e1276a35-f9d1-404f-a109-95e15a74a7bc",
      "createdAt": 1772162036301,
      "stage": "challenger",
      "source": "rl_offline_q_learning",
      "featureNames": [
        "returns",
        "volatility",
        "atr_norm",
        "rsi_norm",
        "ema_spread",
        "macd_hist_norm",
        "bb_pos",
        "adx_norm",
        "mom_3",
        "mom_12",
        "volume_z",
        "flow_imbalance",
        "returns_autocorr",
        "ema34_dist",
        "hurst_proxy",
        "bb_squeeze",
        "cross_trend_mom3",
        "cross_trend_rsi",
        "cross_vol_bbpos"
      ],
      "weights": [
        0.5499721201537418,
        0.1651234084730013,
        -2.400232855726462,
        0.017183615764692114,
        0.5214851590073958,
        -0.4476521906075959,
        -0.011746808990815906,
        0.043075337199415246,
        -0.05222717180138651,
        -0.1191754930315258,
        -0.0006105834773645051,
        -0.3917898314164647,
        0.09911346111578997,
        -0.530515823046168,
        0.058696034884923295,
        0.03902781285158769,
        -0.4020917933787118,
        0.00903782920746154,
        0.6424639452874203,
        0.5407018170703389,
        0.23178218601637532,
        -1.8097895294782222,
        0.02410609541319874,
        -0.05615253815809348,
        0.43886547781940205,
        -0.010866426469091407,
        0.03866079163610647,
        -0.10505595042692614,
        -0.011862456972482264,
        0.0005377026864060777,
        0.4068406723369807,
        0.09505359317083834,
        -0.31521923489919795,
        0.04260068919745346,
        0.03838222799525355,
        -0.25960364478515313,
        -0.013648257042415346,
        0.37962548867174317,
        0.3026384206417812,
        0.3370810719180511,
        -1.822549270254673,
        0.030604864032696896,
        -0.12224256702162535,
        0.8143809327007923,
        -0.008924890999498267,
        0.04756571965965547,
        -0.004474622273036315,
        0.023799396870986377,
        -0.000020482279997436893,
        -0.4656184109127405,
        0.0936459554266604,
        -0.33939006425240936,
        0.01312636752199281,
        0.04159630521960406,
        -0.036939292705913125,
        -0.023092208947704897,
        0.18749791596540544
      ],
      "bias": 0,
      "kind": "rl_linear_q",
      "qWeights": [
        [
          0.5499721201537418,
          0.1651234084730013,
          -2.400232855726462,
          0.017183615764692114,
          0.5214851590073958,
          -0.4476521906075959,
          -0.011746808990815906,
          0.043075337199415246,
          -0.05222717180138651,
          -0.1191754930315258,
          -0.0006105834773645051,
          -0.3917898314164647,
          0.09911346111578997,
          -0.530515823046168,
          0.058696034884923295,
          0.03902781285158769,
          -0.4020917933787118,
          0.00903782920746154,
          0.6424639452874203
        ],
        [
          0.5407018170703389,
          0.23178218601637532,
          -1.8097895294782222,
          0.02410609541319874,
          -0.05615253815809348,
          0.43886547781940205,
          -0.010866426469091407,
          0.03866079163610647,
          -0.10505595042692614,
          -0.011862456972482264,
          0.0005377026864060777,
          0.4068406723369807,
          0.09505359317083834,
          -0.31521923489919795,
          0.04260068919745346,
          0.03838222799525355,
          -0.25960364478515313,
          -0.013648257042415346,
          0.37962548867174317
        ],
        [
          0.3026384206417812,
          0.3370810719180511,
          -1.822549270254673,
          0.030604864032696896,
          -0.12224256702162535,
          0.8143809327007923,
          -0.008924890999498267,
          0.04756571965965547,
          -0.004474622273036315,
          0.023799396870986377,
          -0.000020482279997436893,
          -0.4656184109127405,
          0.0936459554266604,
          -0.33939006425240936,
          0.01312636752199281,
          0.04159630521960406,
          -0.036939292705913125,
          -0.023092208947704897,
          0.18749791596540544
        ]
      ],
      "qBias": [
        -0.014846213334697685,
        -0.005932884670192219,
        0.00275684227001665
      ],
      "training": {
        "episodes": 4,
        "avgEpisodeReward": 1.8290736780352672,
        "warmStartModelId": "47065697-57bc-4eca-a611-26ffb40131d4",
        "pretrainEpisodes": 150,
        "replayEpisodes": 0
      },
      "metrics": {
        "accuracy": 0.6773162939297125,
        "f1": 35.694304007665316,
        "precision": 0.9989768358985942,
        "recall": 8.439020472024945
      },
      "evaluation": {
        "walkForwardSharpe": -4.263973017601825,
        "walkForwardProfitFactor": 0.09775530423717974,
        "walkForwardMaxDrawdown": 0.027440934116135202,
        "paperWindowProfitFactor": 50,
        "paperWindowSharpe": 24.162827925826264,
        "paperWindowNetPnl": 857.3120945540759,
        "paperWindowTrades": 53,
        "unseenProfitFactor": 0,
        "unseenSharpe": 0,
        "unseenNetPnl": 0,
        "unseenTrades": 0,
        "inSampleWinRate": 0.6773162939297125,
        "inSampleNetPnl": 1682.5809460510172
      }
    },
    {
      "id": "47065697-57bc-4eca-a611-26ffb40131d4",
      "createdAt": 1772161973553,
      "stage": "challenger",
      "source": "rl_offline_q_learning",
      "featureNames": [
        "returns",
        "volatility",
        "atr_norm",
        "rsi_norm",
        "ema_spread",
        "macd_hist_norm",
        "bb_pos",
        "adx_norm",
        "mom_3",
        "mom_12",
        "volume_z",
        "flow_imbalance",
        "returns_autocorr",
        "ema34_dist",
        "hurst_proxy",
        "bb_squeeze",
        "cross_trend_mom3",
        "cross_trend_rsi",
        "cross_vol_bbpos"
      ],
      "weights": [
        0.5306461455420115,
        0.13847972976599468,
        -2.3523941321539974,
        0.011168596895563241,
        0.5083862891757355,
        -0.41861952234227934,
        0.005079084795801007,
        0.05928481645661302,
        -0.0409455361044163,
        -0.09050736743871388,
        0.0017119056774127996,
        -0.3917898314164647,
        0.09602584712394698,
        -0.5860650973002981,
        0.03809798865267203,
        0.04643538074226913,
        -0.36644567287990387,
        0.008968894398074514,
        0.632267259738369,
        0.5316038086142971,
        0.18520817633534709,
        -1.7678473324873412,
        0.028072416243794383,
        -0.07950195160962639,
        0.44791463062683284,
        -0.0023337855543018467,
        0.05405448448279765,
        -0.080613457971738,
        -0.01478656248976541,
        0.000049877486469258794,
        0.4068406723369807,
        0.09288360372516302,
        -0.34999607488363044,
        0.02200652382127151,
        0.04682846884184477,
        -0.23396526527665673,
        -0.014479789215310013,
        0.3610144959815555,
        0.29166998676337297,
        0.30197375029254897,
        -1.795633751270984,
        0.028124015114832472,
        -0.13523024196406233,
        0.8044566346236188,
        -0.0000358457956399987,
        0.05057027654605385,
        0.028859223715523324,
        0.04635891688385774,
        0.0001656105185055153,
        -0.4656184109127405,
        0.09404452536702439,
        -0.39756617264386,
        0.002893452279844784,
        0.045093396649759136,
        0.00870474973838056,
        -0.022523391639235422,
        0.17096147126791078
      ],
      "bias": 0,
      "kind": "rl_linear_q",
      "qWeights": [
        [
          0.5306461455420115,
          0.13847972976599468,
          -2.3523941321539974,
          0.011168596895563241,
          0.5083862891757355,
          -0.41861952234227934,
          0.005079084795801007,
          0.05928481645661302,
          -0.0409455361044163,
          -0.09050736743871388,
          0.0017119056774127996,
          -0.3917898314164647,
          0.09602584712394698,
          -0.5860650973002981,
          0.03809798865267203,
          0.04643538074226913,
          -0.36644567287990387,
          0.008968894398074514,
          0.632267259738369
        ],
        [
          0.5316038086142971,
          0.18520817633534709,
          -1.7678473324873412,
          0.028072416243794383,
          -0.07950195160962639,
          0.44791463062683284,
          -0.0023337855543018467,
          0.05405448448279765,
          -0.080613457971738,
          -0.01478656248976541,
          0.000049877486469258794,
          0.4068406723369807,
          0.09288360372516302,
          -0.34999607488363044,
          0.02200652382127151,
          0.04682846884184477,
          -0.23396526527665673,
          -0.014479789215310013,
          0.3610144959815555
        ],
        [
          0.29166998676337297,
          0.30197375029254897,
          -1.795633751270984,
          0.028124015114832472,
          -0.13523024196406233,
          0.8044566346236188,
          -0.0000358457956399987,
          0.05057027654605385,
          0.028859223715523324,
          0.04635891688385774,
          0.0001656105185055153,
          -0.4656184109127405,
          0.09404452536702439,
          -0.39756617264386,
          0.002893452279844784,
          0.045093396649759136,
          0.00870474973838056,
          -0.022523391639235422,
          0.17096147126791078
        ]
      ],
      "qBias": [
        -0.017541382959281905,
        -0.009837415664232919,
        0.00374822655418295
      ],
      "training": {
        "episodes": 4,
        "avgEpisodeReward": 1.6713896292069357,
        "warmStartModelId": "ec782441-65e0-4e7d-9661-c649df7ca2be",
        "pretrainEpisodes": 150,
        "replayEpisodes": 0
      },
      "metrics": {
        "accuracy": 0.645320197044335,
        "f1": 40.04970329454079,
        "precision": 0.9990287389554148,
        "recall": 8.349834777126503
      },
      "evaluation": {
        "walkForwardSharpe": -3.121956237327464,
        "walkForwardProfitFactor": 0.39610583678790173,
        "walkForwardMaxDrawdown": 0.02414799246125767,
        "paperWindowProfitFactor": 50,
        "paperWindowSharpe": 24.634957704985194,
        "paperWindowNetPnl": 865.0309714783107,
        "paperWindowTrades": 69,
        "unseenProfitFactor": 0,
        "unseenSharpe": 0,
        "unseenNetPnl": 0,
        "unseenTrades": 0,
        "inSampleWinRate": 0.645320197044335,
        "inSampleNetPnl": 1719.6058029372798
      }
    },
    {
      "id": "ec782441-65e0-4e7d-9661-c649df7ca2be",
      "createdAt": 1772161910895,
      "stage": "challenger",
      "source": "rl_offline_q_learning",
      "featureNames": [
        "returns",
        "volatility",
        "atr_norm",
        "rsi_norm",
        "ema_spread",
        "macd_hist_norm",
        "bb_pos",
        "adx_norm",
        "mom_3",
        "mom_12",
        "volume_z",
        "flow_imbalance",
        "returns_autocorr",
        "ema34_dist",
        "hurst_proxy",
        "bb_squeeze",
        "cross_trend_mom3",
        "cross_trend_rsi",
        "cross_vol_bbpos"
      ],
      "weights": [
        0.5166843553595368,
        0.1311370043463303,
        -2.293037647289676,
        0.010867632421501322,
        0.5037771911461102,
        -0.3943850736356251,
        -0.005124311053879282,
        0.056727078095113716,
        0.019606974795361016,
        -0.04807381308237436,
        0.0007494792075373893,
        -0.3917898314164647,
        0.09904858072216231,
        -0.5879021995777431,
        0.02810479534270963,
        0.049745911706974046,
        -0.335661674638229,
        0.008644518915330562,
        0.6238156553497167,
        0.522636386514936,
        0.17378719414468952,
        -1.7112873254554104,
        0.017236491096894648,
        -0.09795167641855357,
        0.46030973354756016,
        -0.0033718417421702922,
        0.056792587902614544,
        -0.04034665138740342,
        0.03768581907320112,
        0.00018521729932157043,
        0.4068406723369807,
        0.09968119557877306,
        -0.3692207572291206,
        0.004289551518751165,
        0.05704058567416803,
        -0.21063617172509616,
        -0.006261478073701671,
        0.3567238895716647,
        0.28331391013506074,
        0.28091034263389997,
        -1.7565170623453095,
        0.01975106838873402,
        -0.14614125902551953,
        0.7979903439464345,
        -0.0077219676613755825,
        0.05792679590164494,
        0.07373667096201013,
        0.10129941578016773,
        -0.0004739924057657182,
        -0.4656184109127405,
        0.09548540814785018,
        -0.43894841326229667,
        -0.013290019346533106,
        0.05379527136300806,
        0.046869825956265626,
        -0.005713196302411456,
        0.1565312686422848
      ],
      "bias": 0,
      "kind": "rl_linear_q",
      "qWeights": [
        [
          0.5166843553595368,
          0.1311370043463303,
          -2.293037647289676,
          0.010867632421501322,
          0.5037771911461102,
          -0.3943850736356251,
          -0.005124311053879282,
          0.056727078095113716,
          0.019606974795361016,
          -0.04807381308237436,
          0.0007494792075373893,
          -0.3917898314164647,
          0.09904858072216231,
          -0.5879021995777431,
          0.02810479534270963,
          0.049745911706974046,
          -0.335661674638229,
          0.008644518915330562,
          0.6238156553497167
        ],
        [
          0.522636386514936,
          0.17378719414468952,
          -1.7112873254554104,
          0.017236491096894648,
          -0.09795167641855357,
          0.46030973354756016,
          -0.0033718417421702922,
          0.056792587902614544,
          -0.04034665138740342,
          0.03768581907320112,
          0.00018521729932157043,
          0.4068406723369807,
          0.09968119557877306,
          -0.3692207572291206,
          0.004289551518751165,
          0.05704058567416803,
          -0.21063617172509616,
          -0.006261478073701671,
          0.3567238895716647
        ],
        [
          0.28331391013506074,
          0.28091034263389997,
          -1.7565170623453095,
          0.01975106838873402,
          -0.14614125902551953,
          0.7979903439464345,
          -0.0077219676613755825,
          0.05792679590164494,
          0.07373667096201013,
          0.10129941578016773,
          -0.0004739924057657182,
          -0.4656184109127405,
          0.09548540814785018,
          -0.43894841326229667,
          -0.013290019346533106,
          0.05379527136300806,
          0.046869825956265626,
          -0.005713196302411456,
          0.1565312686422848
        ]
      ],
      "qBias": [
        -0.005542339018407265,
        -0.0027287816510841428,
        0.011022411872444094
      ],
      "training": {
        "episodes": 4,
        "avgEpisodeReward": 2.209851753856346,
        "warmStartModelId": "c15b1517-c0fb-48c2-9194-0e324f5de124",
        "pretrainEpisodes": 150,
        "replayEpisodes": 0
      },
      "metrics": {
        "accuracy": 0.6713091922005571,
        "f1": 27.27976936572671,
        "precision": 0.9989410155102444,
        "recall": 8.448548061221862
      },
      "evaluation": {
        "walkForwardSharpe": 1.217761346834442,
        "walkForwardProfitFactor": 1.528718909086428,
        "walkForwardMaxDrawdown": 0.0028855434784220493,
        "paperWindowProfitFactor": 50,
        "paperWindowSharpe": 25.93109481960395,
        "paperWindowNetPnl": 882.645952542478,
        "paperWindowTrades": 51,
        "unseenProfitFactor": 0,
        "unseenSharpe": 0,
        "unseenNetPnl": 0,
        "unseenTrades": 0,
        "inSampleWinRate": 0.6713091922005571,
        "inSampleNetPnl": 1747.6411815891952
      }
    },
    {
      "id": "c15b1517-c0fb-48c2-9194-0e324f5de124",
      "createdAt": 1772161848031,
      "stage": "challenger",
      "source": "rl_offline_q_learning",
      "featureNames": [
        "returns",
        "volatility",
        "atr_norm",
        "rsi_norm",
        "ema_spread",
        "macd_hist_norm",
        "bb_pos",
        "adx_norm",
        "mom_3",
        "mom_12",
        "volume_z",
        "flow_imbalance",
        "returns_autocorr",
        "ema34_dist",
        "hurst_proxy",
        "bb_squeeze",
        "cross_trend_mom3",
        "cross_trend_rsi",
        "cross_vol_bbpos"
      ],
      "weights": [
        0.510974891793598,
        0.12235207850126947,
        -2.2112810881140255,
        -0.005451377742623367,
        0.5403977459600847,
        -0.3925492575817224,
        0.0040547672784189215,
        0.04651993363412211,
        0.01825763371430037,
        -0.053631425142317994,
        0.002626744772061653,
        -0.3917898314164647,
        0.10446941780485573,
        -0.5384945399221698,
        0.00996245025723148,
        0.04793087529067457,
        -0.35281307267350265,
        0.01672591504724085,
        0.5976445872232217,
        0.5260003895253725,
        0.17322348622253222,
        -1.649540905470432,
        0.018406547026903478,
        -0.06811174509732497,
        0.4470183330142142,
        -0.0032198497384152967,
        0.04514852193846901,
        -0.038808305533927875,
        0.02475277057439699,
        0.00014975543092156997,
        0.4068406723369807,
        0.1001710531587041,
        -0.30280781528527806,
        0.007897901167344538,
        0.051228393065873325,
        -0.22452981881699452,
        -0.011728559479686955,
        0.33973114968438295,
        0.28861461394484084,
        0.27530244855271263,
        -1.6923955208821704,
        0.018690273002062687,
        -0.09974413184337161,
        0.7557920262435233,
        -0.004910452338984628,
        0.04077234329829718,
        0.07878069948532977,
        0.08682725947016352,
        0.0006012279848352834,
        -0.4656184109127405,
        0.09784341712467336,
        -0.3815571836939331,
        -0.0013008372407651992,
        0.045297972677915146,
        0.03692429849433891,
        -0.012003292562380296,
        0.14740875297327904
      ],
      "bias": 0,
      "kind": "rl_linear_q",
      "qWeights": [
        [
          0.510974891793598,
          0.12235207850126947,
          -2.2112810881140255,
          -0.005451377742623367,
          0.5403977459600847,
          -0.3925492575817224,
          0.0040547672784189215,
          0.04651993363412211,
          0.01825763371430037,
          -0.053631425142317994,
          0.002626744772061653,
          -0.3917898314164647,
          0.10446941780485573,
          -0.5384945399221698,
          0.00996245025723148,
          0.04793087529067457,
          -0.35281307267350265,
          0.01672591504724085,
          0.5976445872232217
        ],
        [
          0.5260003895253725,
          0.17322348622253222,
          -1.649540905470432,
          0.018406547026903478,
          -0.06811174509732497,
          0.4470183330142142,
          -0.0032198497384152967,
          0.04514852193846901,
          -0.038808305533927875,
          0.02475277057439699,
          0.00014975543092156997,
          0.4068406723369807,
          0.1001710531587041,
          -0.30280781528527806,
          0.007897901167344538,
          0.051228393065873325,
          -0.22452981881699452,
          -0.011728559479686955,
          0.33973114968438295
        ],
        [
          0.28861461394484084,
          0.27530244855271263,
          -1.6923955208821704,
          0.018690273002062687,
          -0.09974413184337161,
          0.7557920262435233,
          -0.004910452338984628,
          0.04077234329829718,
          0.07878069948532977,
          0.08682725947016352,
          0.0006012279848352834,
          -0.4656184109127405,
          0.09784341712467336,
          -0.3815571836939331,
          -0.0013008372407651992,
          0.045297972677915146,
          0.03692429849433891,
          -0.012003292562380296,
          0.14740875297327904
        ]
      ],
      "qBias": [
        0.009398950269059937,
        0.0035493262331573704,
        0.016147437931390153
      ],
      "training": {
        "episodes": 4,
        "avgEpisodeReward": 1.991983360678347,
        "warmStartModelId": "f6a19a5e-26fb-4009-9f29-062f3d7b8893",
        "pretrainEpisodes": 150,
        "replayEpisodes": 0
      },
      "metrics": {
        "accuracy": 0.7493917274939172,
        "f1": 22.88463288297691,
        "precision": 0.99905207481338,
        "recall": 8.10986870501073
      },
      "evaluation": {
        "walkForwardSharpe": 0.40693175129514464,
        "walkForwardProfitFactor": 1.1628996705030088,
        "walkForwardMaxDrawdown": 0.0046233939631520745,
        "paperWindowProfitFactor": 50,
        "paperWindowSharpe": 21.74052374480316,
        "paperWindowNetPnl": 812.3116894693485,
        "paperWindowTrades": 90,
        "unseenProfitFactor": 0,
        "unseenSharpe": 0,
        "unseenNetPnl": 0,
        "unseenTrades": 0,
        "inSampleWinRate": 0.7493917274939172,
        "inSampleNetPnl": 1559.6745840989151
      }
    },
    {
      "id": "f6a19a5e-26fb-4009-9f29-062f3d7b8893",
      "createdAt": 1772161785046,
      "stage": "challenger",
      "source": "rl_offline_q_learning",
      "featureNames": [
        "returns",
        "volatility",
        "atr_norm",
        "rsi_norm",
        "ema_spread",
        "macd_hist_norm",
        "bb_pos",
        "adx_norm",
        "mom_3",
        "mom_12",
        "volume_z",
        "flow_imbalance",
        "returns_autocorr",
        "ema34_dist",
        "hurst_proxy",
        "bb_squeeze",
        "cross_trend_mom3",
        "cross_trend_rsi",
        "cross_vol_bbpos"
      ],
      "weights": [
        0.5027804192851625,
        0.1225962121055223,
        -2.163807554129281,
        0.019752005861920347,
        0.5703668843629024,
        -0.3868044506506178,
        -0.011306017214501779,
        0.044906484531984765,
        0.019500664065492404,
        -0.10371971210589616,
        -0.0008386932217992193,
        -0.3917898314164647,
        0.09329990372227756,
        -0.5110735416693135,
        0.02058143732871378,
        0.03894453282611484,
        -0.34761047920849,
        0.005862236156364576,
        0.5723539314931939,
        0.5259610148875302,
        0.17376897228740582,
        -1.5938536209230898,
        0.024633968081774406,
        -0.05693671279292865,
        0.44000715263543677,
        -0.009329118709118655,
        0.04051815055125306,
        -0.04363438088399195,
        -0.004400774124047695,
        0.00013598183842121833,
        0.4068406723369807,
        0.08603499229241296,
        -0.2741202974974531,
        0.011405995865479352,
        0.040606957649604196,
        -0.22177657336976203,
        -0.009180035514688814,
        0.3246715965594837,
        0.2899375927331444,
        0.2660746185040607,
        -1.6378414989443366,
        0.03801658092975914,
        -0.0649194043824609,
        0.7214622738253162,
        -0.016580748235449902,
        0.04902093182765268,
        0.07759604639962189,
        0.05849850575456624,
        -0.00043619461583103774,
        -0.4656184109127405,
        0.08853361132651957,
        -0.3543579110707912,
        -0.005011266286096232,
        0.04856560739526022,
        0.04735891134817849,
        -0.023027918905602345,
        0.11595383531814395
      ],
      "bias": 0,
      "kind": "rl_linear_q",
      "qWeights": [
        [
          0.5027804192851625,
          0.1225962121055223,
          -2.163807554129281,
          0.019752005861920347,
          0.5703668843629024,
          -0.3868044506506178,
          -0.011306017214501779,
          0.044906484531984765,
          0.019500664065492404,
          -0.10371971210589616,
          -0.0008386932217992193,
          -0.3917898314164647,
          0.09329990372227756,
          -0.5110735416693135,
          0.02058143732871378,
          0.03894453282611484,
          -0.34761047920849,
          0.005862236156364576,
          0.5723539314931939
        ],
        [
          0.5259610148875302,
          0.17376897228740582,
          -1.5938536209230898,
          0.024633968081774406,
          -0.05693671279292865,
          0.44000715263543677,
          -0.009329118709118655,
          0.04051815055125306,
          -0.04363438088399195,
          -0.004400774124047695,
          0.00013598183842121833,
          0.4068406723369807,
          0.08603499229241296,
          -0.2741202974974531,
          0.011405995865479352,
          0.040606957649604196,
          -0.22177657336976203,
          -0.009180035514688814,
          0.3246715965594837
        ],
        [
          0.2899375927331444,
          0.2660746185040607,
          -1.6378414989443366,
          0.03801658092975914,
          -0.0649194043824609,
          0.7214622738253162,
          -0.016580748235449902,
          0.04902093182765268,
          0.07759604639962189,
          0.05849850575456624,
          -0.00043619461583103774,
          -0.4656184109127405,
          0.08853361132651957,
          -0.3543579110707912,
          -0.005011266286096232,
          0.04856560739526022,
          0.04735891134817849,
          -0.023027918905602345,
          0.11595383531814395
        ]
      ],
      "qBias": [
        0.009749789625857474,
        0.013373624961133338,
        0.011805103962632955
      ],
      "training": {
        "episodes": 4,
        "avgEpisodeReward": 1.8620841317346881,
        "warmStartModelId": "cb54c83d-38e7-4b26-9004-752f486d8746",
        "pretrainEpisodes": 150,
        "replayEpisodes": 0
      },
      "metrics": {
        "accuracy": 0.7027863777089783,
        "f1": 29.58402652198381,
        "precision": 0.9989527900138816,
        "recall": 8.650383224128314
      },
      "evaluation": {
        "walkForwardSharpe": -1.6782246818308075,
        "walkForwardProfitFactor": 0.6164541221319485,
        "walkForwardMaxDrawdown": 0.01957099912217308,
        "paperWindowProfitFactor": 50,
        "paperWindowSharpe": 26.284780630420947,
        "paperWindowNetPnl": 884.4997029920487,
        "paperWindowTrades": 50,
        "unseenProfitFactor": 0,
        "unseenSharpe": 0,
        "unseenNetPnl": 0,
        "unseenTrades": 0,
        "inSampleWinRate": 0.7027863777089783,
        "inSampleNetPnl": 1698.5814988903403
      }
    },
    {
      "id": "cb54c83d-38e7-4b26-9004-752f486d8746",
      "createdAt": 1772161720754,
      "stage": "challenger",
      "source": "rl_offline_q_learning",
      "featureNames": [
        "returns",
        "volatility",
        "atr_norm",
        "rsi_norm",
        "ema_spread",
        "macd_hist_norm",
        "bb_pos",
        "adx_norm",
        "mom_3",
        "mom_12",
        "volume_z",
        "flow_imbalance",
        "returns_autocorr",
        "ema34_dist",
        "hurst_proxy",
        "bb_squeeze",
        "cross_trend_mom3",
        "cross_trend_rsi",
        "cross_vol_bbpos"
      ],
      "weights": [
        0.49936678484868174,
        0.12219043757940004,
        -2.110976048076262,
        -0.0217103967589703,
        0.6225756694980198,
        -0.37824661727700043,
        0.02293517078912608,
        0.0539894846188651,
        -0.00023184006441951047,
        -0.04893236573464308,
        0.0008131649730746164,
        -0.3917898314164647,
        0.09494254507134478,
        -0.441858901435992,
        0.023014033955828968,
        0.04711670649752212,
        -0.34943518764786685,
        0.021162228910879467,
        0.5651766316440843,
        0.5303344861820766,
        0.16772281958712365,
        -1.5376809446477935,
        0.007818175420526454,
        -0.01932330052068326,
        0.4288051011661327,
        0.011597862618453449,
        0.04833010840950469,
        -0.06300533904910449,
        0.015159420497216974,
        -0.00023327803183217037,
        0.4068406723369807,
        0.09698517318030071,
        -0.19958137616226546,
        0.01350072802932997,
        0.054449300147959324,
        -0.23046051860102204,
        -0.0049589893026449955,
        0.3045629760948791,
        0.29543822242744633,
        0.2723485608921487,
        -1.594361814726008,
        0.004867317890297031,
        -0.011984867049782405,
        0.6858678323911656,
        0.014408847544234809,
        0.04507714578568557,
        0.07019875605055133,
        0.0731278555667756,
        0.0023298826769586,
        -0.4656184109127405,
        0.09224540083945448,
        -0.2915710801932983,
        -0.0038040828427516713,
        0.05068238184753833,
        0.050083349012520866,
        -0.006306143764618303,
        0.10181153751229517
      ],
      "bias": 0,
      "kind": "rl_linear_q",
      "qWeights": [
        [
          0.49936678484868174,
          0.12219043757940004,
          -2.110976048076262,
          -0.0217103967589703,
          0.6225756694980198,
          -0.37824661727700043,
          0.02293517078912608,
          0.0539894846188651,
          -0.00023184006441951047,
          -0.04893236573464308,
          0.0008131649730746164,
          -0.3917898314164647,
          0.09494254507134478,
          -0.441858901435992,
          0.023014033955828968,
          0.04711670649752212,
          -0.34943518764786685,
          0.021162228910879467,
          0.5651766316440843
        ],
        [
          0.5303344861820766,
          0.16772281958712365,
          -1.5376809446477935,
          0.007818175420526454,
          -0.01932330052068326,
          0.4288051011661327,
          0.011597862618453449,
          0.04833010840950469,
          -0.06300533904910449,
          0.015159420497216974,
          -0.00023327803183217037,
          0.4068406723369807,
          0.09698517318030071,
          -0.19958137616226546,
          0.01350072802932997,
          0.054449300147959324,
          -0.23046051860102204,
          -0.0049589893026449955,
          0.3045629760948791
        ],
        [
          0.29543822242744633,
          0.2723485608921487,
          -1.594361814726008,
          0.004867317890297031,
          -0.011984867049782405,
          0.6858678323911656,
          0.014408847544234809,
          0.04507714578568557,
          0.07019875605055133,
          0.0731278555667756,
          0.0023298826769586,
          -0.4656184109127405,
          0.09224540083945448,
          -0.2915710801932983,
          -0.0038040828427516713,
          0.05068238184753833,
          0.050083349012520866,
          -0.006306143764618303,
          0.10181153751229517
        ]
      ],
      "qBias": [
        0.006543402662515763,
        -0.0008697097157033044,
        0.01774453605745688
      ],
      "training": {
        "episodes": 4,
        "avgEpisodeReward": 2.4041635760974565,
        "warmStartModelId": "11f9196f-8674-4554-ae44-b5da71d126bf",
        "pretrainEpisodes": 150,
        "replayEpisodes": 0
      },
      "metrics": {
        "accuracy": 0.6121951219512195,
        "f1": 20.310281101722527,
        "precision": 0.9985282319971397,
        "recall": 8.206598667473688
      },
      "evaluation": {
        "walkForwardSharpe": 1.943952459967613,
        "walkForwardProfitFactor": 3.0428257255750815,
        "walkForwardMaxDrawdown": 0.001079174699212084,
        "paperWindowProfitFactor": 50,
        "paperWindowSharpe": 25.086506808071395,
        "paperWindowNetPnl": 871.0604978433712,
        "paperWindowTrades": 77,
        "unseenProfitFactor": 0,
        "unseenSharpe": 0,
        "unseenNetPnl": 0,
        "unseenTrades": 0,
        "inSampleWinRate": 0.6121951219512195,
        "inSampleNetPnl": 1673.9215446146336
      }
    },
    {
      "id": "11f9196f-8674-4554-ae44-b5da71d126bf",
      "createdAt": 1772161651140,
      "stage": "challenger",
      "source": "rl_offline_q_learning",
      "featureNames": [
        "returns",
        "volatility",
        "atr_norm",
        "rsi_norm",
        "ema_spread",
        "macd_hist_norm",
        "bb_pos",
        "adx_norm",
        "mom_3",
        "mom_12",
        "volume_z",
        "flow_imbalance",
        "returns_autocorr",
        "ema34_dist",
        "hurst_proxy",
        "bb_squeeze",
        "cross_trend_mom3",
        "cross_trend_rsi",
        "cross_vol_bbpos"
      ],
      "weights": [
        0.5071396316411186,
        0.12012289761555392,
        -2.0577938079117715,
        0.0067544165380289045,
        0.6913673588444363,
        -0.39148233574561564,
        -0.003986313001672177,
        0.05467182302494832,
        -0.07014353057254391,
        -0.13697509300176441,
        0.0013408432805613276,
        -0.3917898314164647,
        0.08863907733315318,
        -0.32451881571770413,
        0.04779927672883531,
        0.05075687532619648,
        -0.3878347886655299,
        0.005145332242563462,
        0.5499173794287369,
        0.5444870073484631,
        0.16737205177988806,
        -1.4824462832703997,
        0.016793099502475557,
        0.04770937541289501,
        0.40151325672950783,
        -0.0040618988586279174,
        0.04925667268708495,
        -0.1325405366066252,
        -0.03545875773417314,
        -0.000057720447451936576,
        0.4068406723369807,
        0.0881777723943848,
        -0.06860601140670355,
        0.04167178355606859,
        0.05248279972049855,
        -0.2711053483823715,
        -0.02071656560423604,
        0.27882536041239525,
        0.310799450000142,
        0.276753353407862,
        -1.5369209426474955,
        0.02317525118277889,
        0.07536434464267765,
        0.6305748905214763,
        -0.008228104824705125,
        0.05043630187629631,
        0.019753085005317434,
        0.019422097694816,
        0.00008502003871533897,
        -0.4656184109127405,
        0.09107925107531611,
        -0.16278837487636302,
        0.01504436766388755,
        0.05311173563584755,
        0.01620473873881936,
        -0.024930472070969684,
        0.0792929053503974
      ],
      "bias": 0,
      "kind": "rl_linear_q",
      "qWeights": [
        [
          0.5071396316411186,
          0.12012289761555392,
          -2.0577938079117715,
          0.0067544165380289045,
          0.6913673588444363,
          -0.39148233574561564,
          -0.003986313001672177,
          0.05467182302494832,
          -0.07014353057254391,
          -0.13697509300176441,
          0.0013408432805613276,
          -0.3917898314164647,
          0.08863907733315318,
          -0.32451881571770413,
          0.04779927672883531,
          0.05075687532619648,
          -0.3878347886655299,
          0.005145332242563462,
          0.5499173794287369
        ],
        [
          0.5444870073484631,
          0.16737205177988806,
          -1.4824462832703997,
          0.016793099502475557,
          0.04770937541289501,
          0.40151325672950783,
          -0.0040618988586279174,
          0.04925667268708495,
          -0.1325405366066252,
          -0.03545875773417314,
          -0.000057720447451936576,
          0.4068406723369807,
          0.0881777723943848,
          -0.06860601140670355,
          0.04167178355606859,
          0.05248279972049855,
          -0.2711053483823715,
          -0.02071656560423604,
          0.27882536041239525
        ],
        [
          0.310799450000142,
          0.276753353407862,
          -1.5369209426474955,
          0.02317525118277889,
          0.07536434464267765,
          0.6305748905214763,
          -0.008228104824705125,
          0.05043630187629631,
          0.019753085005317434,
          0.019422097694816,
          0.00008502003871533897,
          -0.4656184109127405,
          0.09107925107531611,
          -0.16278837487636302,
          0.01504436766388755,
          0.05311173563584755,
          0.01620473873881936,
          -0.024930472070969684,
          0.0792929053503974
        ]
      ],
      "qBias": [
        -0.01116082861976845,
        -0.009856602689898863,
        0.003907942833025489
      ],
      "training": {
        "episodes": 4,
        "avgEpisodeReward": 1.9068270177400475,
        "warmStartModelId": "f6e4e6d6-b57b-4ae8-9eab-ef4cd5bdb0b3",
        "pretrainEpisodes": 150,
        "replayEpisodes": 0
      },
      "metrics": {
        "accuracy": 0.7397260273972602,
        "f1": 46.1453045913936,
        "precision": 0.9990301210127277,
        "recall": 8.026245468232917
      },
      "evaluation": {
        "walkForwardSharpe": 3.001473303958056,
        "walkForwardProfitFactor": 2.774476399182555,
        "walkForwardMaxDrawdown": 0.0007611192763353335,
        "paperWindowProfitFactor": 50,
        "paperWindowSharpe": 22.2979335390283,
        "paperWindowNetPnl": 818.9072329893443,
        "paperWindowTrades": 67,
        "unseenProfitFactor": 0,
        "unseenSharpe": 0,
        "unseenNetPnl": 0,
        "unseenTrades": 0,
        "inSampleWinRate": 0.7397260273972602,
        "inSampleNetPnl": 1611.2122195221455
      }
    },
    {
      "id": "f6e4e6d6-b57b-4ae8-9eab-ef4cd5bdb0b3",
      "createdAt": 1772161579148,
      "stage": "challenger",
      "source": "rl_offline_q_learning",
      "featureNames": [
        "returns",
        "volatility",
        "atr_norm",
        "rsi_norm",
        "ema_spread",
        "macd_hist_norm",
        "bb_pos",
        "adx_norm",
        "mom_3",
        "mom_12",
        "volume_z",
        "flow_imbalance",
        "returns_autocorr",
        "ema34_dist",
        "hurst_proxy",
        "bb_squeeze",
        "cross_trend_mom3",
        "cross_trend_rsi",
        "cross_vol_bbpos"
      ],
      "weights": [
        0.5016851091126834,
        0.1033800191877075,
        -2.0122325126159017,
        0.017907260510133315,
        0.7020768266864986,
        -0.3855415069824776,
        -0.011591435434800752,
        0.04993993274573299,
        -0.08759938993157526,
        -0.19303640092515353,
        -0.00033082740511657896,
        -0.3917898314164647,
        0.09162896286481144,
        -0.31217723505096007,
        0.06852411801495482,
        0.046358783526604275,
        -0.3882492713365064,
        0.006126446497022318,
        0.5384518699923322,
        0.5434489124776638,
        0.14295578334968245,
        -1.4395249603396376,
        0.031573126508020584,
        0.04514732493574917,
        0.39720737533213385,
        -0.011074457146536302,
        0.053089379090084654,
        -0.15148848081874738,
        -0.07719334172948489,
        0.00020101022894009082,
        0.4068406723369807,
        0.08623977918461584,
        -0.06331915423625847,
        0.052486813114875366,
        0.05275111408612576,
        -0.2710486502618074,
        -0.02058751314701995,
        0.25704683468659123,
        0.3119818384569822,
        0.2588471974640822,
        -1.5036454904804502,
        0.03859258765876276,
        0.08763845836236671,
        0.6041420980061137,
        -0.012681360923082783,
        0.04905555846722041,
        -0.0054818763245280955,
        -0.018803878762247945,
        0.0005282721906675029,
        -0.4656184109127405,
        0.08708353034162389,
        -0.1639045447821154,
        0.02578783905619797,
        0.05053123217745704,
        0.019876488217518425,
        -0.035468931751797335,
        0.051406906608472996
      ],
      "bias": 0,
      "kind": "rl_linear_q",
      "qWeights": [
        [
          0.5016851091126834,
          0.1033800191877075,
          -2.0122325126159017,
          0.017907260510133315,
          0.7020768266864986,
          -0.3855415069824776,
          -0.011591435434800752,
          0.04993993274573299,
          -0.08759938993157526,
          -0.19303640092515353,
          -0.00033082740511657896,
          -0.3917898314164647,
          0.09162896286481144,
          -0.31217723505096007,
          0.06852411801495482,
          0.046358783526604275,
          -0.3882492713365064,
          0.006126446497022318,
          0.5384518699923322
        ],
        [
          0.5434489124776638,
          0.14295578334968245,
          -1.4395249603396376,
          0.031573126508020584,
          0.04514732493574917,
          0.39720737533213385,
          -0.011074457146536302,
          0.053089379090084654,
          -0.15148848081874738,
          -0.07719334172948489,
          0.00020101022894009082,
          0.4068406723369807,
          0.08623977918461584,
          -0.06331915423625847,
          0.052486813114875366,
          0.05275111408612576,
          -0.2710486502618074,
          -0.02058751314701995,
          0.25704683468659123
        ],
        [
          0.3119818384569822,
          0.2588471974640822,
          -1.5036454904804502,
          0.03859258765876276,
          0.08763845836236671,
          0.6041420980061137,
          -0.012681360923082783,
          0.04905555846722041,
          -0.0054818763245280955,
          -0.018803878762247945,
          0.0005282721906675029,
          -0.4656184109127405,
          0.08708353034162389,
          -0.1639045447821154,
          0.02578783905619797,
          0.05053123217745704,
          0.019876488217518425,
          -0.035468931751797335,
          0.051406906608472996
        ]
      ],
      "qBias": [
        -0.014738974738200662,
        -0.016863065110280597,
        -0.0036326673777491965
      ],
      "training": {
        "episodes": 4,
        "avgEpisodeReward": 1.990960836932934,
        "warmStartModelId": "6b56edd5-e061-4086-bb8e-a157a1721834",
        "pretrainEpisodes": 150,
        "replayEpisodes": 0
      },
      "metrics": {
        "accuracy": 0.7018348623853211,
        "f1": 41.02497730187339,
        "precision": 0.9987098983232309,
        "recall": 8.160665817537431
      },
      "evaluation": {
        "walkForwardSharpe": -1.1300013664553479,
        "walkForwardProfitFactor": 0.6790051420960447,
        "walkForwardMaxDrawdown": 0.011258281396362946,
        "paperWindowProfitFactor": 50,
        "paperWindowSharpe": 21.004263019135443,
        "paperWindowNetPnl": 798.8162076291592,
        "paperWindowTrades": 49,
        "unseenProfitFactor": 0,
        "unseenSharpe": 0,
        "unseenNetPnl": 0,
        "unseenTrades": 0,
        "inSampleWinRate": 0.7018348623853211,
        "inSampleNetPnl": 1521.0099686087851
      }
    },
    {
      "id": "94e029e1-7ba5-4902-83d1-4edcb91e88f4",
      "createdAt": 1772161438310,
      "stage": "challenger",
      "source": "rl_offline_q_learning",
      "featureNames": [
        "returns",
        "volatility",
        "atr_norm",
        "rsi_norm",
        "ema_spread",
        "macd_hist_norm",
        "bb_pos",
        "adx_norm",
        "mom_3",
        "mom_12",
        "volume_z",
        "flow_imbalance",
        "returns_autocorr",
        "ema34_dist",
        "hurst_proxy",
        "bb_squeeze",
        "cross_trend_mom3",
        "cross_trend_rsi",
        "cross_vol_bbpos"
      ],
      "weights": [
        0.47254493280224774,
        0.04467793994815884,
        -1.8973479132078546,
        0.01905437715934499,
        0.7031018258630406,
        -0.3274470312884537,
        -0.0085654946490593,
        0.061259992236486024,
        -0.11438268891988793,
        -0.1649562113867144,
        0.0010856103899057144,
        -0.3917898314164647,
        0.09197266735439233,
        -0.35049130438473725,
        0.06752777209090469,
        0.06420997016746464,
        -0.3119047781187288,
        -0.002269721096133106,
        0.5128403824587291,
        0.5305372643573895,
        0.10333559821123485,
        -1.3230715997434053,
        0.025002473000920417,
        0.006976561779041652,
        0.4139014156222767,
        -0.004811673109518869,
        0.054999864601178984,
        -0.163708093638721,
        -0.04475955661962923,
        0.0003214625926407039,
        0.4068406723369807,
        0.08729147442604575,
        -0.09828288454062797,
        0.061561607373069795,
        0.06306454019646585,
        -0.22087864735703094,
        -0.017381464258699002,
        0.2012260302480836,
        0.29967041168735414,
        0.23254776392914295,
        -1.4217302157239782,
        0.03771544058427894,
        0.08075583808629012,
        0.5819915134393165,
        -0.009862964116211464,
        0.05460597593651417,
        0.0076517364462878,
        0.02366567154427685,
        0.002735766960030649,
        -0.4656184109127405,
        0.0909480586432021,
        -0.22908995165616436,
        0.03488448048426017,
        0.06662124574611696,
        0.10753320574077388,
        -0.036379276233641136,
        0.002956756498869414
      ],
      "bias": 0,
      "kind": "rl_linear_q",
      "qWeights": [
        [
          0.47254493280224774,
          0.04467793994815884,
          -1.8973479132078546,
          0.01905437715934499,
          0.7031018258630406,
          -0.3274470312884537,
          -0.0085654946490593,
          0.061259992236486024,
          -0.11438268891988793,
          -0.1649562113867144,
          0.0010856103899057144,
          -0.3917898314164647,
          0.09197266735439233,
          -0.35049130438473725,
          0.06752777209090469,
          0.06420997016746464,
          -0.3119047781187288,
          -0.002269721096133106,
          0.5128403824587291
        ],
        [
          0.5305372643573895,
          0.10333559821123485,
          -1.3230715997434053,
          0.025002473000920417,
          0.006976561779041652,
          0.4139014156222767,
          -0.004811673109518869,
          0.054999864601178984,
          -0.163708093638721,
          -0.04475955661962923,
          0.0003214625926407039,
          0.4068406723369807,
          0.08729147442604575,
          -0.09828288454062797,
          0.061561607373069795,
          0.06306454019646585,
          -0.22087864735703094,
          -0.017381464258699002,
          0.2012260302480836
        ],
        [
          0.29967041168735414,
          0.23254776392914295,
          -1.4217302157239782,
          0.03771544058427894,
          0.08075583808629012,
          0.5819915134393165,
          -0.009862964116211464,
          0.05460597593651417,
          0.0076517364462878,
          0.02366567154427685,
          0.002735766960030649,
          -0.4656184109127405,
          0.0909480586432021,
          -0.22908995165616436,
          0.03488448048426017,
          0.06662124574611696,
          0.10753320574077388,
          -0.036379276233641136,
          0.002956756498869414
        ]
      ],
      "qBias": [
        -0.023810156247744026,
        -0.02419524091970115,
        -0.017802434581234976
      ],
      "training": {
        "episodes": 4,
        "avgEpisodeReward": 1.993028641254878,
        "warmStartModelId": "a76c1137-a066-42cc-b6d1-1d6d01c24162",
        "pretrainEpisodes": 150,
        "replayEpisodes": 0
      },
      "metrics": {
        "accuracy": 0.6826666666666666,
        "f1": 25.17907920559122,
        "precision": 0.9988950808968823,
        "recall": 8.030880831255082
      },
      "evaluation": {
        "walkForwardSharpe": -4.131732445705822,
        "walkForwardProfitFactor": 0.25412715667423946,
        "walkForwardMaxDrawdown": 0.037561584096457955,
        "paperWindowProfitFactor": 50,
        "paperWindowSharpe": 21.011188882123008,
        "paperWindowNetPnl": 800.1982256862393,
        "paperWindowTrades": 82,
        "unseenProfitFactor": 0,
        "unseenSharpe": 0,
        "unseenNetPnl": 0,
        "unseenTrades": 0,
        "inSampleWinRate": 0.6826666666666666,
        "inSampleNetPnl": 1513.409629158119
      }
    },
    {
      "id": "a76c1137-a066-42cc-b6d1-1d6d01c24162",
      "createdAt": 1772161369609,
      "stage": "challenger",
      "source": "rl_offline_q_learning",
      "featureNames": [
        "returns",
        "volatility",
        "atr_norm",
        "rsi_norm",
        "ema_spread",
        "macd_hist_norm",
        "bb_pos",
        "adx_norm",
        "mom_3",
        "mom_12",
        "volume_z",
        "flow_imbalance",
        "returns_autocorr",
        "ema34_dist",
        "hurst_proxy",
        "bb_squeeze",
        "cross_trend_mom3",
        "cross_trend_rsi",
        "cross_vol_bbpos"
      ],
      "weights": [
        0.4552004279757568,
        0.047177826286526794,
        -1.8236634523826374,
        0.03720065672520757,
        0.6750559594921672,
        -0.30103793140857904,
        -0.026586198479027087,
        0.05071613978442697,
        -0.0935000224828215,
        -0.1798416062913123,
        -0.000497848106862646,
        -0.3917898314164647,
        0.09724354033699127,
        -0.4019891619260886,
        0.0800891963423484,
        0.057581873037215014,
        -0.27047672774435877,
        -0.0019657428320143376,
        0.5045475336975372,
        0.5204849977298699,
        0.11303626991981758,
        -1.2485621517259897,
        0.04173191461350678,
        -0.033011820344376476,
        0.428194913090361,
        -0.019364043936327457,
        0.05009051079498316,
        -0.1458672267627945,
        -0.029156624666531263,
        -0.0005626647256610051,
        0.4068406723369807,
        0.09913128045255928,
        -0.14590885999323797,
        0.06244859931492565,
        0.07169174899550093,
        -0.19318534331833154,
        -0.03302353365371293,
        0.18982555798469047,
        0.295051886134027,
        0.21282935386519275,
        -1.3596410968837767,
        0.05277404090005108,
        0.06254091133921484,
        0.5687145365276186,
        -0.02995383603155942,
        0.05798601574120019,
        0.01586633913075697,
        0.01639083748929635,
        -0.002550180245465096,
        -0.4656184109127405,
        0.0882131900898806,
        -0.27180692497846803,
        0.04153630483217361,
        0.06880084638500451,
        0.1412430933741583,
        -0.03810707818335361,
        -0.019742793743015897
      ],
      "bias": 0,
      "kind": "rl_linear_q",
      "qWeights": [
        [
          0.4552004279757568,
          0.047177826286526794,
          -1.8236634523826374,
          0.03720065672520757,
          0.6750559594921672,
          -0.30103793140857904,
          -0.026586198479027087,
          0.05071613978442697,
          -0.0935000224828215,
          -0.1798416062913123,
          -0.000497848106862646,
          -0.3917898314164647,
          0.09724354033699127,
          -0.4019891619260886,
          0.0800891963423484,
          0.057581873037215014,
          -0.27047672774435877,
          -0.0019657428320143376,
          0.5045475336975372
        ],
        [
          0.5204849977298699,
          0.11303626991981758,
          -1.2485621517259897,
          0.04173191461350678,
          -0.033011820344376476,
          0.428194913090361,
          -0.019364043936327457,
          0.05009051079498316,
          -0.1458672267627945,
          -0.029156624666531263,
          -0.0005626647256610051,
          0.4068406723369807,
          0.09913128045255928,
          -0.14590885999323797,
          0.06244859931492565,
          0.07169174899550093,
          -0.19318534331833154,
          -0.03302353365371293,
          0.18982555798469047
        ],
        [
          0.295051886134027,
          0.21282935386519275,
          -1.3596410968837767,
          0.05277404090005108,
          0.06254091133921484,
          0.5687145365276186,
          -0.02995383603155942,
          0.05798601574120019,
          0.01586633913075697,
          0.01639083748929635,
          -0.002550180245465096,
          -0.4656184109127405,
          0.0882131900898806,
          -0.27180692497846803,
          0.04153630483217361,
          0.06880084638500451,
          0.1412430933741583,
          -0.03810707818335361,
          -0.019742793743015897
        ]
      ],
      "qBias": [
        -0.02664288181269992,
        -0.0347882717347681,
        -0.02035359491214025
      ],
      "training": {
        "episodes": 4,
        "avgEpisodeReward": 2.4859724140118504,
        "warmStartModelId": "da0f111c-1c82-4333-b0d7-b556c347dd5d",
        "pretrainEpisodes": 150,
        "replayEpisodes": 0
      },
      "metrics": {
        "accuracy": 0.6045694200351494,
        "f1": 15.269257797195218,
        "precision": 0.9984892294894145,
        "recall": 7.759667783248098
      },
      "evaluation": {
        "walkForwardSharpe": 1.1803740870219173,
        "walkForwardProfitFactor": 1.5491231641955603,
        "walkForwardMaxDrawdown": 0.0023699059425976643,
        "paperWindowProfitFactor": 50,
        "paperWindowSharpe": 21.897231054278077,
        "paperWindowNetPnl": 832.282947898193,
        "paperWindowTrades": 75,
        "unseenProfitFactor": 0,
        "unseenSharpe": 0,
        "unseenNetPnl": 0,
        "unseenTrades": 0,
        "inSampleWinRate": 0.6045694200351494,
        "inSampleNetPnl": 1589.9520887322178
      }
    },
    {
      "id": "da0f111c-1c82-4333-b0d7-b556c347dd5d",
      "createdAt": 1772161301064,
      "stage": "challenger",
      "source": "rl_offline_q_learning",
      "featureNames": [
        "returns",
        "volatility",
        "atr_norm",
        "rsi_norm",
        "ema_spread",
        "macd_hist_norm",
        "bb_pos",
        "adx_norm",
        "mom_3",
        "mom_12",
        "volume_z",
        "flow_imbalance",
        "returns_autocorr",
        "ema34_dist",
        "hurst_proxy",
        "bb_squeeze",
        "cross_trend_mom3",
        "cross_trend_rsi",
        "cross_vol_bbpos"
      ],
      "weights": [
        0.4374774974291671,
        0.03633583622438124,
        -1.744269114017893,
        0.01666245625410835,
        0.6468838399738116,
        -0.266942022462239,
        -0.0024776233962733487,
        0.0624882363983868,
        -0.0635924371089425,
        -0.13335540003061744,
        0.0002653564286204672,
        -0.3917898314164647,
        0.10020830923956071,
        -0.4519212994632821,
        0.07868454500986524,
        0.06696845962084284,
        -0.22396243341390382,
        0.005656563234947128,
        0.5010551789795415,
        0.510884122793904,
        0.10888380887770238,
        -1.1836427554540585,
        0.018378687059615175,
        -0.066040612487897,
        0.44155350568092727,
        0.00350492352124858,
        0.05991237958673007,
        -0.12430379827816021,
        0.015703399850427516,
        0.0008808355051058128,
        0.4068406723369807,
        0.09981048324316788,
        -0.1891128168248266,
        0.06211395820632897,
        0.06766680222344391,
        -0.16536446299403995,
        -0.01641825205228582,
        0.18644721283183208,
        0.2860836994741204,
        0.21735676288373462,
        -1.3019554817413794,
        0.03561745052814336,
        0.04154208244198178,
        0.5641999051286917,
        -0.009818250036350371,
        0.07004624916310548,
        0.036859142511486816,
        0.06825364829242618,
        -0.0010975775642124417,
        -0.4656184109127405,
        0.0917637002940638,
        -0.33338692917147755,
        0.0241853160068335,
        0.07321730641024136,
        0.18814540670528754,
        -0.03097042711590773,
        -0.02448614172573702
      ],
      "bias": 0,
      "kind": "rl_linear_q",
      "qWeights": [
        [
          0.4374774974291671,
          0.03633583622438124,
          -1.744269114017893,
          0.01666245625410835,
          0.6468838399738116,
          -0.266942022462239,
          -0.0024776233962733487,
          0.0624882363983868,
          -0.0635924371089425,
          -0.13335540003061744,
          0.0002653564286204672,
          -0.3917898314164647,
          0.10020830923956071,
          -0.4519212994632821,
          0.07868454500986524,
          0.06696845962084284,
          -0.22396243341390382,
          0.005656563234947128,
          0.5010551789795415
        ],
        [
          0.510884122793904,
          0.10888380887770238,
          -1.1836427554540585,
          0.018378687059615175,
          -0.066040612487897,
          0.44155350568092727,
          0.00350492352124858,
          0.05991237958673007,
          -0.12430379827816021,
          0.015703399850427516,
          0.0008808355051058128,
          0.4068406723369807,
          0.09981048324316788,
          -0.1891128168248266,
          0.06211395820632897,
          0.06766680222344391,
          -0.16536446299403995,
          -0.01641825205228582,
          0.18644721283183208
        ],
        [
          0.2860836994741204,
          0.21735676288373462,
          -1.3019554817413794,
          0.03561745052814336,
          0.04154208244198178,
          0.5641999051286917,
          -0.009818250036350371,
          0.07004624916310548,
          0.036859142511486816,
          0.06825364829242618,
          -0.0010975775642124417,
          -0.4656184109127405,
          0.0917637002940638,
          -0.33338692917147755,
          0.0241853160068335,
          0.07321730641024136,
          0.18814540670528754,
          -0.03097042711590773,
          -0.02448614172573702
        ]
      ],
      "qBias": [
        -0.04419279597329995,
        -0.04361804224334232,
        -0.026381405144972076
      ],
      "training": {
        "episodes": 3,
        "avgEpisodeReward": 1.3226721618568689,
        "warmStartModelId": "be617490-8957-427e-aea4-02bba24f9740",
        "pretrainEpisodes": 150,
        "replayEpisodes": 0
      },
      "metrics": {
        "accuracy": 0.6990521327014217,
        "f1": 17.238269263470585,
        "precision": 0.9988627577398204,
        "recall": 7.314799981878589
      },
      "evaluation": {
        "walkForwardSharpe": 3.5098747410036757,
        "walkForwardProfitFactor": 3.2186226159286924,
        "walkForwardMaxDrawdown": 0.0027295120901270234,
        "paperWindowProfitFactor": 50,
        "paperWindowSharpe": 19.375457185865436,
        "paperWindowNetPnl": 745.7017562712972,
        "paperWindowTrades": 89,
        "unseenProfitFactor": 0,
        "unseenSharpe": 0,
        "unseenNetPnl": 0,
        "unseenTrades": 0,
        "inSampleWinRate": 0.6990521327014217,
        "inSampleNetPnl": 1477.8684756608927
      }
    },
    {
      "id": "be617490-8957-427e-aea4-02bba24f9740",
      "createdAt": 1772161232803,
      "stage": "challenger",
      "source": "rl_offline_q_learning",
      "featureNames": [
        "returns",
        "volatility",
        "atr_norm",
        "rsi_norm",
        "ema_spread",
        "macd_hist_norm",
        "bb_pos",
        "adx_norm",
        "mom_3",
        "mom_12",
        "volume_z",
        "flow_imbalance",
        "returns_autocorr",
        "ema34_dist",
        "hurst_proxy",
        "bb_squeeze",
        "cross_trend_mom3",
        "cross_trend_rsi",
        "cross_vol_bbpos"
      ],
      "weights": [
        0.42432424154277415,
        0.04478975056745336,
        -1.6313200882884764,
        0.008318148366788573,
        0.6372936374588144,
        -0.24213096662721237,
        0.0008699247477058583,
        0.06439412514696771,
        -0.04660982821083009,
        -0.07526914152802307,
        0.00033808602204128625,
        -0.3917898314164647,
        0.10176621398889939,
        -0.4603026801985766,
        0.06506720136389733,
        0.07159746293498566,
        -0.19788849930210453,
        -0.004299948671506428,
        0.4836327956012639,
        0.506582074175121,
        0.10669470519801762,
        -1.1070239458918,
        0.016313693956777696,
        -0.08427565264947133,
        0.4461030618382257,
        -0.004845986198788783,
        0.06322215568459397,
        -0.10007963468547872,
        0.05731532853077136,
        0.0011048365206522321,
        0.4068406723369807,
        0.10007885311862791,
        -0.19161231011530874,
        0.043607713942316884,
        0.07347751831221278,
        -0.15471131038444802,
        -0.016860811084963227,
        0.1707743731433604,
        0.2850438835058093,
        0.2272488999109008,
        -1.2179630027082613,
        0.013702000813740112,
        0.03671676823423186,
        0.542716957262599,
        -0.0005391571483030611,
        0.05862852505180257,
        0.06737065765994148,
        0.1331363427914958,
        0.00016560186202231917,
        -0.4656184109127405,
        0.10012181645635677,
        -0.34218383807801667,
        0.024919699873914545,
        0.06790502854088004,
        0.21014944597740623,
        -0.024115719172203173,
        -0.031361829795017275
      ],
      "bias": 0,
      "kind": "rl_linear_q",
      "qWeights": [
        [
          0.42432424154277415,
          0.04478975056745336,
          -1.6313200882884764,
          0.008318148366788573,
          0.6372936374588144,
          -0.24213096662721237,
          0.0008699247477058583,
          0.06439412514696771,
          -0.04660982821083009,
          -0.07526914152802307,
          0.00033808602204128625,
          -0.3917898314164647,
          0.10176621398889939,
          -0.4603026801985766,
          0.06506720136389733,
          0.07159746293498566,
          -0.19788849930210453,
          -0.004299948671506428,
          0.4836327956012639
        ],
        [
          0.506582074175121,
          0.10669470519801762,
          -1.1070239458918,
          0.016313693956777696,
          -0.08427565264947133,
          0.4461030618382257,
          -0.004845986198788783,
          0.06322215568459397,
          -0.10007963468547872,
          0.05731532853077136,
          0.0011048365206522321,
          0.4068406723369807,
          0.10007885311862791,
          -0.19161231011530874,
          0.043607713942316884,
          0.07347751831221278,
          -0.15471131038444802,
          -0.016860811084963227,
          0.1707743731433604
        ],
        [
          0.2850438835058093,
          0.2272488999109008,
          -1.2179630027082613,
          0.013702000813740112,
          0.03671676823423186,
          0.542716957262599,
          -0.0005391571483030611,
          0.05862852505180257,
          0.06737065765994148,
          0.1331363427914958,
          0.00016560186202231917,
          -0.4656184109127405,
          0.10012181645635677,
          -0.34218383807801667,
          0.024919699873914545,
          0.06790502854088004,
          0.21014944597740623,
          -0.024115719172203173,
          -0.031361829795017275
        ]
      ],
      "qBias": [
        -0.03696228274310231,
        -0.029533418319482415,
        -0.014311681476055845
      ],
      "training": {
        "episodes": 4,
        "avgEpisodeReward": 2.0608003150337435,
        "warmStartModelId": "1f680499-9594-406d-914a-770b70e87565",
        "pretrainEpisodes": 150,
        "replayEpisodes": 0
      },
      "metrics": {
        "accuracy": 0.729957805907173,
        "f1": 29.690487571800762,
        "precision": 0.9986688628854878,
        "recall": 7.733804807888587
      },
      "evaluation": {
        "walkForwardSharpe": 3.3459859807804784,
        "walkForwardProfitFactor": 4.837293560615193,
        "walkForwardMaxDrawdown": 0.0014521663444860423,
        "paperWindowProfitFactor": 50,
        "paperWindowSharpe": 25.126212636701172,
        "paperWindowNetPnl": 873.9509641710993,
        "paperWindowTrades": 55,
        "unseenProfitFactor": 0,
        "unseenSharpe": 0,
        "unseenNetPnl": 0,
        "unseenTrades": 0,
        "inSampleWinRate": 0.729957805907173,
        "inSampleNetPnl": 1640.3048283822936
      }
    },
    {
      "id": "1f680499-9594-406d-914a-770b70e87565",
      "createdAt": 1772161164274,
      "stage": "challenger",
      "source": "rl_offline_q_learning",
      "featureNames": [
        "returns",
        "volatility",
        "atr_norm",
        "rsi_norm",
        "ema_spread",
        "macd_hist_norm",
        "bb_pos",
        "adx_norm",
        "mom_3",
        "mom_12",
        "volume_z",
        "flow_imbalance",
        "returns_autocorr",
        "ema34_dist",
        "hurst_proxy",
        "bb_squeeze",
        "cross_trend_mom3",
        "cross_trend_rsi",
        "cross_vol_bbpos"
      ],
      "weights": [
        0.42004414099136556,
        0.0310225081779969,
        -1.5666541693916014,
        0.021695413312208856,
        0.6666515659226822,
        -0.2355700169729903,
        -0.009353745265012,
        0.06540947292490323,
        -0.06009086964036984,
        -0.12927803697781032,
        0.0011005465004094042,
        -0.3917898314164647,
        0.10288636676362332,
        -0.41204009853009815,
        0.054065614273041865,
        0.07214027335140187,
        -0.2015865954039105,
        -0.007847008019463602,
        0.46607396884686253,
        0.5090768751655139,
        0.09298565992492525,
        -1.0481298387516806,
        0.03313174184952466,
        -0.07490038568320337,
        0.435333545616951,
        -0.011602676434071112,
        0.0652643547097678,
        -0.11161755005606072,
        0.03417020872509986,
        0.00015026562725218703,
        0.4068406723369807,
        0.10303901604779449,
        -0.15259238426523916,
        0.04540011009599087,
        0.08003536328790095,
        -0.16457784483205434,
        -0.028397982099853173,
        0.14853845513529376,
        0.28877362061092665,
        0.20625097289453984,
        -1.1552613682885735,
        0.04118039891762544,
        0.04916187959913979,
        0.5086042953054246,
        -0.012773757312668233,
        0.06392504644933633,
        0.07597694048485208,
        0.10441540109555889,
        -0.000058015229888931804,
        -0.4656184109127405,
        0.10019363700841157,
        -0.3312769766681267,
        0.027808259586631245,
        0.0733973803813766,
        0.20739537694177007,
        -0.04000426551731319,
        -0.057821985764406614
      ],
      "bias": 0,
      "kind": "rl_linear_q",
      "qWeights": [
        [
          0.42004414099136556,
          0.0310225081779969,
          -1.5666541693916014,
          0.021695413312208856,
          0.6666515659226822,
          -0.2355700169729903,
          -0.009353745265012,
          0.06540947292490323,
          -0.06009086964036984,
          -0.12927803697781032,
          0.0011005465004094042,
          -0.3917898314164647,
          0.10288636676362332,
          -0.41204009853009815,
          0.054065614273041865,
          0.07214027335140187,
          -0.2015865954039105,
          -0.007847008019463602,
          0.46607396884686253
        ],
        [
          0.5090768751655139,
          0.09298565992492525,
          -1.0481298387516806,
          0.03313174184952466,
          -0.07490038568320337,
          0.435333545616951,
          -0.011602676434071112,
          0.0652643547097678,
          -0.11161755005606072,
          0.03417020872509986,
          0.00015026562725218703,
          0.4068406723369807,
          0.10303901604779449,
          -0.15259238426523916,
          0.04540011009599087,
          0.08003536328790095,
          -0.16457784483205434,
          -0.028397982099853173,
          0.14853845513529376
        ],
        [
          0.28877362061092665,
          0.20625097289453984,
          -1.1552613682885735,
          0.04118039891762544,
          0.04916187959913979,
          0.5086042953054246,
          -0.012773757312668233,
          0.06392504644933633,
          0.07597694048485208,
          0.10441540109555889,
          -0.000058015229888931804,
          -0.4656184109127405,
          0.10019363700841157,
          -0.3312769766681267,
          0.027808259586631245,
          0.0733973803813766,
          0.20739537694177007,
          -0.04000426551731319,
          -0.057821985764406614
        ]
      ],
      "qBias": [
        -0.029847399318553944,
        -0.03596304657018613,
        -0.025843262329582752
      ],
      "training": {
        "episodes": 4,
        "avgEpisodeReward": 1.839230354054484,
        "warmStartModelId": "79eacb7b-c299-40a0-b4f0-44834c62761c",
        "pretrainEpisodes": 150,
        "replayEpisodes": 0
      },
      "metrics": {
        "accuracy": 0.6017191977077364,
        "f1": 25.139340481906864,
        "precision": 0.9984297576199546,
        "recall": 7.975712922288493
      },
      "evaluation": {
        "walkForwardSharpe": 2.790338671072749,
        "walkForwardProfitFactor": 7.199008591131482,
        "walkForwardMaxDrawdown": 0.0015733915356522389,
        "paperWindowProfitFactor": 50,
        "paperWindowSharpe": 24.09733919325207,
        "paperWindowNetPnl": 857.1895794787597,
        "paperWindowTrades": 48,
        "unseenProfitFactor": 0,
        "unseenSharpe": 0,
        "unseenNetPnl": 0,
        "unseenTrades": 0,
        "inSampleWinRate": 0.6017191977077364,
        "inSampleNetPnl": 1597.2847167816835
      }
    },
    {
      "id": "79eacb7b-c299-40a0-b4f0-44834c62761c",
      "createdAt": 1772161095746,
      "stage": "challenger",
      "source": "rl_offline_q_learning",
      "featureNames": [
        "returns",
        "volatility",
        "atr_norm",
        "rsi_norm",
        "ema_spread",
        "macd_hist_norm",
        "bb_pos",
        "adx_norm",
        "mom_3",
        "mom_12",
        "volume_z",
        "flow_imbalance",
        "returns_autocorr",
        "ema34_dist",
        "hurst_proxy",
        "bb_squeeze",
        "cross_trend_mom3",
        "cross_trend_rsi",
        "cross_vol_bbpos"
      ],
      "weights": [
        0.4088468385099389,
        0.006975699472578879,
        -1.463787821196784,
        0.037161759379521056,
        0.6659783804236152,
        -0.2244094502472013,
        -0.013570855732749703,
        0.06325915421997538,
        -0.06583613482354762,
        -0.1883547750624277,
        -0.00033408937125721234,
        -0.3917898314164647,
        0.10046574643171677,
        -0.41816289707313214,
        0.04649088599060055,
        0.07660101055511372,
        -0.1918355011576298,
        -0.021816482968500424,
        0.42322678852230083,
        0.5055785766866526,
        0.08562803367238903,
        -0.9711603822899271,
        0.04682271320308688,
        -0.10052540521258631,
        0.43062127929954314,
        -0.02239147365979348,
        0.06013965520616085,
        -0.12017349948351604,
        -0.01270057029256504,
        0.00041687859082140236,
        0.4068406723369807,
        0.09662271175231625,
        -0.1756270750200362,
        0.03948597870167904,
        0.07499228280276195,
        -0.16248772435651704,
        -0.030753682649888734,
        0.12261820623826672,
        0.291150060971056,
        0.21163106238663815,
        -1.0746345910925343,
        0.047759959428821414,
        0.06341095707327099,
        0.46824539985238345,
        -0.015216939478865472,
        0.05747213255832059,
        0.04782836073245734,
        0.047951371075329735,
        0.0006336732904161091,
        -0.4656184109127405,
        0.09699954267214281,
        -0.33635436754665404,
        0.013133589240118867,
        0.07124124418708894,
        0.21785320574485983,
        -0.04502431209436154,
        -0.10126648733738966
      ],
      "bias": 0,
      "kind": "rl_linear_q",
      "qWeights": [
        [
          0.4088468385099389,
          0.006975699472578879,
          -1.463787821196784,
          0.037161759379521056,
          0.6659783804236152,
          -0.2244094502472013,
          -0.013570855732749703,
          0.06325915421997538,
          -0.06583613482354762,
          -0.1883547750624277,
          -0.00033408937125721234,
          -0.3917898314164647,
          0.10046574643171677,
          -0.41816289707313214,
          0.04649088599060055,
          0.07660101055511372,
          -0.1918355011576298,
          -0.021816482968500424,
          0.42322678852230083
        ],
        [
          0.5055785766866526,
          0.08562803367238903,
          -0.9711603822899271,
          0.04682271320308688,
          -0.10052540521258631,
          0.43062127929954314,
          -0.02239147365979348,
          0.06013965520616085,
          -0.12017349948351604,
          -0.01270057029256504,
          0.00041687859082140236,
          0.4068406723369807,
          0.09662271175231625,
          -0.1756270750200362,
          0.03948597870167904,
          0.07499228280276195,
          -0.16248772435651704,
          -0.030753682649888734,
          0.12261820623826672
        ],
        [
          0.291150060971056,
          0.21163106238663815,
          -1.0746345910925343,
          0.047759959428821414,
          0.06341095707327099,
          0.46824539985238345,
          -0.015216939478865472,
          0.05747213255832059,
          0.04782836073245734,
          0.047951371075329735,
          0.0006336732904161091,
          -0.4656184109127405,
          0.09699954267214281,
          -0.33635436754665404,
          0.013133589240118867,
          0.07124124418708894,
          0.21785320574485983,
          -0.04502431209436154,
          -0.10126648733738966
        ]
      ],
      "qBias": [
        -0.029553022389321656,
        -0.024134485814305762,
        -0.010351979437296674
      ],
      "training": {
        "episodes": 4,
        "avgEpisodeReward": 1.967500780428396,
        "warmStartModelId": "357a85dd-b8fb-4034-8f82-0f16525471aa",
        "pretrainEpisodes": 150,
        "replayEpisodes": 0
      },
      "metrics": {
        "accuracy": 0.6620498614958449,
        "f1": 25.733540275560568,
        "precision": 0.9989161280119204,
        "recall": 8.382393988879503
      },
      "evaluation": {
        "walkForwardSharpe": -0.6021875825267987,
        "walkForwardProfitFactor": 0.9264631502563525,
        "walkForwardMaxDrawdown": 0.005902405058976699,
        "paperWindowProfitFactor": 50,
        "paperWindowSharpe": 22.736624913791637,
        "paperWindowNetPnl": 837.6547429627026,
        "paperWindowTrades": 50,
        "unseenProfitFactor": 0,
        "unseenSharpe": 0,
        "unseenNetPnl": 0,
        "unseenTrades": 0,
        "inSampleWinRate": 0.6620498614958449,
        "inSampleNetPnl": 1613.2979461089399
      }
    },
    {
      "id": "357a85dd-b8fb-4034-8f82-0f16525471aa",
      "createdAt": 1772161027165,
      "stage": "challenger",
      "source": "rl_offline_q_learning",
      "featureNames": [
        "returns",
        "volatility",
        "atr_norm",
        "rsi_norm",
        "ema_spread",
        "macd_hist_norm",
        "bb_pos",
        "adx_norm",
        "mom_3",
        "mom_12",
        "volume_z",
        "flow_imbalance",
        "returns_autocorr",
        "ema34_dist",
        "hurst_proxy",
        "bb_squeeze",
        "cross_trend_mom3",
        "cross_trend_rsi",
        "cross_vol_bbpos"
      ],
      "weights": [
        0.38437335936532024,
        0.013568858842947106,
        -1.3576509555862863,
        0.0026828259647401786,
        0.6480667881251422,
        -0.18069404982801537,
        0.0017305716802157429,
        0.05220611265945098,
        -0.009542669576966971,
        -0.08280672703158475,
        0.001079871160667721,
        -0.3917898314164647,
        0.10543116677386771,
        -0.47168621331144617,
        0.025173652839400287,
        0.07268369869944319,
        -0.13933555139037834,
        0.009627233101334181,
        0.40895730342476866,
        0.49637062557417955,
        0.09496619819504239,
        -0.9025539427409663,
        -0.00035558597596703343,
        -0.1352525043708385,
        0.4437972723585038,
        0.00884783285372595,
        0.053338079217248535,
        -0.06682358575039742,
        0.0770795418976609,
        0.000542935588102061,
        0.4068406723369807,
        0.11136129733232344,
        -0.21032687467755926,
        0.01258024256111801,
        0.08324883858123353,
        -0.1303641432161558,
        0.0007659728723785262,
        0.1139913680828811,
        0.2809918123000365,
        0.2195482387409692,
        -1.0191541537092412,
        0.015375749697309786,
        0.04154104865194576,
        0.46040627037140497,
        -0.0018980411663705947,
        0.05877340469692588,
        0.12441280463629613,
        0.1654681833527117,
        0.0004174788836554855,
        -0.4656184109127405,
        0.11158221916608002,
        -0.39685391539523424,
        -0.0013168302143935927,
        0.08635685409245636,
        0.2778726016130111,
        -0.014922941406243543,
        -0.12484113611097339
      ],
      "bias": 0,
      "kind": "rl_linear_q",
      "qWeights": [
        [
          0.38437335936532024,
          0.013568858842947106,
          -1.3576509555862863,
          0.0026828259647401786,
          0.6480667881251422,
          -0.18069404982801537,
          0.0017305716802157429,
          0.05220611265945098,
          -0.009542669576966971,
          -0.08280672703158475,
          0.001079871160667721,
          -0.3917898314164647,
          0.10543116677386771,
          -0.47168621331144617,
          0.025173652839400287,
          0.07268369869944319,
          -0.13933555139037834,
          0.009627233101334181,
          0.40895730342476866
        ],
        [
          0.49637062557417955,
          0.09496619819504239,
          -0.9025539427409663,
          -0.00035558597596703343,
          -0.1352525043708385,
          0.4437972723585038,
          0.00884783285372595,
          0.053338079217248535,
          -0.06682358575039742,
          0.0770795418976609,
          0.000542935588102061,
          0.4068406723369807,
          0.11136129733232344,
          -0.21032687467755926,
          0.01258024256111801,
          0.08324883858123353,
          -0.1303641432161558,
          0.0007659728723785262,
          0.1139913680828811
        ],
        [
          0.2809918123000365,
          0.2195482387409692,
          -1.0191541537092412,
          0.015375749697309786,
          0.04154104865194576,
          0.46040627037140497,
