{
  "champion": {
    "id": "6b56edd5-e061-4086-bb8e-a157a1721834",
    "createdAt": 1772161508607,
    "stage": "champion",
    "source": "rl_offline_q_learning",
    "featureNames": [
      "returns",
      "volatility",
      "atr_norm",
      "rsi_norm",
      "ema_spread",
      "macd_hist_norm",
      "bb_pos",
      "adx_norm",
      "mom_3",
      "mom_12",
      "volume_z",
      "flow_imbalance",
      "returns_autocorr",
      "ema34_dist",
      "hurst_proxy",
      "bb_squeeze",
      "cross_trend_mom3",
      "cross_trend_rsi",
      "cross_vol_bbpos"
    ],
    "weights": [
      0.49080948188015067,
      0.07660493996743839,
      -1.9670344074814998,
      0.021054873509907358,
      0.7075370287754691,
      -0.3638194198192676,
      -0.0021593131060434886,
      0.05381147669977395,
      -0.1107343032090268,
      -0.20355735972774353,
      0.0004363225363852847,
      -0.3917898314164647,
      0.08685164404557383,
      -0.3199057892035783,
      0.06463006585756514,
      0.04560321427092923,
      -0.3615296704013911,
      -0.001667629903438394,
      0.5338903043162716,
      0.5403427128150434,
      0.12251326633880305,
      -1.3893389771663014,
      0.022079397119186783,
      0.0398964067421949,
      0.40099362485363327,
      -0.003570916679746699,
      0.054006345138740974,
      -0.1596998357074683,
      -0.06670910614897085,
      0.0005474523691101546,
      0.4068406723369807,
      0.08268292067128175,
      -0.05577835193215483,
      0.06390059807648502,
      0.052839331814036015,
      -0.25521334664622475,
      -0.01745041422796615,
      0.23510251090864667,
      0.3102712602250965,
      0.25179943156600904,
      -1.4696847502021362,
      0.03184714254299347,
      0.101732236984524,
      0.5870273039107846,
      0.000590632318244297,
      0.05676793288804496,
      -0.004346581448018422,
      -0.030166218522129636,
      -0.000018697888030497482,
      -0.4656184109127405,
      0.08233459612533742,
      -0.15978623265913355,
      0.030920688378987905,
      0.05414133729110644,
      0.05190290615713432,
      -0.03171903019389917,
      0.029993180493591762
    ],
    "bias": 0,
    "kind": "rl_linear_q",
    "qWeights": [
      [
        0.49080948188015067,
        0.07660493996743839,
        -1.9670344074814998,
        0.021054873509907358,
        0.7075370287754691,
        -0.3638194198192676,
        -0.0021593131060434886,
        0.05381147669977395,
        -0.1107343032090268,
        -0.20355735972774353,
        0.0004363225363852847,
        -0.3917898314164647,
        0.08685164404557383,
        -0.3199057892035783,
        0.06463006585756514,
        0.04560321427092923,
        -0.3615296704013911,
        -0.001667629903438394,
        0.5338903043162716
      ],
      [
        0.5403427128150434,
        0.12251326633880305,
        -1.3893389771663014,
        0.022079397119186783,
        0.0398964067421949,
        0.40099362485363327,
        -0.003570916679746699,
        0.054006345138740974,
        -0.1596998357074683,
        -0.06670910614897085,
        0.0005474523691101546,
        0.4068406723369807,
        0.08268292067128175,
        -0.05577835193215483,
        0.06390059807648502,
        0.052839331814036015,
        -0.25521334664622475,
        -0.01745041422796615,
        0.23510251090864667
      ],
      [
        0.3102712602250965,
        0.25179943156600904,
        -1.4696847502021362,
        0.03184714254299347,
        0.101732236984524,
        0.5870273039107846,
        0.000590632318244297,
        0.05676793288804496,
        -0.004346581448018422,
        -0.030166218522129636,
        -0.000018697888030497482,
        -0.4656184109127405,
        0.08233459612533742,
        -0.15978623265913355,
        0.030920688378987905,
        0.05414133729110644,
        0.05190290615713432,
        -0.03171903019389917,
        0.029993180493591762
      ]
    ],
    "qBias": [
      -0.019082059900987564,
      -0.02362035766287565,
      -0.00972952205218692
    ],
    "training": {
      "episodes": 4,
      "avgEpisodeReward": 2.2340050172874824,
      "warmStartModelId": "94e029e1-7ba5-4902-83d1-4edcb91e88f4",
      "pretrainEpisodes": 150,
      "replayEpisodes": 0
    },
    "metrics": {
      "accuracy": 0.6666666666666666,
      "f1": 35.87434205378927,
      "precision": 0.9989767815621148,
      "recall": 8.665173678033174
    },
    "evaluation": {
      "walkForwardSharpe": 6.974035653310424,
      "walkForwardProfitFactor": 15.816548801516507,
      "walkForwardMaxDrawdown": 0.001336165310817042,
      "paperWindowProfitFactor": 50,
      "paperWindowSharpe": 27.552041200108906,
      "paperWindowNetPnl": 899.1054805878302,
      "paperWindowTrades": 53,
      "unseenProfitFactor": 0,
      "unseenSharpe": 0,
      "unseenNetPnl": 0,
      "unseenTrades": 0,
      "inSampleWinRate": 0.6666666666666666,
      "inSampleNetPnl": 1784.6225721112405
    }
  },
  "challengers": [
    {
      "id": "d699b481-aaa1-4808-9be2-94173e7b8f76",
      "createdAt": 1772356327421,
      "stage": "challenger",
      "source": "rl_offline_q_learning",
      "featureNames": [
        "returns",
        "volatility",
        "atr_norm",
        "rsi_norm",
        "ema_spread",
        "macd_hist_norm",
        "bb_pos",
        "adx_norm",
        "mom_3",
        "mom_12",
        "volume_z",
        "flow_imbalance",
        "returns_autocorr",
        "ema34_dist",
        "hurst_proxy",
        "bb_squeeze",
        "cross_trend_mom3",
        "cross_trend_rsi",
        "cross_vol_bbpos"
      ],
      "weights": [
        null,
        null,
        null,
        null,
        null,
        null,
        null,
        null,
        null,
        null,
        null,
        null,
        null,
        null,
        null,
        null,
        null,
        null,
        null,
        null,
        null,
        null,
        null,
        null,
        null,
        null,
        null,
        null,
        null,
        null,
        null,
        null,
        null,
        null,
        null,
        null,
        null,
        null,
        null,
        null,
        null,
        null,
        null,
        null,
        null,
        null,
        null,
        null,
        null,
        null,
        null,
        null,
        null,
        null,
        null,
        null,
        null,
        null,
        null,
        null,
        null,
        null,
        null,
        null,
        null,
        null
      ],
      "bias": 0,
      "kind": "rl_linear_q",
      "qWeights": [
        [
          null,
          null,
          null,
          null,
          null,
          null,
          null,
          null,
          null,
          null,
          null,
          null,
          null,
          null,
          null,
          null,
          null,
          null,
          null,
          null,
          null,
          null
        ],
        [
          null,
          null,
          null,
          null,
          null,
          null,
          null,
          null,
          null,
          null,
          null,
          null,
          null,
          null,
          null,
          null,
          null,
          null,
          null,
          null,
          null,
          null
        ],
        [
          null,
          null,
          null,
          null,
          null,
          null,
          null,
          null,
          null,
          null,
          null,
          null,
          null,
          null,
          null,
          null,
          null,
          null,
          null,
          null,
          null,
          null
        ]
      ],
      "qBias": [
        null,
        null,
        null
      ],
      "training": {
        "episodes": 6,
        "avgEpisodeReward": -0.19366383094399933,
        "warmStartModelId": "c57902de-32d7-432a-855d-3dd99c5a688b",
        "pretrainEpisodes": 0,
        "replayEpisodes": 0
      },
      "metrics": {
        "accuracy": 0.5,
        "f1": 0.2035036681700082,
        "precision": 0.98864053008493,
        "recall": -3.4944751144324884
      },
      "evaluation": {
        "walkForwardSharpe": -1.9677874376017797,
        "walkForwardProfitFactor": 16.394730468558716,
        "walkForwardMaxDrawdown": 0.00924985150297336,
        "paperWindowProfitFactor": 4.2827759734528135,
        "paperWindowSharpe": -4.130485002483915,
        "paperWindowNetPnl": -76.26030654938586,
        "paperWindowTrades": 2,
        "unseenProfitFactor": 0,
        "unseenSharpe": 0,
        "unseenNetPnl": 0,
        "unseenTrades": 0,
        "inSampleWinRate": 0.5,
        "inSampleNetPnl": -79.21297306855558
      }
    },
    {
      "id": "f1f32970-a78e-4b59-b214-0404d668b2d9",
      "createdAt": 1772356321082,
      "featureNames": [
        "returns",
        "volatility",
        "atr_norm",
        "rsi_norm",
        "ema_spread",
        "macd_hist_norm",
        "bb_pos",
        "adx_norm",
        "mom_3",
        "mom_12",
        "volume_z",
        "flow_imbalance",
        "returns_autocorr",
        "ema34_dist",
        "hurst_proxy",
        "bb_squeeze",
        "cross_trend_mom3",
        "cross_trend_rsi",
        "cross_vol_bbpos",
        "pos",
        "pos_age",
        "last_turnover_age"
      ],
      "weights": [
        0.000002361850806008626,
        0.0016225315885988363,
        0.0006060957449851414,
        0.009994349435067607,
        0.00015531225126350323,
        0.000009334072687691045,
        -0.007250118098056424,
        0.004471110901279607,
        0.00019949814958346993,
        0.0002846568021746472,
        -0.05132900572351998,
        0,
        -0.0006633538458743413,
        0.00026640181291871334,
        0.003021230284878773,
        -0.0043308644393513784,
        -0.000011136237645925382,
        0.002359673539124616,
        0.00043716832973232124,
        0,
        0,
        0
      ],
      "bias": 0.07800931656195967,
      "kind": "supervised_linear",
      "metrics": {
        "accuracy": 0.5183237331997662,
        "f1": 0.6624546624546624,
        "precision": 0.5208352497470334,
        "recall": 0.9098505543949863
      },
      "stage": "challenger",
      "source": "batch_training",
      "evaluation": {
        "walkForwardSharpe": -35.098089368085354,
        "walkForwardProfitFactor": 12.955699838760097,
        "walkForwardMaxDrawdown": 0.0038518591655032743,
        "paperWindowProfitFactor": 50,
        "paperWindowSharpe": 0,
        "paperWindowNetPnl": 0.015919362240310875,
        "paperWindowTrades": 1,
        "unseenProfitFactor": 0,
        "unseenSharpe": 0,
        "unseenNetPnl": 0,
        "unseenTrades": 0
      }
    },
    {
      "id": "141eb663-37c1-47f6-b669-276755626e6a",
      "createdAt": 1772197983188,
      "stage": "champion",
      "source": "rl_offline_q_learning",
      "featureNames": [
        "returns",
        "volatility",
        "atr_norm",
        "rsi_norm",
        "ema_spread",
        "macd_hist_norm",
        "bb_pos",
        "adx_norm",
        "mom_3",
        "mom_12",
        "volume_z",
        "flow_imbalance",
        "returns_autocorr",
        "ema34_dist",
        "hurst_proxy",
        "bb_squeeze",
        "cross_trend_mom3",
        "cross_trend_rsi",
        "cross_vol_bbpos"
      ],
      "weights": [
        0.665446793052065,
        -0.2273727248500469,
        -2.6538088127667727,
        -0.015272884078321402,
        0.4063606285600591,
        -0.6106827508134157,
        -0.028574237082092148,
        -0.02169345152076173,
        0.09471065384871123,
        0.009231920484684008,
        0.0013092406705211288,
        -0.3917898314164647,
        0.02144941325547595,
        -0.3617568422801169,
        0.008092397609770988,
        -0.03298739055777323,
        -0.5709409854336621,
        0.04120706421444342,
        0.5784134958328732,
        0.6002951485792999,
        -0.14733759596812776,
        -2.2298543066608216,
        -0.0031755793182920147,
        -0.01906447617108918,
        0.39103454389233694,
        -0.02246273161637036,
        -0.013670695558880572,
        0.05390271128819469,
        -0.01513085432955076,
        0.0005960272166612654,
        0.4068406723369807,
        0.022782603621812215,
        -0.14068683633128304,
        -0.054487013927164756,
        -0.023744990719891758,
        -0.39375797448163824,
        0.018063405418619446,
        0.31993482503619824,
        0.36546051456464873,
        -0.02336789242949903,
        -2.007245342520448,
        -0.014221263733766325,
        -0.1784596774203455,
        0.8952013265942419,
        0.004534314606575681,
        -0.016214015551857423,
        0.06904892431606438,
        -0.0005546462665472705,
        -0.0002548981267156464,
        -0.4656184109127405,
        0.02746859396247108,
        -0.06433606404915342,
        -0.06929327441005806,
        -0.019824520991863777,
        -0.23237829075232305,
        0.00785529027711463,
        0.09549823609420324
      ],
      "bias": 0,
      "kind": "rl_linear_q",
      "qWeights": [
        [
          0.665446793052065,
          -0.2273727248500469,
          -2.6538088127667727,
          -0.015272884078321402,
          0.4063606285600591,
          -0.6106827508134157,
          -0.028574237082092148,
          -0.02169345152076173,
          0.09471065384871123,
          0.009231920484684008,
          0.0013092406705211288,
          -0.3917898314164647,
          0.02144941325547595,
          -0.3617568422801169,
          0.008092397609770988,
          -0.03298739055777323,
          -0.5709409854336621,
          0.04120706421444342,
          0.5784134958328732
        ],
        [
          0.6002951485792999,
          -0.14733759596812776,
          -2.2298543066608216,
          -0.0031755793182920147,
          -0.01906447617108918,
          0.39103454389233694,
          -0.02246273161637036,
          -0.013670695558880572,
          0.05390271128819469,
          -0.01513085432955076,
          0.0005960272166612654,
          0.4068406723369807,
          0.022782603621812215,
          -0.14068683633128304,
          -0.054487013927164756,
          -0.023744990719891758,
          -0.39375797448163824,
          0.018063405418619446,
          0.31993482503619824
        ],
        [
          0.36546051456464873,
          -0.02336789242949903,
          -2.007245342520448,
          -0.014221263733766325,
          -0.1784596774203455,
          0.8952013265942419,
          0.004534314606575681,
          -0.016214015551857423,
          0.06904892431606438,
          -0.0005546462665472705,
          -0.0002548981267156464,
          -0.4656184109127405,
          0.02746859396247108,
          -0.06433606404915342,
          -0.06929327441005806,
          -0.019824520991863777,
          -0.23237829075232305,
          0.00785529027711463,
          0.09549823609420324
        ]
      ],
      "qBias": [
        0.18677794570315212,
        0.20926749807049766,
        0.2060438202364672
      ],
      "training": {
        "episodes": 4,
        "avgEpisodeReward": 2.618172251470983,
        "warmStartModelId": "104828e6-2d0b-4a3e-a2d0-d9d4d743f6e5",
        "pretrainEpisodes": 150,
        "replayEpisodes": 0
      },
      "metrics": {
        "accuracy": 0.7510204081632653,
        "f1": 50,
        "precision": 0.9988728328565083,
        "recall": 11.720497522805518
      },
      "evaluation": {
        "walkForwardSharpe": 11.48067688727238,
        "walkForwardProfitFactor": 11.161107129730667,
        "walkForwardMaxDrawdown": 0.0014242336710956198,
        "paperWindowProfitFactor": 50,
        "paperWindowSharpe": 19.14027500176641,
        "paperWindowNetPnl": 893.4579756949133,
        "paperWindowTrades": 60,
        "unseenProfitFactor": 0,
        "unseenSharpe": 0,
        "unseenNetPnl": 0,
        "unseenTrades": 0,
        "inSampleWinRate": 0.7510204081632653,
        "inSampleNetPnl": 2411.2450014927017
      }
    },
    {
      "id": "ae6f7c87-84a1-4865-b44e-fa290dd07ae0",
      "createdAt": 1772211769840,
      "stage": "challenger",
      "source": "rl_offline_q_learning",
      "featureNames": [
        "returns",
        "volatility",
        "atr_norm",
        "rsi_norm",
        "ema_spread",
        "macd_hist_norm",
        "bb_pos",
        "adx_norm",
        "mom_3",
        "mom_12",
        "volume_z",
        "flow_imbalance",
        "returns_autocorr",
        "ema34_dist",
        "hurst_proxy",
        "bb_squeeze",
        "cross_trend_mom3",
        "cross_trend_rsi",
        "cross_vol_bbpos"
      ],
      "weights": [
        0.8686480630369584,
        -0.3538437493756244,
        -2.368280851524019,
        -0.0023475417162183844,
        0.08960969832945825,
        -0.8867928599632023,
        -0.0013928450553685454,
        -0.0028696324947136763,
        0.02530515818984842,
        0.044690577587900085,
        0.0008825389362965654,
        -0.3917898314164647,
        -0.001340016606173403,
        -0.2520904035330342,
        -0.0017099831621779867,
        -0.010113476539651218,
        -0.5989337187675029,
        0.003366075231114033,
        0.5141242798569661,
        0.7468900802737227,
        -0.273911695179148,
        -2.0534960078989384,
        -0.00017749422924689143,
        -0.18687918286671415,
        0.14612064747256356,
        -0.0032232614310582644,
        -0.0026127951545616788,
        0.018149775737845365,
        0.002616814227990955,
        0.0003966488686600381,
        0.4068406723369807,
        -0.0010842243896163858,
        -0.06753291104655525,
        -0.0016360859856006259,
        -0.009971649483162282,
        -0.513457832670307,
        -0.0028731885235884756,
        0.30626753817303964,
        0.49848213551783505,
        -0.23660629751781379,
        -1.602906478945529,
        -0.00267390010684385,
        -0.38823062446706413,
        0.8848938503716479,
        -0.0008449877511888239,
        -0.003070152091810192,
        0.014006784903931096,
        0.003225352885660472,
        0.0018601895317049812,
        -0.4656184109127405,
        0.00014757088756343133,
        0.031290382920478754,
        -0.004118187174176767,
        -0.009513904796586354,
        -0.2579866998857548,
        0.009802768928262696,
        0.05758400386618297
      ],
      "bias": 0,
      "kind": "rl_linear_q",
      "qWeights": [
        [
          0.8686480630369584,
          -0.3538437493756244,
          -2.368280851524019,
          -0.0023475417162183844,
          0.08960969832945825,
          -0.8867928599632023,
          -0.0013928450553685454,
          -0.0028696324947136763,
          0.02530515818984842,
          0.044690577587900085,
          0.0008825389362965654,
          -0.3917898314164647,
          -0.001340016606173403,
          -0.2520904035330342,
          -0.0017099831621779867,
          -0.010113476539651218,
          -0.5989337187675029,
          0.003366075231114033,
          0.5141242798569661
        ],
        [
          0.7468900802737227,
          -0.273911695179148,
          -2.0534960078989384,
          -0.00017749422924689143,
          -0.18687918286671415,
          0.14612064747256356,
          -0.0032232614310582644,
          -0.0026127951545616788,
          0.018149775737845365,
          0.002616814227990955,
          0.0003966488686600381,
          0.4068406723369807,
          -0.0010842243896163858,
          -0.06753291104655525,
          -0.0016360859856006259,
          -0.009971649483162282,
          -0.513457832670307,
          -0.0028731885235884756,
          0.30626753817303964
        ],
        [
          0.49848213551783505,
          -0.23660629751781379,
          -1.602906478945529,
          -0.00267390010684385,
          -0.38823062446706413,
          0.8848938503716479,
          -0.0008449877511888239,
          -0.003070152091810192,
          0.014006784903931096,
          0.003225352885660472,
          0.0018601895317049812,
          -0.4656184109127405,
          0.00014757088756343133,
          0.031290382920478754,
          -0.004118187174176767,
          -0.009513904796586354,
          -0.2579866998857548,
          0.009802768928262696,
          0.05758400386618297
        ]
      ],
      "qBias": [
        0.08325973056271438,
        0.08350934472954682,
        0.08197759082578378
      ],
      "training": {
        "episodes": 133,
        "avgEpisodeReward": -0.2982034597692088,
        "warmStartModelId": "c57902de-32d7-432a-855d-3dd99c5a688b",
        "pretrainEpisodes": 300,
        "replayEpisodes": 0
      },
      "metrics": {
        "accuracy": 0.4882873766759423,
        "f1": 0.9794278048451635,
        "precision": 0.9951790080327119,
        "recall": -0.10103982607698304
      },
      "evaluation": {
        "walkForwardSharpe": -0.12616586282632694,
        "walkForwardProfitFactor": 0.9933780105154311,
        "walkForwardMaxDrawdown": 0.006032842969098215,
        "paperWindowProfitFactor": 4.1330306048332135,
        "paperWindowSharpe": 1.3779528527426939,
        "paperWindowNetPnl": 866.6147248638335,
        "paperWindowTrades": 6178,
        "unseenProfitFactor": 0,
        "unseenSharpe": 0,
        "unseenNetPnl": 0,
        "unseenTrades": 0,
        "inSampleWinRate": 0.4882873766759423,
        "inSampleNetPnl": -44.781474228604566
      }
    },
    {
      "id": "23413423-e1ba-413e-b438-1d8c17fad2c8",
      "createdAt": 1772211432595,
      "stage": "challenger",
      "source": "rl_offline_q_learning",
      "featureNames": [
        "returns",
        "volatility",
        "atr_norm",
        "rsi_norm",
        "ema_spread",
        "macd_hist_norm",
        "bb_pos",
        "adx_norm",
        "mom_3",
        "mom_12",
        "volume_z",
        "flow_imbalance",
        "returns_autocorr",
        "ema34_dist",
        "hurst_proxy",
        "bb_squeeze",
        "cross_trend_mom3",
        "cross_trend_rsi",
        "cross_vol_bbpos"
      ],
      "weights": [
        0.8687392132847136,
        -0.35114798199406994,
        -2.3675036533545923,
        0.0011629019061820134,
        0.0905280382187833,
        -0.8867497190512801,
        -0.005015971604047299,
        -0.0034677341997914847,
        0.02281245548421256,
        0.04583833076951806,
        -0.004208155172896973,
        -0.3917898314164647,
        0.0018212092758989314,
        -0.25150397019322573,
        -0.0030235283627194705,
        -0.007681208908229986,
        -0.5989672374315114,
        0.0034855531063937195,
        0.51452248394572,
        0.746737514953273,
        -0.27215917292124486,
        -2.0528096079528173,
        -0.00018123684853330082,
        -0.18735312220959574,
        0.14633386685063907,
        -0.002599069582270414,
        -0.002260902822219541,
        0.01905908340954972,
        0.0010051752889794153,
        -0.000060925716257579374,
        0.4068406723369807,
        0.0012585386023265042,
        -0.06818858956852421,
        -0.0036362981320853453,
        -0.0075974401886164744,
        -0.5133271886982204,
        0.003612899665285629,
        0.30670483050380587,
        0.49853856012321446,
        -0.23774541443375122,
        -1.6033348723207168,
        -0.00001873555640411329,
        -0.3879827348989888,
        0.8847329259557006,
        -0.0005225530732857676,
        -0.001684258823551018,
        0.01204020065865836,
        0.002169168753641777,
        -0.00010792093408062979,
        -0.4656184109127405,
        0.002655678045859329,
        0.03057019251640463,
        -0.001642881213339815,
        -0.008484339360872024,
        -0.2582085431356453,
        0.0023908581005286055,
        0.05677913656782229
      ],
      "bias": 0,
      "kind": "rl_linear_q",
      "qWeights": [
        [
          0.8687392132847136,
          -0.35114798199406994,
          -2.3675036533545923,
          0.0011629019061820134,
          0.0905280382187833,
          -0.8867497190512801,
          -0.005015971604047299,
          -0.0034677341997914847,
          0.02281245548421256,
          0.04583833076951806,
          -0.004208155172896973,
          -0.3917898314164647,
          0.0018212092758989314,
          -0.25150397019322573,
          -0.0030235283627194705,
          -0.007681208908229986,
          -0.5989672374315114,
          0.0034855531063937195,
          0.51452248394572
        ],
        [
          0.746737514953273,
          -0.27215917292124486,
          -2.0528096079528173,
          -0.00018123684853330082,
          -0.18735312220959574,
          0.14633386685063907,
          -0.002599069582270414,
          -0.002260902822219541,
          0.01905908340954972,
          0.0010051752889794153,
          -0.000060925716257579374,
          0.4068406723369807,
          0.0012585386023265042,
          -0.06818858956852421,
          -0.0036362981320853453,
          -0.0075974401886164744,
          -0.5133271886982204,
          0.003612899665285629,
          0.30670483050380587
        ],
        [
          0.49853856012321446,
          -0.23774541443375122,
          -1.6033348723207168,
          -0.00001873555640411329,
          -0.3879827348989888,
          0.8847329259557006,
          -0.0005225530732857676,
          -0.001684258823551018,
          0.01204020065865836,
          0.002169168753641777,
          -0.00010792093408062979,
          -0.4656184109127405,
          0.002655678045859329,
          0.03057019251640463,
          -0.001642881213339815,
          -0.008484339360872024,
          -0.2582085431356453,
          0.0023908581005286055,
          0.05677913656782229
        ]
      ],
      "qBias": [
        0.07789185569589524,
        0.08162483015949334,
        0.07950905896838388
      ],
      "training": {
        "episodes": 192,
        "avgEpisodeReward": -0.2856350050007503,
        "warmStartModelId": "c57902de-32d7-432a-855d-3dd99c5a688b",
        "pretrainEpisodes": 248,
        "replayEpisodes": 0
      },
      "metrics": {
        "accuracy": 0.4210702154908402,
        "f1": 0.917809580245389,
        "precision": 0.9898951679508482,
        "recall": -0.12731918869610678
      },
      "evaluation": {
        "walkForwardSharpe": -0.008711452490475374,
        "walkForwardProfitFactor": 1.0475597243410406,
        "walkForwardMaxDrawdown": 0.0015997876519136635,
        "paperWindowProfitFactor": 2.8407099984587196,
        "paperWindowSharpe": 0.4061168755876856,
        "paperWindowNetPnl": 721.3985798575086,
        "paperWindowTrades": 6120,
        "unseenProfitFactor": 0,
        "unseenSharpe": 0,
        "unseenNetPnl": 0,
        "unseenTrades": 0,
        "inSampleWinRate": 0.4210702154908402,
        "inSampleNetPnl": -97.49564440446193
      }
    },
    {
      "id": "5fb6ccc3-bb69-40a6-81f4-c2dfbd295b2e",
      "createdAt": 1772211130670,
      "stage": "challenger",
      "source": "rl_offline_q_learning",
      "featureNames": [
        "returns",
        "volatility",
        "atr_norm",
        "rsi_norm",
        "ema_spread",
        "macd_hist_norm",
        "bb_pos",
        "adx_norm",
        "mom_3",
        "mom_12",
        "volume_z",
        "flow_imbalance",
        "returns_autocorr",
        "ema34_dist",
        "hurst_proxy",
        "bb_squeeze",
        "cross_trend_mom3",
        "cross_trend_rsi",
        "cross_vol_bbpos"
      ],
      "weights": [
        0.8688190416617031,
        -0.34874446348499494,
        -2.3670529248116825,
        -0.0005726748609061349,
        0.0906492420498356,
        -0.8866522851158584,
        -0.002534984804781241,
        -0.006115373998077955,
        0.024305388144220397,
        0.04639249517332099,
        0.0005668228975050974,
        -0.3917898314164647,
        -0.000440401097071365,
        -0.2503903243395799,
        -0.0012562558902808644,
        -0.006608576087318723,
        -0.5984891939953728,
        0.00653975801588054,
        0.5163168165656504,
        0.7467512739441983,
        -0.266503433891738,
        -2.051464330688106,
        0.0002840206941512176,
        -0.18771652932853058,
        0.1460862146510949,
        -0.002202285697323257,
        -0.003572778398899377,
        0.017988203978886615,
        -0.0006121525972029969,
        0.00002317151175725487,
        0.4068406723369807,
        0.001272485619610108,
        -0.0694530762628007,
        -0.0004471595551402137,
        -0.005434582331118681,
        -0.5132310637708775,
        0.004203639995909219,
        0.30874171348169893,
        0.49880023305725435,
        -0.23573708689410594,
        -1.603101743510253,
        0.00008235342031696929,
        -0.3875543210037638,
        0.8840212233010412,
        -0.001601170501614453,
        -0.004514855885311531,
        0.01160364666275312,
        -0.0009722422873812776,
        -0.00005089428079413665,
        -0.4656184109127405,
        0.0018343444283357051,
        0.032059244714418796,
        0.000046109830712009904,
        -0.005922027090904888,
        -0.25813603238966987,
        0.003758944932998304,
        0.057114675211154625
      ],
      "bias": 0,
      "kind": "rl_linear_q",
      "qWeights": [
        [
          0.8688190416617031,
          -0.34874446348499494,
          -2.3670529248116825,
          -0.0005726748609061349,
          0.0906492420498356,
          -0.8866522851158584,
          -0.002534984804781241,
          -0.006115373998077955,
          0.024305388144220397,
          0.04639249517332099,
          0.0005668228975050974,
          -0.3917898314164647,
          -0.000440401097071365,
          -0.2503903243395799,
          -0.0012562558902808644,
          -0.006608576087318723,
          -0.5984891939953728,
          0.00653975801588054,
          0.5163168165656504
        ],
        [
          0.7467512739441983,
          -0.266503433891738,
          -2.051464330688106,
          0.0002840206941512176,
          -0.18771652932853058,
          0.1460862146510949,
          -0.002202285697323257,
          -0.003572778398899377,
          0.017988203978886615,
          -0.0006121525972029969,
          0.00002317151175725487,
          0.4068406723369807,
          0.001272485619610108,
          -0.0694530762628007,
          -0.0004471595551402137,
          -0.005434582331118681,
          -0.5132310637708775,
          0.004203639995909219,
          0.30874171348169893
        ],
        [
          0.49880023305725435,
          -0.23573708689410594,
          -1.603101743510253,
          0.00008235342031696929,
          -0.3875543210037638,
          0.8840212233010412,
          -0.001601170501614453,
          -0.004514855885311531,
          0.01160364666275312,
          -0.0009722422873812776,
          -0.00005089428079413665,
          -0.4656184109127405,
          0.0018343444283357051,
          0.032059244714418796,
          0.000046109830712009904,
          -0.005922027090904888,
          -0.25813603238966987,
          0.003758944932998304,
          0.057114675211154625
        ]
      ],
      "qBias": [
        0.04494829733287466,
        0.04377412530724044,
        0.044104519614656994
      ],
      "training": {
        "episodes": 513,
        "avgEpisodeReward": -0.23290357938270723,
        "warmStartModelId": "c57902de-32d7-432a-855d-3dd99c5a688b",
        "pretrainEpisodes": 300,
        "replayEpisodes": 0
      },
      "metrics": {
        "accuracy": 0.48766454537529424,
        "f1": 0.9650844125950699,
        "precision": 0.9907341444996511,
        "recall": -0.09074208955492619
      },
      "evaluation": {
        "walkForwardSharpe": -0.062036303001634256,
        "walkForwardProfitFactor": 0.9899293969860969,
        "walkForwardMaxDrawdown": 0.0034812449151241974,
        "paperWindowProfitFactor": 2.325561601377784,
        "paperWindowSharpe": 0.43459449342243217,
        "paperWindowNetPnl": 787.2985407405577,
        "paperWindowTrades": 7427,
        "unseenProfitFactor": 0,
        "unseenSharpe": 0,
        "unseenNetPnl": 0,
        "unseenTrades": 0,
        "inSampleWinRate": 0.48766454537529424,
        "inSampleNetPnl": -90.66140750104023
      }
    },
    {
      "id": "617647d2-de2c-4878-96de-6a842ab68cec",
      "createdAt": 1772210694761,
      "stage": "challenger",
      "source": "rl_offline_q_learning",
      "featureNames": [
        "returns",
        "volatility",
        "atr_norm",
        "rsi_norm",
        "ema_spread",
        "macd_hist_norm",
        "bb_pos",
        "adx_norm",
        "mom_3",
        "mom_12",
        "volume_z",
        "flow_imbalance",
        "returns_autocorr",
        "ema34_dist",
        "hurst_proxy",
        "bb_squeeze",
        "cross_trend_mom3",
        "cross_trend_rsi",
        "cross_vol_bbpos"
      ],
      "weights": [
        0.8688557521377765,
        -0.3529717210417009,
        -2.3685351901899985,
        0.0009842866291482025,
        0.09079069039301503,
        -0.8868590271858987,
        -0.003934595865952442,
        -0.0013525829086239822,
        0.02438683418534957,
        0.04624904904875198,
        0.0010167124115284649,
        -0.3917898314164647,
        0.001079953865001326,
        -0.2497717208023508,
        -0.00008964705442522876,
        -0.01562614962418023,
        -0.5989941701815777,
        0.00708984552881933,
        0.5149632475647257,
        0.7466578302473391,
        -0.266579862545396,
        -2.0517220982245137,
        0.0013732519266435898,
        -0.18812394604614552,
        0.14613865239815546,
        -0.003014278496362909,
        -0.0023056429373868124,
        0.018791975719089252,
        -0.0007353800558590509,
        0.0009123082776162359,
        0.4068406723369807,
        0.002075304709953521,
        -0.07000661913682346,
        0.00029953117440855234,
        -0.013214096444336479,
        -0.5135020290711715,
        0.004545748792063683,
        0.30958198955619065,
        0.49846980682475367,
        -0.23645906891480462,
        -1.6030750020556126,
        -0.001114576397783294,
        -0.3886358089609448,
        0.8845897818426542,
        -0.00010996939853687795,
        -0.0014956081940506612,
        0.012666614173948524,
        -0.0005465134475158738,
        0.00016681801352315376,
        -0.4656184109127405,
        0.002500478187699158,
        0.029568027265498523,
        0.0021552883293086233,
        -0.011525832807215594,
        -0.25844829294340005,
        -0.001681599381834287,
        0.056686013505833355
      ],
      "bias": 0,
      "kind": "rl_linear_q",
      "qWeights": [
        [
          0.8688557521377765,
          -0.3529717210417009,
          -2.3685351901899985,
          0.0009842866291482025,
          0.09079069039301503,
          -0.8868590271858987,
          -0.003934595865952442,
          -0.0013525829086239822,
          0.02438683418534957,
          0.04624904904875198,
          0.0010167124115284649,
          -0.3917898314164647,
          0.001079953865001326,
          -0.2497717208023508,
          -0.00008964705442522876,
          -0.01562614962418023,
          -0.5989941701815777,
          0.00708984552881933,
          0.5149632475647257
        ],
        [
          0.7466578302473391,
          -0.266579862545396,
          -2.0517220982245137,
          0.0013732519266435898,
          -0.18812394604614552,
          0.14613865239815546,
          -0.003014278496362909,
          -0.0023056429373868124,
          0.018791975719089252,
          -0.0007353800558590509,
          0.0009123082776162359,
          0.4068406723369807,
          0.002075304709953521,
          -0.07000661913682346,
          0.00029953117440855234,
          -0.013214096444336479,
          -0.5135020290711715,
          0.004545748792063683,
          0.30958198955619065
        ],
        [
          0.49846980682475367,
          -0.23645906891480462,
          -1.6030750020556126,
          -0.001114576397783294,
          -0.3886358089609448,
          0.8845897818426542,
          -0.00010996939853687795,
          -0.0014956081940506612,
          0.012666614173948524,
          -0.0005465134475158738,
          0.00016681801352315376,
          -0.4656184109127405,
          0.002500478187699158,
          0.029568027265498523,
          0.0021552883293086233,
          -0.011525832807215594,
          -0.25844829294340005,
          -0.001681599381834287,
          0.056686013505833355
        ]
      ],
      "qBias": [
        0.07382495053929485,
        0.07222599058718214,
        0.07126284674356201
      ],
      "training": {
        "episodes": 164,
        "avgEpisodeReward": -0.28632365313117314,
        "warmStartModelId": "c57902de-32d7-432a-855d-3dd99c5a688b",
        "pretrainEpisodes": 300,
        "replayEpisodes": 0
      },
      "metrics": {
        "accuracy": 0.446425702811245,
        "f1": 0.982411484504264,
        "precision": 0.9947638460007444,
        "recall": -0.040478365218486356
      },
      "evaluation": {
        "walkForwardSharpe": -0.016830550141011612,
        "walkForwardProfitFactor": 1.1386261822681103,
        "walkForwardMaxDrawdown": 0.003464628019765044,
        "paperWindowProfitFactor": 2.500455656149261,
        "paperWindowSharpe": 0.4638843188970811,
        "paperWindowNetPnl": 861.6983102617232,
        "paperWindowTrades": 3778,
        "unseenProfitFactor": 0,
        "unseenSharpe": 0,
        "unseenNetPnl": 0,
        "unseenTrades": 0,
        "inSampleWinRate": 0.446425702811245,
        "inSampleNetPnl": -46.0175577274058
      }
    },
    {
      "id": "a32751eb-9257-4380-ab31-b9f554e7f123",
      "createdAt": 1772210343475,
      "stage": "challenger",
      "source": "rl_offline_q_learning",
      "featureNames": [
        "returns",
        "volatility",
        "atr_norm",
        "rsi_norm",
        "ema_spread",
        "macd_hist_norm",
        "bb_pos",
        "adx_norm",
        "mom_3",
        "mom_12",
        "volume_z",
        "flow_imbalance",
        "returns_autocorr",
        "ema34_dist",
        "hurst_proxy",
        "bb_squeeze",
        "cross_trend_mom3",
        "cross_trend_rsi",
        "cross_vol_bbpos"
      ],
      "weights": [
        0.8687746570287197,
        -0.35335612969669666,
        -2.3687370272123767,
        0.0005363238781688187,
        0.09050576439813009,
        -0.8866137293759085,
        -0.004612947261362818,
        -0.0006212983636424858,
        0.02415973209802749,
        0.04706780181161579,
        -0.000056492762283898466,
        -0.3917898314164647,
        -0.0009285027269235954,
        -0.2506931073598571,
        -0.004401825127353241,
        -0.00933859939574741,
        -0.5987897884581275,
        0.0037576503124806394,
        0.5143533329838427,
        0.7467436029019914,
        -0.27388021653541444,
        -2.052936311846472,
        -0.001133029320025361,
        -0.18793854591266046,
        0.14608813390996153,
        -0.002535730962273927,
        0.0001344831205673714,
        0.01940944822362705,
        0.0004326105570384045,
        0.00005901359801523458,
        0.4068406723369807,
        0.0014628524012568862,
        -0.06955117417691577,
        -0.004104862213934665,
        -0.008353400291210315,
        -0.5135721126983492,
        0.006002756872692041,
        0.3053878851050837,
        0.49847637059415717,
        -0.24195222202368744,
        -1.6041956621342393,
        -0.0010345994848571542,
        -0.38820752693654065,
        0.884716552853709,
        -0.0004936238336567741,
        0.00002676366052376521,
        0.012014149877023666,
        0.002280731124534712,
        -0.0001552423858362998,
        -0.4656184109127405,
        -0.0017256604532576887,
        0.029893346239101764,
        -0.002094887988635513,
        -0.0038944608482860766,
        -0.2580550503321589,
        0.008577768947118786,
        0.05301790144981196
      ],
      "bias": 0,
      "kind": "rl_linear_q",
      "qWeights": [
        [
          0.8687746570287197,
          -0.35335612969669666,
          -2.3687370272123767,
          0.0005363238781688187,
          0.09050576439813009,
          -0.8866137293759085,
          -0.004612947261362818,
          -0.0006212983636424858,
          0.02415973209802749,
          0.04706780181161579,
          -0.000056492762283898466,
          -0.3917898314164647,
          -0.0009285027269235954,
          -0.2506931073598571,
          -0.004401825127353241,
          -0.00933859939574741,
          -0.5987897884581275,
          0.0037576503124806394,
          0.5143533329838427
        ],
        [
          0.7467436029019914,
          -0.27388021653541444,
          -2.052936311846472,
          -0.001133029320025361,
          -0.18793854591266046,
          0.14608813390996153,
          -0.002535730962273927,
          0.0001344831205673714,
          0.01940944822362705,
          0.0004326105570384045,
          0.00005901359801523458,
          0.4068406723369807,
          0.0014628524012568862,
          -0.06955117417691577,
          -0.004104862213934665,
          -0.008353400291210315,
          -0.5135721126983492,
          0.006002756872692041,
          0.3053878851050837
        ],
        [
          0.49847637059415717,
          -0.24195222202368744,
          -1.6041956621342393,
          -0.0010345994848571542,
          -0.38820752693654065,
          0.884716552853709,
          -0.0004936238336567741,
          0.00002676366052376521,
          0.012014149877023666,
          0.002280731124534712,
          -0.0001552423858362998,
          -0.4656184109127405,
          -0.0017256604532576887,
          0.029893346239101764,
          -0.002094887988635513,
          -0.0038944608482860766,
          -0.2580550503321589,
          0.008577768947118786,
          0.05301790144981196
        ]
      ],
      "qBias": [
        0.07780151206087743,
        0.07961530806841866,
        0.07386364916347431
      ],
      "training": {
        "episodes": 120,
        "avgEpisodeReward": -0.2888479251298437,
        "warmStartModelId": "c57902de-32d7-432a-855d-3dd99c5a688b",
        "pretrainEpisodes": 300,
        "replayEpisodes": 0
      },
      "metrics": {
        "accuracy": 0.4327297034516286,
        "f1": 0.9913843967530426,
        "precision": 0.9959037497255268,
        "recall": -0.043119654634526494
      },
      "evaluation": {
        "walkForwardSharpe": -0.1667373835453377,
        "walkForwardProfitFactor": 0.9444327936687625,
        "walkForwardMaxDrawdown": 0.00364487845613389,
        "paperWindowProfitFactor": 2.6575260047529814,
        "paperWindowSharpe": 0.4484553180323641,
        "paperWindowNetPnl": 783.9646256944397,
        "paperWindowTrades": 5411,
        "unseenProfitFactor": 0,
        "unseenSharpe": 0,
        "unseenNetPnl": 0,
        "unseenTrades": 0,
        "inSampleWinRate": 0.4327297034516286,
        "inSampleNetPnl": -33.80716587504139
      }
    },
    {
      "id": "a7cec2e3-0595-4c78-8404-1c79edd71b42",
      "createdAt": 1772210028847,
      "stage": "challenger",
      "source": "rl_offline_q_learning",
      "featureNames": [
        "returns",
        "volatility",
        "atr_norm",
        "rsi_norm",
        "ema_spread",
        "macd_hist_norm",
        "bb_pos",
        "adx_norm",
        "mom_3",
        "mom_12",
        "volume_z",
        "flow_imbalance",
        "returns_autocorr",
        "ema34_dist",
        "hurst_proxy",
        "bb_squeeze",
        "cross_trend_mom3",
        "cross_trend_rsi",
        "cross_vol_bbpos"
      ],
      "weights": [
        0.8687714596758658,
        -0.34947673214728664,
        -2.367412805059663,
        0.0013408172819014998,
        0.09013534917500257,
        -0.8868303118231202,
        -0.0027739260986607947,
        -0.001163131823984604,
        0.02370511963369936,
        0.04460543508023455,
        0.0002601979841474567,
        -0.3917898314164647,
        0.002613826819481701,
        -0.2515575618903783,
        -0.0005784993798689123,
        -0.00425282181566465,
        -0.5984966803469113,
        0.01088026176320357,
        0.5156113234658001,
        0.7467559238857242,
        -0.26943483343662894,
        -2.0522960982144327,
        0.003324174154949784,
        -0.18780042839647249,
        0.14609047483778292,
        -0.0026710181763543468,
        -0.0004204703539603834,
        0.018089494251815164,
        -0.0005157389201857825,
        0.00007223109282601027,
        0.4068406723369807,
        0.0014502174034160477,
        -0.06959878273797412,
        0.002579510591646562,
        -0.0005636593757675368,
        -0.5134428127046555,
        0.007455228428470012,
        0.3078288149308085,
        0.4986206125077657,
        -0.23681571251184635,
        -1.6032049614115018,
        -0.00007970403746442805,
        -0.38777986328652403,
        0.8844862629700139,
        -0.0018973063561076582,
        -0.0018964523513849533,
        0.013329089966415375,
        0.0009668692556938572,
        0.00013765986378381053,
        -0.4656184109127405,
        0.0033721441365917016,
        0.032027574829603736,
        0.002784267107939681,
        -0.004099533221753369,
        -0.25818139286152725,
        0.007716284555703389,
        0.05744185230324969
      ],
      "bias": 0,
      "kind": "rl_linear_q",
      "qWeights": [
        [
          0.8687714596758658,
          -0.34947673214728664,
          -2.367412805059663,
          0.0013408172819014998,
          0.09013534917500257,
          -0.8868303118231202,
          -0.0027739260986607947,
          -0.001163131823984604,
          0.02370511963369936,
          0.04460543508023455,
          0.0002601979841474567,
          -0.3917898314164647,
          0.002613826819481701,
          -0.2515575618903783,
          -0.0005784993798689123,
          -0.00425282181566465,
          -0.5984966803469113,
          0.01088026176320357,
          0.5156113234658001
        ],
        [
          0.7467559238857242,
          -0.26943483343662894,
          -2.0522960982144327,
          0.003324174154949784,
          -0.18780042839647249,
          0.14609047483778292,
          -0.0026710181763543468,
          -0.0004204703539603834,
          0.018089494251815164,
          -0.0005157389201857825,
          0.00007223109282601027,
          0.4068406723369807,
          0.0014502174034160477,
          -0.06959878273797412,
          0.002579510591646562,
          -0.0005636593757675368,
          -0.5134428127046555,
          0.007455228428470012,
          0.3078288149308085
        ],
        [
          0.4986206125077657,
          -0.23681571251184635,
          -1.6032049614115018,
          -0.00007970403746442805,
          -0.38777986328652403,
          0.8844862629700139,
          -0.0018973063561076582,
          -0.0018964523513849533,
          0.013329089966415375,
          0.0009668692556938572,
          0.00013765986378381053,
          -0.4656184109127405,
          0.0033721441365917016,
          0.032027574829603736,
          0.002784267107939681,
          -0.004099533221753369,
          -0.25818139286152725,
          0.007716284555703389,
          0.05744185230324969
        ]
      ],
      "qBias": [
        0.06634451367107724,
        0.0620169551724102,
        0.06290177563963306
      ],
      "training": {
        "episodes": 162,
        "avgEpisodeReward": -0.2870078651130998,
        "warmStartModelId": "c57902de-32d7-432a-855d-3dd99c5a688b",
        "pretrainEpisodes": 300,
        "replayEpisodes": 0
      },
      "metrics": {
        "accuracy": 0.44123505976095617,
        "f1": 1.067297620679649,
        "precision": 0.9996449412082397,
        "recall": 0.009162052344745144
      },
      "evaluation": {
        "walkForwardSharpe": -0.02276254598334401,
        "walkForwardProfitFactor": 1.062453532604972,
        "walkForwardMaxDrawdown": 0.0031768059790903027,
        "paperWindowProfitFactor": 25.163481415932072,
        "paperWindowSharpe": 1.4052918669154941,
        "paperWindowNetPnl": 949.2582646229312,
        "paperWindowTrades": 412,
        "unseenProfitFactor": 0,
        "unseenSharpe": 0,
        "unseenNetPnl": 0,
        "unseenTrades": 0,
        "inSampleWinRate": 0.44123505976095617,
        "inSampleNetPnl": 1.8074543926413753
      }
    },
    {
      "id": "33c252d5-ed2d-49fe-b592-71e576927b6e",
      "createdAt": 1772209718086,
      "stage": "challenger",
      "source": "rl_offline_q_learning",
      "featureNames": [
        "returns",
        "volatility",
        "atr_norm",
        "rsi_norm",
        "ema_spread",
        "macd_hist_norm",
        "bb_pos",
        "adx_norm",
        "mom_3",
        "mom_12",
        "volume_z",
        "flow_imbalance",
        "returns_autocorr",
        "ema34_dist",
        "hurst_proxy",
        "bb_squeeze",
        "cross_trend_mom3",
        "cross_trend_rsi",
        "cross_vol_bbpos"
      ],
      "weights": [
        0.8685841660644914,
        -0.3502820586009381,
        -2.3676788175555,
        0.001237358980132708,
        0.08982528508290152,
        -0.8864534243260715,
        -0.004611361095253976,
        -0.005365192906254888,
        0.023224890478264964,
        0.046228500227701884,
        0.0007411513930729524,
        -0.3917898314164647,
        0.0031710877668511255,
        -0.2527659902702421,
        0.003444957390967728,
        -0.012264711607666507,
        -0.5988622529591948,
        0.007312467092985018,
        0.5151721029346915,
        0.7468201206008193,
        -0.26775745918235083,
        -2.0515581933588107,
        0.0008781576860923218,
        -0.1871535560348644,
        0.14620408996710665,
        -0.0005147850831957899,
        -0.005635017254982903,
        0.018294762666922357,
        0.0012023668894276232,
        0.00011920045209354207,
        0.4068406723369807,
        0.0029052231587876447,
        -0.06821700233009387,
        0.003521318063977281,
        -0.011841206109786437,
        -0.5135127320022822,
        0.007049990696795241,
        0.308721473789934,
        0.49860556989942095,
        -0.23347056093724383,
        -1.6022541260580285,
        0.0018534487612460388,
        -0.387652461248907,
        0.8848453007595973,
        -0.001361902144235995,
        -0.0027630570521665664,
        0.01410895589601797,
        0.003544848325293888,
        -0.0002871839662617033,
        -0.4656184109127405,
        0.0014550704669914222,
        0.03262394767222558,
        0.0028715757803496954,
        -0.008146289414955064,
        -0.2581826546614009,
        -0.0004691483938616977,
        0.059510917987327806
      ],
      "bias": 0,
      "kind": "rl_linear_q",
      "qWeights": [
        [
          0.8685841660644914,
          -0.3502820586009381,
          -2.3676788175555,
          0.001237358980132708,
          0.08982528508290152,
          -0.8864534243260715,
          -0.004611361095253976,
          -0.005365192906254888,
          0.023224890478264964,
          0.046228500227701884,
          0.0007411513930729524,
          -0.3917898314164647,
          0.0031710877668511255,
          -0.2527659902702421,
          0.003444957390967728,
          -0.012264711607666507,
          -0.5988622529591948,
          0.007312467092985018,
          0.5151721029346915
        ],
        [
          0.7468201206008193,
          -0.26775745918235083,
          -2.0515581933588107,
          0.0008781576860923218,
          -0.1871535560348644,
          0.14620408996710665,
          -0.0005147850831957899,
          -0.005635017254982903,
          0.018294762666922357,
          0.0012023668894276232,
          0.00011920045209354207,
          0.4068406723369807,
          0.0029052231587876447,
          -0.06821700233009387,
          0.003521318063977281,
          -0.011841206109786437,
          -0.5135127320022822,
          0.007049990696795241,
          0.308721473789934
        ],
        [
          0.49860556989942095,
          -0.23347056093724383,
          -1.6022541260580285,
          0.0018534487612460388,
          -0.387652461248907,
          0.8848453007595973,
          -0.001361902144235995,
          -0.0027630570521665664,
          0.01410895589601797,
          0.003544848325293888,
          -0.0002871839662617033,
          -0.4656184109127405,
          0.0014550704669914222,
          0.03262394767222558,
          0.0028715757803496954,
          -0.008146289414955064,
          -0.2581826546614009,
          -0.0004691483938616977,
          0.059510917987327806
        ]
      ],
      "qBias": [
        0.06512889619486369,
        0.06919884011319853,
        0.0659935635250639
      ],
      "training": {
        "episodes": 198,
        "avgEpisodeReward": -0.2834888648132206,
        "warmStartModelId": "c57902de-32d7-432a-855d-3dd99c5a688b",
        "pretrainEpisodes": 300,
        "replayEpisodes": 0
      },
      "metrics": {
        "accuracy": 0.5335292882636994,
        "f1": 1.0017934708860357,
        "precision": 0.9953134371478985,
        "recall": -0.03797665803385043
      },
      "evaluation": {
        "walkForwardSharpe": -0.02172045218130648,
        "walkForwardProfitFactor": 1.0347913941189466,
        "walkForwardMaxDrawdown": 0.002684810260869979,
        "paperWindowProfitFactor": 2.080168063575064,
        "paperWindowSharpe": 0.38564653639660473,
        "paperWindowNetPnl": 691.1051860623375,
        "paperWindowTrades": 7715,
        "unseenProfitFactor": 0,
        "unseenSharpe": 0,
        "unseenNetPnl": 0,
        "unseenTrades": 0,
        "inSampleWinRate": 0.5335292882636994,
        "inSampleNetPnl": -34.93657307272406
      }
    },
    {
      "id": "f2b1878d-916e-46d1-91f3-b7c4911698d4",
      "createdAt": 1772209373448,
      "stage": "challenger",
      "source": "rl_offline_q_learning",
      "featureNames": [
        "returns",
        "volatility",
        "atr_norm",
        "rsi_norm",
        "ema_spread",
        "macd_hist_norm",
        "bb_pos",
        "adx_norm",
        "mom_3",
        "mom_12",
        "volume_z",
        "flow_imbalance",
        "returns_autocorr",
        "ema34_dist",
        "hurst_proxy",
        "bb_squeeze",
        "cross_trend_mom3",
        "cross_trend_rsi",
        "cross_vol_bbpos"
      ],
      "weights": [
        0.8686563854884646,
        -0.3502349377192784,
        -2.3674740009505824,
        -0.0015876868670827323,
        0.0894685873530032,
        -0.8866915640216634,
        -0.0005571286636128297,
        -0.0024824823401017413,
        0.024708932315395744,
        0.0449906574856703,
        0.00004694243632770805,
        -0.3917898314164647,
        0.001175928849824834,
        -0.25256989261626345,
        0.0014411104799256713,
        -0.015673607328751678,
        -0.5989100210356045,
        0.007956915332856833,
        0.5152789117905175,
        0.7467723640161655,
        -0.26955139791843497,
        -2.052295896961151,
        -0.0012592547885955266,
        -0.18738593343203053,
        0.14616391014846136,
        -0.0014535967562503652,
        -0.0017753209989394547,
        0.018172558908702917,
        0.0010651698215208478,
        0.0004959451168075476,
        0.4068406723369807,
        0.002442442184624944,
        -0.06883213972358769,
        0.004222830143711481,
        -0.012927440368725764,
        -0.5135077205102583,
        0.010525553069649867,
        0.3075824064672369,
        0.4986202993460924,
        -0.23799139455695745,
        -1.6035286410678884,
        -0.00038867512827861804,
        -0.38767001088944214,
        0.8845360716007831,
        -0.000012430465484658151,
        -0.0011506054649519136,
        0.013065136338814327,
        0.001131284371314112,
        0.00010037350610089747,
        -0.4656184109127405,
        -0.00027493081528256243,
        0.031805361069475055,
        0.006585654629030859,
        -0.011391446920623004,
        -0.25802333417535694,
        0.0030980534736198815,
        0.05653260954746422
      ],
      "bias": 0,
      "kind": "rl_linear_q",
      "qWeights": [
        [
          0.8686563854884646,
          -0.3502349377192784,
          -2.3674740009505824,
          -0.0015876868670827323,
          0.0894685873530032,
          -0.8866915640216634,
          -0.0005571286636128297,
          -0.0024824823401017413,
          0.024708932315395744,
          0.0449906574856703,
          0.00004694243632770805,
          -0.3917898314164647,
          0.001175928849824834,
          -0.25256989261626345,
          0.0014411104799256713,
          -0.015673607328751678,
          -0.5989100210356045,
          0.007956915332856833,
          0.5152789117905175
        ],
        [
          0.7467723640161655,
          -0.26955139791843497,
          -2.052295896961151,
          -0.0012592547885955266,
          -0.18738593343203053,
          0.14616391014846136,
          -0.0014535967562503652,
          -0.0017753209989394547,
          0.018172558908702917,
          0.0010651698215208478,
          0.0004959451168075476,
          0.4068406723369807,
          0.002442442184624944,
          -0.06883213972358769,
          0.004222830143711481,
          -0.012927440368725764,
          -0.5135077205102583,
          0.010525553069649867,
          0.3075824064672369
        ],
        [
          0.4986202993460924,
          -0.23799139455695745,
          -1.6035286410678884,
          -0.00038867512827861804,
          -0.38767001088944214,
          0.8845360716007831,
          -0.000012430465484658151,
          -0.0011506054649519136,
          0.013065136338814327,
          0.001131284371314112,
          0.00010037350610089747,
          -0.4656184109127405,
          -0.00027493081528256243,
          0.031805361069475055,
          0.006585654629030859,
          -0.011391446920623004,
          -0.25802333417535694,
          0.0030980534736198815,
          0.05653260954746422
        ]
      ],
      "qBias": [
        0.07008968294486528,
        0.06852146191015998,
        0.06448226907147088
      ],
      "training": {
        "episodes": 210,
        "avgEpisodeReward": -0.283185360799958,
        "warmStartModelId": "c57902de-32d7-432a-855d-3dd99c5a688b",
        "pretrainEpisodes": 300,
        "replayEpisodes": 0
      },
      "metrics": {
        "accuracy": 0.4517850892544627,
        "f1": 0.987756764885195,
        "precision": 0.9940603526970632,
        "recall": -0.060298563165316295
      },
      "evaluation": {
        "walkForwardSharpe": 0.026225142504811835,
        "walkForwardProfitFactor": 1.07697636461742,
        "walkForwardMaxDrawdown": 0.0019105900894719947,
        "paperWindowProfitFactor": 2.6184593222312516,
        "paperWindowSharpe": 0.5306062858762398,
        "paperWindowNetPnl": 961.8028142527437,
        "paperWindowTrades": 7557,
        "unseenProfitFactor": 0,
        "unseenSharpe": 0,
        "unseenNetPnl": 0,
        "unseenTrades": 0,
        "inSampleWinRate": 0.4517850892544627,
        "inSampleNetPnl": -50.07306053648426
      }
    },
    {
      "id": "5717b0c1-546e-4600-84f4-8b7fa4833284",
      "createdAt": 1772209046757,
      "stage": "challenger",
      "source": "rl_offline_q_learning",
      "featureNames": [
        "returns",
        "volatility",
        "atr_norm",
        "rsi_norm",
        "ema_spread",
        "macd_hist_norm",
        "bb_pos",
        "adx_norm",
        "mom_3",
        "mom_12",
        "volume_z",
        "flow_imbalance",
        "returns_autocorr",
        "ema34_dist",
        "hurst_proxy",
        "bb_squeeze",
        "cross_trend_mom3",
        "cross_trend_rsi",
        "cross_vol_bbpos"
      ],
      "weights": [
        0.8688641579251554,
        -0.3551012615031027,
        -2.3687960708261158,
        -0.0007004021195067916,
        0.09061725031682513,
        -0.88701291464989,
        -0.0027874296408587876,
        -0.00036363311776822874,
        0.02586830527527674,
        0.04402732498801763,
        0.0003789172907977051,
        -0.3917898314164647,
        0.002979061654349972,
        -0.25005249671090574,
        0.002255857091341052,
        -0.013876051607369853,
        -0.5990835611860805,
        0.000955099070885488,
        0.513500254695101,
        0.7469210624067493,
        -0.27138168894904474,
        -2.052880256728761,
        -0.005030015842074096,
        -0.1866146646590021,
        0.14619627720868247,
        -0.0010788468428451139,
        0.0004352731642855813,
        0.019331428855577572,
        0.0017066464267686985,
        0.0015224477266587058,
        0.4068406723369807,
        0.003208830520103631,
        -0.06668568275454131,
        -0.0003320168602997358,
        -0.008458104486815691,
        -0.5132191269910211,
        0.005268516653849478,
        0.3077095066397201,
        0.49852591460307166,
        -0.23803205768910435,
        -1.6035277859573376,
        0.000023641087469620708,
        -0.38768244175018135,
        0.8848546974499051,
        -0.0020762448944298675,
        0.00002761514256791193,
        0.013718080133413059,
        0.002817510304448434,
        0.000015017980475638884,
        -0.4656184109127405,
        0.004209908383419385,
        0.03177571625857277,
        0.0026800773844121513,
        -0.012052847508607965,
        -0.2582809305981145,
        0.005205307542311565,
        0.05658926793864901
      ],
      "bias": 0,
      "kind": "rl_linear_q",
      "qWeights": [
        [
          0.8688641579251554,
          -0.3551012615031027,
          -2.3687960708261158,
          -0.0007004021195067916,
          0.09061725031682513,
          -0.88701291464989,
          -0.0027874296408587876,
          -0.00036363311776822874,
          0.02586830527527674,
          0.04402732498801763,
          0.0003789172907977051,
          -0.3917898314164647,
          0.002979061654349972,
          -0.25005249671090574,
          0.002255857091341052,
          -0.013876051607369853,
          -0.5990835611860805,
          0.000955099070885488,
          0.513500254695101
        ],
        [
          0.7469210624067493,
          -0.27138168894904474,
          -2.052880256728761,
          -0.005030015842074096,
          -0.1866146646590021,
          0.14619627720868247,
          -0.0010788468428451139,
          0.0004352731642855813,
          0.019331428855577572,
          0.0017066464267686985,
          0.0015224477266587058,
          0.4068406723369807,
          0.003208830520103631,
          -0.06668568275454131,
          -0.0003320168602997358,
          -0.008458104486815691,
          -0.5132191269910211,
          0.005268516653849478,
          0.3077095066397201
        ],
        [
          0.49852591460307166,
          -0.23803205768910435,
          -1.6035277859573376,
          0.000023641087469620708,
          -0.38768244175018135,
          0.8848546974499051,
          -0.0020762448944298675,
          0.00002761514256791193,
          0.013718080133413059,
          0.002817510304448434,
          0.000015017980475638884,
          -0.4656184109127405,
          0.004209908383419385,
          0.03177571625857277,
          0.0026800773844121513,
          -0.012052847508607965,
          -0.2582809305981145,
          0.005205307542311565,
          0.05658926793864901
        ]
      ],
      "qBias": [
        0.09061540777178606,
        0.08469951847183133,
        0.08782756303159632
      ],
      "training": {
        "episodes": 150,
        "avgEpisodeReward": -0.29060389128302916,
        "warmStartModelId": "c57902de-32d7-432a-855d-3dd99c5a688b",
        "pretrainEpisodes": 193,
        "replayEpisodes": 0
      },
      "metrics": {
        "accuracy": 0.4854862415285376,
        "f1": 1.002379043462333,
        "precision": 0.9869847572260588,
        "recall": -0.10415957285226857
      },
      "evaluation": {
        "walkForwardSharpe": -0.1765756727322276,
        "walkForwardProfitFactor": 0.9193344230979072,
        "walkForwardMaxDrawdown": 0.005098098267898855,
        "paperWindowProfitFactor": 1.9550421477355573,
        "paperWindowSharpe": 0.5587968430173532,
        "paperWindowNetPnl": 1048.5470119343627,
        "paperWindowTrades": 16891,
        "unseenProfitFactor": 0,
        "unseenSharpe": 0,
        "unseenNetPnl": 0,
        "unseenTrades": 0,
        "inSampleWinRate": 0.4854862415285376,
        "inSampleNetPnl": -119.20858795330969
      }
    },
    {
      "id": "bb427bc1-5359-48ba-8fc3-c19a037afbba",
      "createdAt": 1772208783743,
      "featureNames": [
        "returns",
        "volatility",
        "atr_norm",
        "rsi_norm",
        "ema_spread",
        "macd_hist_norm",
        "bb_pos",
        "adx_norm",
        "mom_3",
        "mom_12",
        "volume_z",
        "flow_imbalance",
        "returns_autocorr",
        "ema34_dist",
        "hurst_proxy",
        "bb_squeeze",
        "cross_trend_mom3",
        "cross_trend_rsi",
        "cross_vol_bbpos"
      ],
      "weights": [
        -0.000006456727210739801,
        0.000030467780235067694,
        -0.0000025324711654351947,
        -0.007852516203062154,
        -0.00005889535561364309,
        -0.000017261926649526625,
        -0.01761478664836863,
        -0.00418645255208866,
        -0.00009574178323490826,
        -0.00017989029361132513,
        -0.0054324658718954005,
        0,
        0.00001920741545077473,
        -0.00017377582450876872,
        -0.0008202777418374607,
        0.0042327307224594435,
        0.000007671810176032107,
        0.00031857635997110164,
        -0.000100891518013989
      ],
      "bias": -0.02769922940730456,
      "kind": "supervised_linear",
      "metrics": {
        "accuracy": 0.506924364632476,
        "f1": 0,
        "precision": 0,
        "recall": 0
      },
      "stage": "challenger",
      "source": "batch_training",
      "evaluation": {
        "walkForwardSharpe": 0,
        "walkForwardProfitFactor": 0,
        "walkForwardMaxDrawdown": 0,
        "paperWindowProfitFactor": 0,
        "paperWindowSharpe": 0,
        "paperWindowNetPnl": 0,
        "paperWindowTrades": 0,
        "unseenProfitFactor": 0,
        "unseenSharpe": 0,
        "unseenNetPnl": 0,
        "unseenTrades": 0
      }
    },
    {
      "id": "be5dee1a-de51-4083-92fa-4c5015a9f592",
      "createdAt": 1772208617295,
      "stage": "challenger",
      "source": "rl_offline_q_learning",
      "featureNames": [
        "returns",
        "volatility",
        "atr_norm",
        "rsi_norm",
        "ema_spread",
        "macd_hist_norm",
        "bb_pos",
        "adx_norm",
        "mom_3",
        "mom_12",
        "volume_z",
        "flow_imbalance",
        "returns_autocorr",
        "ema34_dist",
        "hurst_proxy",
        "bb_squeeze",
        "cross_trend_mom3",
        "cross_trend_rsi",
        "cross_vol_bbpos"
      ],
      "weights": [
        0.8687637744978737,
        -0.3532473609817871,
        -2.368226505602792,
        0.001122440243926324,
        0.09064576387171858,
        -0.886473194870871,
        -0.004262801483920732,
        -0.002379192377168429,
        0.026234915878268664,
        0.047376484254748136,
        0.0005796844954285621,
        -0.3917898314164647,
        0.0018780559939826909,
        -0.2496731669318331,
        0.004311559376858637,
        -0.008634312112282109,
        -0.5991582332997692,
        0.009175100066489701,
        0.51574105267624,
        0.7468919547879413,
        -0.27186163087289406,
        -2.0528673372464885,
        0.0025397949083072907,
        -0.18677029100573042,
        0.14615553981795198,
        -0.004732729708844356,
        -0.002155758971630161,
        0.01832329992288953,
        0.0016286012420510193,
        0.0005729984331264938,
        0.4068406723369807,
        0.0032693832456289636,
        -0.0674608137673616,
        0.0022637160141085236,
        -0.011346482044222353,
        -0.5136140014952019,
        0.011219368328319582,
        0.30744647995504104,
        0.49860888740414466,
        -0.23731469894424584,
        -1.6033285781396647,
        -0.000560902865112176,
        -0.3877644621132239,
        0.8846247885661125,
        -0.0018625315968700757,
        -0.00269823811225048,
        0.014181825955556266,
        0.0002010305461319257,
        0.0006592327622759686,
        -0.4656184109127405,
        0.002127565007309895,
        0.032091216281963264,
        -0.00039698146655627617,
        -0.00724326087112628,
        -0.258159793836588,
        0.005769586697305522,
        0.05682171227900222
      ],
      "bias": 0,
      "kind": "rl_linear_q",
      "qWeights": [
        [
          0.8687637744978737,
          -0.3532473609817871,
          -2.368226505602792,
          0.001122440243926324,
          0.09064576387171858,
          -0.886473194870871,
          -0.004262801483920732,
          -0.002379192377168429,
          0.026234915878268664,
          0.047376484254748136,
          0.0005796844954285621,
          -0.3917898314164647,
          0.0018780559939826909,
          -0.2496731669318331,
          0.004311559376858637,
          -0.008634312112282109,
          -0.5991582332997692,
          0.009175100066489701,
          0.51574105267624
        ],
        [
          0.7468919547879413,
          -0.27186163087289406,
          -2.0528673372464885,
          0.0025397949083072907,
          -0.18677029100573042,
          0.14615553981795198,
          -0.004732729708844356,
          -0.002155758971630161,
          0.01832329992288953,
          0.0016286012420510193,
          0.0005729984331264938,
          0.4068406723369807,
          0.0032693832456289636,
          -0.0674608137673616,
          0.0022637160141085236,
          -0.011346482044222353,
          -0.5136140014952019,
          0.011219368328319582,
          0.30744647995504104
        ],
        [
          0.49860888740414466,
          -0.23731469894424584,
          -1.6033285781396647,
          -0.000560902865112176,
          -0.3877644621132239,
          0.8846247885661125,
          -0.0018625315968700757,
          -0.00269823811225048,
          0.014181825955556266,
          0.0002010305461319257,
          0.0006592327622759686,
          -0.4656184109127405,
          0.002127565007309895,
          0.032091216281963264,
          -0.00039698146655627617,
          -0.00724326087112628,
          -0.258159793836588,
          0.005769586697305522,
          0.05682171227900222
        ]
      ],
      "qBias": [
        0.08140308398144003,
        0.0824636358934024,
        0.07984683509308155
      ],
      "training": {
        "episodes": 210,
        "avgEpisodeReward": -0.2810814498344366,
        "warmStartModelId": "c57902de-32d7-432a-855d-3dd99c5a688b",
        "pretrainEpisodes": 204,
        "replayEpisodes": 0
      },
      "metrics": {
        "accuracy": 0.48091603053435117,
        "f1": 1.150246858868228,
        "precision": 0.9975244406692442,
        "recall": 0.03286078039252494
      },
      "evaluation": {
        "walkForwardSharpe": -0.012993296054780966,
        "walkForwardProfitFactor": 1.0303919795350904,
        "walkForwardMaxDrawdown": 0.001846351262733791,
        "paperWindowProfitFactor": 4.254605648870909,
        "paperWindowSharpe": 0.4822181980962881,
        "paperWindowNetPnl": 903.8544404080258,
        "paperWindowTrades": 458,
        "unseenProfitFactor": 0,
        "unseenSharpe": 0,
        "unseenNetPnl": 0,
        "unseenTrades": 0,
        "inSampleWinRate": 0.48091603053435117,
        "inSampleNetPnl": 37.891171159288206
      }
    },
    {
      "id": "a3520a8f-fff1-477c-877b-0e7b71f77454",
      "createdAt": 1772208338619,
      "stage": "challenger",
      "source": "rl_offline_q_learning",
      "featureNames": [
        "returns",
        "volatility",
        "atr_norm",
        "rsi_norm",
        "ema_spread",
        "macd_hist_norm",
        "bb_pos",
        "adx_norm",
        "mom_3",
        "mom_12",
        "volume_z",
        "flow_imbalance",
        "returns_autocorr",
        "ema34_dist",
        "hurst_proxy",
        "bb_squeeze",
        "cross_trend_mom3",
        "cross_trend_rsi",
        "cross_vol_bbpos"
      ],
      "weights": [
        0.8688742825855308,
        -0.3551914497412822,
        -2.369103782313346,
        0.00314298874021089,
        0.09137401760750324,
        -0.8865630884218655,
        -0.0022307485884830885,
        0.0022514000640885966,
        0.0243573946355323,
        0.04893921457148526,
        -0.00017942850265914118,
        -0.3917898314164647,
        0.00029612150785926684,
        -0.2488756547948032,
        -0.003278248947615355,
        -0.010684011981619633,
        -0.5991753483042945,
        0.00726559117115379,
        0.5143233803508682,
        0.7468171450456593,
        -0.27007032552953897,
        -2.052184679658141,
        0.00017823112229864267,
        -0.1873510354081852,
        0.14618133566485178,
        -0.0018260008988874993,
        -0.0005424128340583119,
        0.01918808961435059,
        0.0013735342523473204,
        -0.00003091538780599288,
        0.4068406723369807,
        -0.0025667424763894707,
        -0.06788623711050769,
        -0.0023823111134762464,
        -0.016037046022805736,
        -0.5137505303735447,
        -0.0007460365591694753,
        0.3080298302956859,
        0.49851363058316595,
        -0.23970382886097905,
        -1.6034378944593595,
        -0.0004384464869248513,
        -0.38775927776204216,
        0.8851040417109244,
        -0.0029454169677564867,
        0.00016728891806374767,
        0.013440060808463357,
        0.0048887789697075554,
        -0.00009668445767183248,
        -0.4656184109127405,
        -0.002426311934056437,
        0.03169318348627165,
        -0.003055459499541065,
        -0.01173661786537018,
        -0.25822385019504646,
        0.00644086623692428,
        0.055892633166977346
      ],
      "bias": 0,
      "kind": "rl_linear_q",
      "qWeights": [
        [
          0.8688742825855308,
          -0.3551914497412822,
          -2.369103782313346,
          0.00314298874021089,
          0.09137401760750324,
          -0.8865630884218655,
          -0.0022307485884830885,
          0.0022514000640885966,
          0.0243573946355323,
          0.04893921457148526,
          -0.00017942850265914118,
          -0.3917898314164647,
          0.00029612150785926684,
          -0.2488756547948032,
          -0.003278248947615355,
          -0.010684011981619633,
          -0.5991753483042945,
          0.00726559117115379,
          0.5143233803508682
        ],
        [
          0.7468171450456593,
          -0.27007032552953897,
          -2.052184679658141,
          0.00017823112229864267,
          -0.1873510354081852,
          0.14618133566485178,
          -0.0018260008988874993,
          -0.0005424128340583119,
          0.01918808961435059,
          0.0013735342523473204,
          -0.00003091538780599288,
          0.4068406723369807,
          -0.0025667424763894707,
          -0.06788623711050769,
          -0.0023823111134762464,
          -0.016037046022805736,
          -0.5137505303735447,
          -0.0007460365591694753,
          0.3080298302956859
        ],
        [
          0.49851363058316595,
          -0.23970382886097905,
          -1.6034378944593595,
          -0.0004384464869248513,
          -0.38775927776204216,
          0.8851040417109244,
          -0.0029454169677564867,
          0.00016728891806374767,
          0.013440060808463357,
          0.0048887789697075554,
          -0.00009668445767183248,
          -0.4656184109127405,
          -0.002426311934056437,
          0.03169318348627165,
          -0.003055459499541065,
          -0.01173661786537018,
          -0.25822385019504646,
          0.00644086623692428,
          0.055892633166977346
        ]
      ],
      "qBias": [
        0.08969477445579203,
        0.09508827978042979,
        0.08763523933434608
      ],
      "training": {
        "episodes": 168,
        "avgEpisodeReward": -0.2862004331351203,
        "warmStartModelId": "c57902de-32d7-432a-855d-3dd99c5a688b",
        "pretrainEpisodes": 180,
        "replayEpisodes": 0
      },
      "metrics": {
        "accuracy": 0.544746181144885,
        "f1": 0.9967694444692833,
        "precision": 0.9956796883659872,
        "recall": -0.03218440215494516
      },
      "evaluation": {
        "walkForwardSharpe": -0.10445202682428127,
        "walkForwardProfitFactor": 0.9841584297318959,
        "walkForwardMaxDrawdown": 0.0037006949016973024,
        "paperWindowProfitFactor": 2.7690520498204423,
        "paperWindowSharpe": 0.3984567285652911,
        "paperWindowNetPnl": 700.9046925248185,
        "paperWindowTrades": 4280,
        "unseenProfitFactor": 0,
        "unseenSharpe": 0,
        "unseenNetPnl": 0,
        "unseenTrades": 0,
        "inSampleWinRate": 0.544746181144885,
        "inSampleNetPnl": -23.16748177023146
      }
    },
    {
      "id": "f47db6bc-f5e2-4e27-9cbf-a9f0156a7573",
      "createdAt": 1772208059951,
      "stage": "challenger",
      "source": "rl_offline_q_learning",
      "featureNames": [
        "returns",
        "volatility",
        "atr_norm",
        "rsi_norm",
        "ema_spread",
        "macd_hist_norm",
        "bb_pos",
        "adx_norm",
        "mom_3",
        "mom_12",
        "volume_z",
        "flow_imbalance",
        "returns_autocorr",
        "ema34_dist",
        "hurst_proxy",
        "bb_squeeze",
        "cross_trend_mom3",
        "cross_trend_rsi",
        "cross_vol_bbpos"
      ],
      "weights": [
        0.8686624353680624,
        -0.3538564018228741,
        -2.368407381724351,
        0.0019227091173804338,
        0.08998069431494338,
        -0.8865121736097784,
        -0.002604894765428302,
        -0.005033316206348802,
        0.024677231646405073,
        0.0468517805420203,
        0.000014017098619321842,
        -0.3917898314164647,
        -0.000326263176716924,
        -0.25179225855208615,
        -0.0016566805078003142,
        -0.006979436227789572,
        -0.5986677812395441,
        0.005391224601440809,
        0.5141158474646619,
        0.7466274799873229,
        -0.27183850404974924,
        -2.052608419720512,
        -0.0008881508365676466,
        -0.18841841814813529,
        0.14613590399939427,
        -0.00044195855699202564,
        -0.006651810707961808,
        0.018500307838050387,
        -0.00010266521065112594,
        -0.00008901303652288467,
        0.4068406723369807,
        -0.00007360723135258047,
        -0.07058261749163745,
        0.0032944762303645327,
        -0.006467120276384986,
        -0.5134504496843563,
        0.0028909957694764287,
        0.30689589534546274,
        0.49860850845007015,
        -0.23460869243055144,
        -1.6026111942200854,
        0.000544325986539712,
        -0.387782826741287,
        0.8847063672632837,
        -0.0007255706321347835,
        -0.005831865871326162,
        0.012561111994541683,
        0.004129864919905196,
        0.0010001961973831889,
        -0.4656184109127405,
        0.0010182146262169409,
        0.031387191804777385,
        -0.002153835403020123,
        -0.0049418963284104025,
        -0.2582028327082857,
        0.0009059549659890694,
        0.057962259233964405
      ],
      "bias": 0,
      "kind": "rl_linear_q",
      "qWeights": [
        [
          0.8686624353680624,
          -0.3538564018228741,
          -2.368407381724351,
          0.0019227091173804338,
          0.08998069431494338,
          -0.8865121736097784,
          -0.002604894765428302,
          -0.005033316206348802,
          0.024677231646405073,
          0.0468517805420203,
          0.000014017098619321842,
          -0.3917898314164647,
          -0.000326263176716924,
          -0.25179225855208615,
          -0.0016566805078003142,
          -0.006979436227789572,
          -0.5986677812395441,
          0.005391224601440809,
          0.5141158474646619
        ],
        [
          0.7466274799873229,
          -0.27183850404974924,
          -2.052608419720512,
          -0.0008881508365676466,
          -0.18841841814813529,
          0.14613590399939427,
          -0.00044195855699202564,
          -0.006651810707961808,
          0.018500307838050387,
          -0.00010266521065112594,
          -0.00008901303652288467,
          0.4068406723369807,
          -0.00007360723135258047,
          -0.07058261749163745,
          0.0032944762303645327,
          -0.006467120276384986,
          -0.5134504496843563,
          0.0028909957694764287,
          0.30689589534546274
        ],
        [
          0.49860850845007015,
          -0.23460869243055144,
          -1.6026111942200854,
          0.000544325986539712,
          -0.387782826741287,
          0.8847063672632837,
          -0.0007255706321347835,
          -0.005831865871326162,
          0.012561111994541683,
          0.004129864919905196,
          0.0010001961973831889,
          -0.4656184109127405,
          0.0010182146262169409,
          0.031387191804777385,
          -0.002153835403020123,
          -0.0049418963284104025,
          -0.2582028327082857,
          0.0009059549659890694,
          0.057962259233964405
        ]
      ],
      "qBias": [
        0.07483548598865138,
        0.0720890953040258,
        0.07134187578963205
      ],
      "training": {
        "episodes": 150,
        "avgEpisodeReward": -0.2884806685829667,
        "warmStartModelId": "c57902de-32d7-432a-855d-3dd99c5a688b",
        "pretrainEpisodes": 300,
        "replayEpisodes": 0
      },
      "metrics": {
        "accuracy": 0.4670386834389483,
        "f1": 1.0135820315805868,
        "precision": 0.9945892927375191,
        "recall": -0.054376520103967714
      },
      "evaluation": {
        "walkForwardSharpe": -0.00840090725181888,
        "walkForwardProfitFactor": 1.01951508702663,
        "walkForwardMaxDrawdown": 0.0012929712996301768,
        "paperWindowProfitFactor": 2.3503421954189148,
        "paperWindowSharpe": 0.4782849456182441,
        "paperWindowNetPnl": 878.9454064747879,
        "paperWindowTrades": 10026,
        "unseenProfitFactor": 0,
        "unseenSharpe": 0,
        "unseenNetPnl": 0,
        "unseenTrades": 0,
        "inSampleWinRate": 0.4670386834389483,
        "inSampleNetPnl": -41.26390542333138
      }
    },
    {
      "id": "78f9e54b-01d9-43ec-9740-24b2ad266db2",
      "createdAt": 1772207737477,
      "stage": "challenger",
      "source": "rl_offline_q_learning",
      "featureNames": [
        "returns",
        "volatility",
        "atr_norm",
        "rsi_norm",
        "ema_spread",
        "macd_hist_norm",
        "bb_pos",
        "adx_norm",
        "mom_3",
        "mom_12",
        "volume_z",
        "flow_imbalance",
        "returns_autocorr",
        "ema34_dist",
        "hurst_proxy",
        "bb_squeeze",
        "cross_trend_mom3",
        "cross_trend_rsi",
        "cross_vol_bbpos"
      ],
      "weights": [
        0.8688311290638686,
        -0.3526212256050311,
        -2.368315762766452,
        0.0026380025568774187,
        0.09036915089299966,
        -0.8868265543554803,
        -0.0036205416770918267,
        -0.0005475409889873638,
        0.024128908077985546,
        0.04590378156916959,
        0.00004508026930677567,
        -0.3917898314164647,
        0.000216507186767029,
        -0.2506493283369497,
        -0.002274204658198391,
        -0.006818513567145796,
        -0.5987432741076364,
        0.0014563726457611234,
        0.5142682118964181,
        0.7468440005917306,
        -0.2705824177431071,
        -2.0524740650135502,
        0.0014482527019636445,
        -0.18717237788459282,
        0.1461773422839781,
        -0.0010947958556083003,
        -0.0005269703368382234,
        0.019535656381096066,
        0.0007714549342886169,
        -0.00001089984655489299,
        0.4068406723369807,
        0.0006132283890797762,
        -0.06756670510273834,
        -0.0016096398193030036,
        -0.0048232111126127715,
        -0.5134481029443251,
        -0.00268875074860644,
        0.30791268708781877,
        0.4987546905147644,
        -0.24042157423441682,
        -1.6044429436821972,
        0.000049151992522682576,
        -0.38669104332732585,
        0.8846572393810773,
        -0.0011714657789116494,
        -0.0018753444711188177,
        0.012203036078197732,
        0.0045660368061288,
        -0.00006660221872513926,
        -0.4656184109127405,
        0.00047522852219463943,
        0.03349181458016246,
        -0.002689733221188254,
        -0.006221933503015525,
        -0.25829188710514406,
        -0.0034314738918497854,
        0.05649859783672752
      ],
      "bias": 0,
      "kind": "rl_linear_q",
      "qWeights": [
        [
          0.8688311290638686,
          -0.3526212256050311,
          -2.368315762766452,
          0.0026380025568774187,
          0.09036915089299966,
          -0.8868265543554803,
          -0.0036205416770918267,
          -0.0005475409889873638,
          0.024128908077985546,
          0.04590378156916959,
          0.00004508026930677567,
          -0.3917898314164647,
          0.000216507186767029,
          -0.2506493283369497,
          -0.002274204658198391,
          -0.006818513567145796,
          -0.5987432741076364,
          0.0014563726457611234,
          0.5142682118964181
        ],
        [
          0.7468440005917306,
          -0.2705824177431071,
          -2.0524740650135502,
          0.0014482527019636445,
          -0.18717237788459282,
          0.1461773422839781,
          -0.0010947958556083003,
          -0.0005269703368382234,
          0.019535656381096066,
          0.0007714549342886169,
          -0.00001089984655489299,
          0.4068406723369807,
          0.0006132283890797762,
          -0.06756670510273834,
          -0.0016096398193030036,
          -0.0048232111126127715,
          -0.5134481029443251,
          -0.00268875074860644,
          0.30791268708781877
        ],
        [
          0.4987546905147644,
          -0.24042157423441682,
          -1.6044429436821972,
          0.000049151992522682576,
          -0.38669104332732585,
          0.8846572393810773,
          -0.0011714657789116494,
          -0.0018753444711188177,
          0.012203036078197732,
          0.0045660368061288,
          -0.00006660221872513926,
          -0.4656184109127405,
          0.00047522852219463943,
          0.03349181458016246,
          -0.002689733221188254,
          -0.006221933503015525,
          -0.25829188710514406,
          -0.0034314738918497854,
          0.05649859783672752
        ]
      ],
      "qBias": [
        0.057654903967772876,
        0.05697657756534901,
        0.05978538351426618
      ],
      "training": {
        "episodes": 289,
        "avgEpisodeReward": -0.26928750251703754,
        "warmStartModelId": "c57902de-32d7-432a-855d-3dd99c5a688b",
        "pretrainEpisodes": 300,
        "replayEpisodes": 0
      },
      "metrics": {
        "accuracy": 0.5792323176233776,
        "f1": 0.9707869899262408,
        "precision": 0.9945367281659443,
        "recall": -0.057114691318055466
      },
      "evaluation": {
        "walkForwardSharpe": -0.11328474753675036,
        "walkForwardProfitFactor": 0.9684645897348471,
        "walkForwardMaxDrawdown": 0.0029806342847381517,
        "paperWindowProfitFactor": 3.0691106158225456,
        "paperWindowSharpe": 1.0543355639932885,
        "paperWindowNetPnl": 854.5458818766365,
        "paperWindowTrades": 4971,
        "unseenProfitFactor": 0,
        "unseenSharpe": 0,
        "unseenNetPnl": 0,
        "unseenTrades": 0,
        "inSampleWinRate": 0.5792323176233776,
        "inSampleNetPnl": -45.96518720146196
      }
    },
    {
      "id": "c57902de-32d7-432a-855d-3dd99c5a688b",
      "createdAt": 1772207423130,
      "stage": "challenger",
      "source": "rl_offline_q_learning",
      "featureNames": [
        "returns",
        "volatility",
        "atr_norm",
        "rsi_norm",
        "ema_spread",
        "macd_hist_norm",
        "bb_pos",
        "adx_norm",
        "mom_3",
        "mom_12",
        "volume_z",
        "flow_imbalance",
        "returns_autocorr",
        "ema34_dist",
        "hurst_proxy",
        "bb_squeeze",
        "cross_trend_mom3",
        "cross_trend_rsi",
        "cross_vol_bbpos"
      ],
      "weights": [
        0.8689176750722569,
        -0.3597061277560039,
        -2.3701211170004957,
        -0.001662540971678601,
        0.0910581527127504,
        -0.886940503551821,
        -0.00576622623399429,
        0.007889141842854698,
        0.024533467464866072,
        0.0471255808631092,
        0.00011773376958454035,
        -0.3917898314164647,
        0.0004466153116432394,
        -0.2495018778701644,
        -0.012972690013035477,
        -0.008818985614415404,
        -0.5992398728027779,
        0.013325306498050055,
        0.5126267084604369,
        0.7467861685526502,
        -0.27325515547254203,
        -2.0530347340305686,
        -0.008217765481009371,
        -0.1873943122054856,
        0.14637876359824967,
        -0.00437547949661139,
        0.005766298837549837,
        0.02098003196285411,
        0.002130751127495405,
        -0.000664441187868109,
        0.4068406723369807,
        0.003210552927427146,
        -0.06738331505036604,
        -0.007456903331266841,
        -0.009662921954709464,
        -0.513776294118537,
        0.011876046054548268,
        0.30715615214910597,
        0.4981320988960908,
        -0.23575530875796746,
        -1.602136940788943,
        0.0004973095653085162,
        -0.39005191224292135,
        0.8853392735400007,
        -0.0062198666795521915,
        0.010564831967181703,
        0.015457881186908126,
        0.0023161582410935358,
        0.000389542497743281,
        -0.4656184109127405,
        0.0036090621741264543,
        0.027871399569039904,
        -0.013533895166658658,
        -0.008364363972353205,
        -0.25819440304492175,
        0.014360178237946723,
        0.05668356951844049
      ],
      "bias": 0,
      "kind": "rl_linear_q",
      "qWeights": [
        [
          0.8689176750722569,
          -0.3597061277560039,
          -2.3701211170004957,
          -0.001662540971678601,
          0.0910581527127504,
          -0.886940503551821,
          -0.00576622623399429,
          0.007889141842854698,
          0.024533467464866072,
          0.0471255808631092,
          0.00011773376958454035,
          -0.3917898314164647,
          0.0004466153116432394,
          -0.2495018778701644,
          -0.012972690013035477,
          -0.008818985614415404,
          -0.5992398728027779,
          0.013325306498050055,
          0.5126267084604369
        ],
        [
          0.7467861685526502,
          -0.27325515547254203,
          -2.0530347340305686,
          -0.008217765481009371,
          -0.1873943122054856,
          0.14637876359824967,
          -0.00437547949661139,
          0.005766298837549837,
          0.02098003196285411,
          0.002130751127495405,
          -0.000664441187868109,
          0.4068406723369807,
          0.003210552927427146,
          -0.06738331505036604,
          -0.007456903331266841,
          -0.009662921954709464,
          -0.513776294118537,
          0.011876046054548268,
          0.30715615214910597
        ],
        [
          0.4981320988960908,
          -0.23575530875796746,
          -1.602136940788943,
          0.0004973095653085162,
          -0.39005191224292135,
          0.8853392735400007,
          -0.0062198666795521915,
          0.010564831967181703,
          0.015457881186908126,
          0.0023161582410935358,
          0.000389542497743281,
          -0.4656184109127405,
          0.0036090621741264543,
          0.027871399569039904,
          -0.013533895166658658,
          -0.008364363972353205,
          -0.25819440304492175,
          0.014360178237946723,
          0.05668356951844049
        ]
      ],
      "qBias": [
        0.12845146546073577,
        0.12134126295722363,
        0.12009769576180665
      ],
      "training": {
        "episodes": 120,
        "avgEpisodeReward": -0.29013909207785915,
        "warmStartModelId": "172b10c7-fb7a-4fb8-9df0-9aa51eacf3f6",
        "pretrainEpisodes": 243,
        "replayEpisodes": 0
      },
      "metrics": {
        "accuracy": 0.5,
        "f1": 2.5522435323614636,
        "precision": 0.9971775532991572,
        "recall": 0.029360851096020484
      },
      "evaluation": {
        "walkForwardSharpe": 0.012413672287135446,
        "walkForwardProfitFactor": 1.0546143369484964,
        "walkForwardMaxDrawdown": 0.0019237177692696004,
        "paperWindowProfitFactor": 9.246943853123039,
        "paperWindowSharpe": 0.5321392461972495,
        "paperWindowNetPnl": 1024.1939852197866,
        "paperWindowTrades": 120,
        "unseenProfitFactor": 0,
        "unseenSharpe": 0,
        "unseenNetPnl": 0,
        "unseenTrades": 0,
        "inSampleWinRate": 0.5,
        "inSampleNetPnl": 34.68370562515338
      }
    },
    {
      "id": "633433ce-bbf2-4209-ade1-b232b9216108",
      "createdAt": 1772207169942,
      "featureNames": [
        "returns",
        "volatility",
        "atr_norm",
        "rsi_norm",
        "ema_spread",
        "macd_hist_norm",
        "bb_pos",
        "adx_norm",
        "mom_3",
        "mom_12",
        "volume_z",
        "flow_imbalance",
        "returns_autocorr",
        "ema34_dist",
        "hurst_proxy",
        "bb_squeeze",
        "cross_trend_mom3",
        "cross_trend_rsi",
        "cross_vol_bbpos"
      ],
      "weights": [
        -0.000006472577896356368,
        0.00003106118250390932,
        -0.00000243824800368205,
        -0.00790747458349661,
        -0.000059010801853916185,
        -0.000017332251582553356,
        -0.017788819206254136,
        -0.004124945031699634,
        -0.0000962320846300818,
        -0.00018035378057738272,
        -0.005701461491876517,
        0,
        0.00006040040653535611,
        -0.00017424847368098016,
        -0.0008073782203973368,
        0.0041939765798103545,
        0.000007598744587991599,
        0.00031422995957709727,
        -0.00010128565478549232
      ],
      "bias": -0.027940219106307226,
      "kind": "supervised_linear",
      "metrics": {
        "accuracy": 0.5069846004017287,
        "f1": 0,
        "precision": 0,
        "recall": 0
      },
      "stage": "challenger",
      "source": "batch_training",
      "evaluation": {
        "walkForwardSharpe": 0,
        "walkForwardProfitFactor": 0,
        "walkForwardMaxDrawdown": 0,
        "paperWindowProfitFactor": 0,
        "paperWindowSharpe": 0,
        "paperWindowNetPnl": 0,
        "paperWindowTrades": 0,
        "unseenProfitFactor": 0,
        "unseenSharpe": 0,
        "unseenNetPnl": 0,
        "unseenTrades": 0
      }
    },
    {
      "id": "172b10c7-fb7a-4fb8-9df0-9aa51eacf3f6",
      "createdAt": 1772201222120,
      "stage": "challenger",
      "source": "rl_offline_q_learning",
      "featureNames": [
        "returns",
        "volatility",
        "atr_norm",
        "rsi_norm",
        "ema_spread",
        "macd_hist_norm",
        "bb_pos",
        "adx_norm",
        "mom_3",
        "mom_12",
        "volume_z",
        "flow_imbalance",
        "returns_autocorr",
        "ema34_dist",
        "hurst_proxy",
        "bb_squeeze",
        "cross_trend_mom3",
        "cross_trend_rsi",
        "cross_vol_bbpos"
      ],
      "weights": [
        0.8690499194822341,
        -0.3657980719686797,
        -2.371652939032779,
        -0.02483525712436599,
        0.09264451135029032,
        -0.8863986900413614,
        -0.007853998818306064,
        0.00473937513739104,
        0.02318549963209828,
        0.05731856928351011,
        0.0001840045007260499,
        -0.3917898314164647,
        0.007598255160472818,
        -0.24706589099340298,
        -0.005114814669560515,
        -0.00627706405467263,
        -0.5995621584345946,
        0.05840207422799256,
        0.5113339001110688,
        0.7467290864696425,
        -0.2778874720381866,
        -2.0537570857492238,
        -0.016936288666910625,
        -0.18708474989902515,
        0.1470942042888828,
        -0.006095656051630509,
        -0.0002897900582567022,
        0.02027692212679548,
        0.010549264342565296,
        0.00015136752501357988,
        0.4068406723369807,
        0.015359241506784927,
        -0.06723002939291621,
        -0.060209885624697035,
        -0.005895476685143829,
        -0.5140966410091864,
        0.04641367023797448,
        0.3054659427469588,
        0.497635472520129,
        -0.23137196522345563,
        -1.600848404130657,
        -0.014904401163188606,
        -0.39195937837387695,
        0.8863157961913738,
        -0.001874060326288193,
        0.005959567405395835,
        0.016358218082753985,
        0.010157978672484767,
        0.005290451062171388,
        -0.4656184109127405,
        0.010859056914615597,
        0.024235328031040677,
        -0.07272319495988938,
        0.00314961461795625,
        -0.25822933408254806,
        0.03660307991250432,
        0.05827395695208353
      ],
      "bias": 0,
      "kind": "rl_linear_q",
      "qWeights": [
        [
          0.8690499194822341,
          -0.3657980719686797,
          -2.371652939032779,
          -0.02483525712436599,
          0.09264451135029032,
          -0.8863986900413614,
          -0.007853998818306064,
          0.00473937513739104,
          0.02318549963209828,
          0.05731856928351011,
          0.0001840045007260499,
          -0.3917898314164647,
          0.007598255160472818,
          -0.24706589099340298,
          -0.005114814669560515,
          -0.00627706405467263,
          -0.5995621584345946,
          0.05840207422799256,
          0.5113339001110688
        ],
        [
          0.7467290864696425,
          -0.2778874720381866,
          -2.0537570857492238,
          -0.016936288666910625,
          -0.18708474989902515,
          0.1470942042888828,
          -0.006095656051630509,
          -0.0002897900582567022,
          0.02027692212679548,
          0.010549264342565296,
          0.00015136752501357988,
          0.4068406723369807,
          0.015359241506784927,
          -0.06723002939291621,
          -0.060209885624697035,
          -0.005895476685143829,
          -0.5140966410091864,
          0.04641367023797448,
          0.3054659427469588
        ],
        [
          0.497635472520129,
          -0.23137196522345563,
          -1.600848404130657,
          -0.014904401163188606,
          -0.39195937837387695,
          0.8863157961913738,
          -0.001874060326288193,
          0.005959567405395835,
          0.016358218082753985,
          0.010157978672484767,
          0.005290451062171388,
          -0.4656184109127405,
          0.010859056914615597,
          0.024235328031040677,
          -0.07272319495988938,
          0.00314961461795625,
          -0.25822933408254806,
