{
  "champion": {
    "id": "141eb663-37c1-47f6-b669-276755626e6a",
    "createdAt": 1772197983188,
    "stage": "champion",
    "source": "rl_offline_q_learning",
    "featureNames": [
      "returns",
      "volatility",
      "atr_norm",
      "rsi_norm",
      "ema_spread",
      "macd_hist_norm",
      "bb_pos",
      "adx_norm",
      "mom_3",
      "mom_12",
      "volume_z",
      "flow_imbalance",
      "returns_autocorr",
      "ema34_dist",
      "hurst_proxy",
      "bb_squeeze",
      "cross_trend_mom3",
      "cross_trend_rsi",
      "cross_vol_bbpos"
    ],
    "weights": [
      0.665446793052065,
      -0.2273727248500469,
      -2.6538088127667727,
      -0.015272884078321402,
      0.4063606285600591,
      -0.6106827508134157,
      -0.028574237082092148,
      -0.02169345152076173,
      0.09471065384871123,
      0.009231920484684008,
      0.0013092406705211288,
      -0.3917898314164647,
      0.02144941325547595,
      -0.3617568422801169,
      0.008092397609770988,
      -0.03298739055777323,
      -0.5709409854336621,
      0.04120706421444342,
      0.5784134958328732,
      0.6002951485792999,
      -0.14733759596812776,
      -2.2298543066608216,
      -0.0031755793182920147,
      -0.01906447617108918,
      0.39103454389233694,
      -0.02246273161637036,
      -0.013670695558880572,
      0.05390271128819469,
      -0.01513085432955076,
      0.0005960272166612654,
      0.4068406723369807,
      0.022782603621812215,
      -0.14068683633128304,
      -0.054487013927164756,
      -0.023744990719891758,
      -0.39375797448163824,
      0.018063405418619446,
      0.31993482503619824,
      0.36546051456464873,
      -0.02336789242949903,
      -2.007245342520448,
      -0.014221263733766325,
      -0.1784596774203455,
      0.8952013265942419,
      0.004534314606575681,
      -0.016214015551857423,
      0.06904892431606438,
      -0.0005546462665472705,
      -0.0002548981267156464,
      -0.4656184109127405,
      0.02746859396247108,
      -0.06433606404915342,
      -0.06929327441005806,
      -0.019824520991863777,
      -0.23237829075232305,
      0.00785529027711463,
      0.09549823609420324
    ],
    "bias": 0,
    "kind": "rl_linear_q",
    "qWeights": [
      [
        0.665446793052065,
        -0.2273727248500469,
        -2.6538088127667727,
        -0.015272884078321402,
        0.4063606285600591,
        -0.6106827508134157,
        -0.028574237082092148,
        -0.02169345152076173,
        0.09471065384871123,
        0.009231920484684008,
        0.0013092406705211288,
        -0.3917898314164647,
        0.02144941325547595,
        -0.3617568422801169,
        0.008092397609770988,
        -0.03298739055777323,
        -0.5709409854336621,
        0.04120706421444342,
        0.5784134958328732
      ],
      [
        0.6002951485792999,
        -0.14733759596812776,
        -2.2298543066608216,
        -0.0031755793182920147,
        -0.01906447617108918,
        0.39103454389233694,
        -0.02246273161637036,
        -0.013670695558880572,
        0.05390271128819469,
        -0.01513085432955076,
        0.0005960272166612654,
        0.4068406723369807,
        0.022782603621812215,
        -0.14068683633128304,
        -0.054487013927164756,
        -0.023744990719891758,
        -0.39375797448163824,
        0.018063405418619446,
        0.31993482503619824
      ],
      [
        0.36546051456464873,
        -0.02336789242949903,
        -2.007245342520448,
        -0.014221263733766325,
        -0.1784596774203455,
        0.8952013265942419,
        0.004534314606575681,
        -0.016214015551857423,
        0.06904892431606438,
        -0.0005546462665472705,
        -0.0002548981267156464,
        -0.4656184109127405,
        0.02746859396247108,
        -0.06433606404915342,
        -0.06929327441005806,
        -0.019824520991863777,
        -0.23237829075232305,
        0.00785529027711463,
        0.09549823609420324
      ]
    ],
    "qBias": [
      0.18677794570315212,
      0.20926749807049766,
      0.2060438202364672
    ],
    "training": {
      "episodes": 4,
      "avgEpisodeReward": 2.618172251470983,
      "warmStartModelId": "104828e6-2d0b-4a3e-a2d0-d9d4d743f6e5",
      "pretrainEpisodes": 150,
      "replayEpisodes": 0
    },
    "metrics": {
      "accuracy": 0.7510204081632653,
      "f1": 50,
      "precision": 0.9988728328565083,
      "recall": 11.720497522805518
    },
    "evaluation": {
      "walkForwardSharpe": 11.48067688727238,
      "walkForwardProfitFactor": 11.161107129730667,
      "walkForwardMaxDrawdown": 0.0014242336710956198,
      "paperWindowProfitFactor": 50,
      "paperWindowSharpe": 19.14027500176641,
      "paperWindowNetPnl": 893.4579756949133,
      "paperWindowTrades": 60,
      "unseenProfitFactor": 0,
      "unseenSharpe": 0,
      "unseenNetPnl": 0,
      "unseenTrades": 0,
      "inSampleWinRate": 0.7510204081632653,
      "inSampleNetPnl": 2411.2450014927017
    }
  },
  "previousChampion": {
    "id": "6b56edd5-e061-4086-bb8e-a157a1721834",
    "createdAt": 1772161508607,
    "stage": "champion",
    "source": "rl_offline_q_learning",
    "featureNames": [
      "returns",
      "volatility",
      "atr_norm",
      "rsi_norm",
      "ema_spread",
      "macd_hist_norm",
      "bb_pos",
      "adx_norm",
      "mom_3",
      "mom_12",
      "volume_z",
      "flow_imbalance",
      "returns_autocorr",
      "ema34_dist",
      "hurst_proxy",
      "bb_squeeze",
      "cross_trend_mom3",
      "cross_trend_rsi",
      "cross_vol_bbpos"
    ],
    "weights": [
      0.49080948188015067,
      0.07660493996743839,
      -1.9670344074814998,
      0.021054873509907358,
      0.7075370287754691,
      -0.3638194198192676,
      -0.0021593131060434886,
      0.05381147669977395,
      -0.1107343032090268,
      -0.20355735972774353,
      0.0004363225363852847,
      -0.3917898314164647,
      0.08685164404557383,
      -0.3199057892035783,
      0.06463006585756514,
      0.04560321427092923,
      -0.3615296704013911,
      -0.001667629903438394,
      0.5338903043162716,
      0.5403427128150434,
      0.12251326633880305,
      -1.3893389771663014,
      0.022079397119186783,
      0.0398964067421949,
      0.40099362485363327,
      -0.003570916679746699,
      0.054006345138740974,
      -0.1596998357074683,
      -0.06670910614897085,
      0.0005474523691101546,
      0.4068406723369807,
      0.08268292067128175,
      -0.05577835193215483,
      0.06390059807648502,
      0.052839331814036015,
      -0.25521334664622475,
      -0.01745041422796615,
      0.23510251090864667,
      0.3102712602250965,
      0.25179943156600904,
      -1.4696847502021362,
      0.03184714254299347,
      0.101732236984524,
      0.5870273039107846,
      0.000590632318244297,
      0.05676793288804496,
      -0.004346581448018422,
      -0.030166218522129636,
      -0.000018697888030497482,
      -0.4656184109127405,
      0.08233459612533742,
      -0.15978623265913355,
      0.030920688378987905,
      0.05414133729110644,
      0.05190290615713432,
      -0.03171903019389917,
      0.029993180493591762
    ],
    "bias": 0,
    "kind": "rl_linear_q",
    "qWeights": [
      [
        0.49080948188015067,
        0.07660493996743839,
        -1.9670344074814998,
        0.021054873509907358,
        0.7075370287754691,
        -0.3638194198192676,
        -0.0021593131060434886,
        0.05381147669977395,
        -0.1107343032090268,
        -0.20355735972774353,
        0.0004363225363852847,
        -0.3917898314164647,
        0.08685164404557383,
        -0.3199057892035783,
        0.06463006585756514,
        0.04560321427092923,
        -0.3615296704013911,
        -0.001667629903438394,
        0.5338903043162716
      ],
      [
        0.5403427128150434,
        0.12251326633880305,
        -1.3893389771663014,
        0.022079397119186783,
        0.0398964067421949,
        0.40099362485363327,
        -0.003570916679746699,
        0.054006345138740974,
        -0.1596998357074683,
        -0.06670910614897085,
        0.0005474523691101546,
        0.4068406723369807,
        0.08268292067128175,
        -0.05577835193215483,
        0.06390059807648502,
        0.052839331814036015,
        -0.25521334664622475,
        -0.01745041422796615,
        0.23510251090864667
      ],
      [
        0.3102712602250965,
        0.25179943156600904,
        -1.4696847502021362,
        0.03184714254299347,
        0.101732236984524,
        0.5870273039107846,
        0.000590632318244297,
        0.05676793288804496,
        -0.004346581448018422,
        -0.030166218522129636,
        -0.000018697888030497482,
        -0.4656184109127405,
        0.08233459612533742,
        -0.15978623265913355,
        0.030920688378987905,
        0.05414133729110644,
        0.05190290615713432,
        -0.03171903019389917,
        0.029993180493591762
      ]
    ],
    "qBias": [
      -0.019082059900987564,
      -0.02362035766287565,
      -0.00972952205218692
    ],
    "training": {
      "episodes": 4,
      "avgEpisodeReward": 2.2340050172874824,
      "warmStartModelId": "94e029e1-7ba5-4902-83d1-4edcb91e88f4",
      "pretrainEpisodes": 150,
      "replayEpisodes": 0
    },
    "metrics": {
      "accuracy": 0.6666666666666666,
      "f1": 35.87434205378927,
      "precision": 0.9989767815621148,
      "recall": 8.665173678033174
    },
    "evaluation": {
      "walkForwardSharpe": 6.974035653310424,
      "walkForwardProfitFactor": 15.816548801516507,
      "walkForwardMaxDrawdown": 0.001336165310817042,
      "paperWindowProfitFactor": 50,
      "paperWindowSharpe": 27.552041200108906,
      "paperWindowNetPnl": 899.1054805878302,
      "paperWindowTrades": 53,
      "unseenProfitFactor": 0,
      "unseenSharpe": 0,
      "unseenNetPnl": 0,
      "unseenTrades": 0,
      "inSampleWinRate": 0.6666666666666666,
      "inSampleNetPnl": 1784.6225721112405
    }
  },
  "challengers": [
    {
      "id": "172b10c7-fb7a-4fb8-9df0-9aa51eacf3f6",
      "createdAt": 1772201222120,
      "stage": "challenger",
      "source": "rl_offline_q_learning",
      "featureNames": [
        "returns",
        "volatility",
        "atr_norm",
        "rsi_norm",
        "ema_spread",
        "macd_hist_norm",
        "bb_pos",
        "adx_norm",
        "mom_3",
        "mom_12",
        "volume_z",
        "flow_imbalance",
        "returns_autocorr",
        "ema34_dist",
        "hurst_proxy",
        "bb_squeeze",
        "cross_trend_mom3",
        "cross_trend_rsi",
        "cross_vol_bbpos"
      ],
      "weights": [
        0.8690499194822341,
        -0.3657980719686797,
        -2.371652939032779,
        -0.02483525712436599,
        0.09264451135029032,
        -0.8863986900413614,
        -0.007853998818306064,
        0.00473937513739104,
        0.02318549963209828,
        0.05731856928351011,
        0.0001840045007260499,
        -0.3917898314164647,
        0.007598255160472818,
        -0.24706589099340298,
        -0.005114814669560515,
        -0.00627706405467263,
        -0.5995621584345946,
        0.05840207422799256,
        0.5113339001110688,
        0.7467290864696425,
        -0.2778874720381866,
        -2.0537570857492238,
        -0.016936288666910625,
        -0.18708474989902515,
        0.1470942042888828,
        -0.006095656051630509,
        -0.0002897900582567022,
        0.02027692212679548,
        0.010549264342565296,
        0.00015136752501357988,
        0.4068406723369807,
        0.015359241506784927,
        -0.06723002939291621,
        -0.060209885624697035,
        -0.005895476685143829,
        -0.5140966410091864,
        0.04641367023797448,
        0.3054659427469588,
        0.497635472520129,
        -0.23137196522345563,
        -1.600848404130657,
        -0.014904401163188606,
        -0.39195937837387695,
        0.8863157961913738,
        -0.001874060326288193,
        0.005959567405395835,
        0.016358218082753985,
        0.010157978672484767,
        0.005290451062171388,
        -0.4656184109127405,
        0.010859056914615597,
        0.024235328031040677,
        -0.07272319495988938,
        0.00314961461795625,
        -0.25822933408254806,
        0.03660307991250432,
        0.05827395695208353
      ],
      "bias": 0,
      "kind": "rl_linear_q",
      "qWeights": [
        [
          0.8690499194822341,
          -0.3657980719686797,
          -2.371652939032779,
          -0.02483525712436599,
          0.09264451135029032,
          -0.8863986900413614,
          -0.007853998818306064,
          0.00473937513739104,
          0.02318549963209828,
          0.05731856928351011,
          0.0001840045007260499,
          -0.3917898314164647,
          0.007598255160472818,
          -0.24706589099340298,
          -0.005114814669560515,
          -0.00627706405467263,
          -0.5995621584345946,
          0.05840207422799256,
          0.5113339001110688
        ],
        [
          0.7467290864696425,
          -0.2778874720381866,
          -2.0537570857492238,
          -0.016936288666910625,
          -0.18708474989902515,
          0.1470942042888828,
          -0.006095656051630509,
          -0.0002897900582567022,
          0.02027692212679548,
          0.010549264342565296,
          0.00015136752501357988,
          0.4068406723369807,
          0.015359241506784927,
          -0.06723002939291621,
          -0.060209885624697035,
          -0.005895476685143829,
          -0.5140966410091864,
          0.04641367023797448,
          0.3054659427469588
        ],
        [
          0.497635472520129,
          -0.23137196522345563,
          -1.600848404130657,
          -0.014904401163188606,
          -0.39195937837387695,
          0.8863157961913738,
          -0.001874060326288193,
          0.005959567405395835,
          0.016358218082753985,
          0.010157978672484767,
          0.005290451062171388,
          -0.4656184109127405,
          0.010859056914615597,
          0.024235328031040677,
          -0.07272319495988938,
          0.00314961461795625,
          -0.25822933408254806,
          0.03660307991250432,
          0.05827395695208353
        ]
      ],
      "qBias": [
        0.1763422415809653,
        0.20520962327859932,
        0.19757792589727488
      ],
      "training": {
        "episodes": 4,
        "avgEpisodeReward": 2.5247839615851437,
        "warmStartModelId": "19b6766e-8131-46d5-b570-8b5e676550d6",
        "pretrainEpisodes": 151,
        "replayEpisodes": 0
      },
      "metrics": {
        "accuracy": 0.8214285714285714,
        "f1": 26.606635370630837,
        "precision": 0.9987717593245667,
        "recall": 10.760243400621032
      },
      "evaluation": {
        "walkForwardSharpe": -1.3262468549033355,
        "walkForwardProfitFactor": 0.675176055702042,
        "walkForwardMaxDrawdown": 0.013771908233428614,
        "paperWindowProfitFactor": 50,
        "paperWindowSharpe": 13.028230276028426,
        "paperWindowNetPnl": 761.4653123153694,
        "paperWindowTrades": 192,
        "unseenProfitFactor": 0,
        "unseenSharpe": 0,
        "unseenNetPnl": 0,
        "unseenTrades": 0,
        "inSampleWinRate": 0.8214285714285714,
        "inSampleNetPnl": 2157.572862863808
      }
    },
    {
      "id": "19b6766e-8131-46d5-b570-8b5e676550d6",
      "createdAt": 1772201151670,
      "stage": "challenger",
      "source": "rl_offline_q_learning",
      "featureNames": [
        "returns",
        "volatility",
        "atr_norm",
        "rsi_norm",
        "ema_spread",
        "macd_hist_norm",
        "bb_pos",
        "adx_norm",
        "mom_3",
        "mom_12",
        "volume_z",
        "flow_imbalance",
        "returns_autocorr",
        "ema34_dist",
        "hurst_proxy",
        "bb_squeeze",
        "cross_trend_mom3",
        "cross_trend_rsi",
        "cross_vol_bbpos"
      ],
      "weights": [
        0.8647444803096445,
        -0.3303723560977945,
        -2.358277899748229,
        -0.005416959105989912,
        0.09644882080546292,
        -0.88893044779375,
        -0.032939155611580805,
        -0.015585879881899696,
        0.020108848761692937,
        0.050812916628888385,
        -0.00113887494813771,
        -0.3917898314164647,
        0.019816593441315835,
        -0.2531914020504805,
        0.02137191450642693,
        -0.01714488601218162,
        -0.61661924105429,
        0.05374832929292981,
        0.5164732662275151,
        0.743239545787849,
        -0.25345338375404275,
        -2.0512655633096215,
        -0.005111367001665315,
        -0.19148459816001595,
        0.14788493530875363,
        -0.024029023068009695,
        -0.01409715512633959,
        0.022222154560230183,
        -0.003481797556076564,
        0.00034382795336606497,
        0.4068406723369807,
        0.026964446711922434,
        -0.08354871784288116,
        -0.04532264498419937,
        -0.014252975996863173,
        -0.5177271518568759,
        0.050348269178724966,
        0.31795790608431257,
        0.4945133198516551,
        -0.2130778517163786,
        -1.6012761899228165,
        0.00517234340596503,
        -0.3924173476322252,
        0.8801430313106796,
        -0.014081180621233468,
        -0.010908595706887474,
        0.014807928788862093,
        0.005403412064535078,
        0.0010551715894074713,
        -0.4656184109127405,
        0.02202235063970234,
        0.011460003542325216,
        -0.05724327773161914,
        -0.007531453040131674,
        -0.2651219319621101,
        0.021961615257632953,
        0.06679035882243266
      ],
      "bias": 0,
      "kind": "rl_linear_q",
      "qWeights": [
        [
          0.8647444803096445,
          -0.3303723560977945,
          -2.358277899748229,
          -0.005416959105989912,
          0.09644882080546292,
          -0.88893044779375,
          -0.032939155611580805,
          -0.015585879881899696,
          0.020108848761692937,
          0.050812916628888385,
          -0.00113887494813771,
          -0.3917898314164647,
          0.019816593441315835,
          -0.2531914020504805,
          0.02137191450642693,
          -0.01714488601218162,
          -0.61661924105429,
          0.05374832929292981,
          0.5164732662275151
        ],
        [
          0.743239545787849,
          -0.25345338375404275,
          -2.0512655633096215,
          -0.005111367001665315,
          -0.19148459816001595,
          0.14788493530875363,
          -0.024029023068009695,
          -0.01409715512633959,
          0.022222154560230183,
          -0.003481797556076564,
          0.00034382795336606497,
          0.4068406723369807,
          0.026964446711922434,
          -0.08354871784288116,
          -0.04532264498419937,
          -0.014252975996863173,
          -0.5177271518568759,
          0.050348269178724966,
          0.31795790608431257
        ],
        [
          0.4945133198516551,
          -0.2130778517163786,
          -1.6012761899228165,
          0.00517234340596503,
          -0.3924173476322252,
          0.8801430313106796,
          -0.014081180621233468,
          -0.010908595706887474,
          0.014807928788862093,
          0.005403412064535078,
          0.0010551715894074713,
          -0.4656184109127405,
          0.02202235063970234,
          0.011460003542325216,
          -0.05724327773161914,
          -0.007531453040131674,
          -0.2651219319621101,
          0.021961615257632953,
          0.06679035882243266
        ]
      ],
      "qBias": [
        0.1685848587407306,
        0.2035553433477567,
        0.19568638930055637
      ],
      "training": {
        "episodes": 4,
        "avgEpisodeReward": 2.715964333074391,
        "warmStartModelId": "680dc3bb-f8b3-4fe6-adad-d0e969f0dec8",
        "pretrainEpisodes": 150,
        "replayEpisodes": 0
      },
      "metrics": {
        "accuracy": 0.8,
        "f1": 50,
        "precision": 0.9983709496205659,
        "recall": 11.669379109089842
      },
      "evaluation": {
        "walkForwardSharpe": 2.6525516614634577,
        "walkForwardProfitFactor": 1.849232487095764,
        "walkForwardMaxDrawdown": 0.0014548648931582869,
        "paperWindowProfitFactor": 50,
        "paperWindowSharpe": 18.888783479549573,
        "paperWindowNetPnl": 884.6123863704051,
        "paperWindowTrades": 78,
        "unseenProfitFactor": 0,
        "unseenSharpe": 0,
        "unseenNetPnl": 0,
        "unseenTrades": 0,
        "inSampleWinRate": 0.8,
        "inSampleNetPnl": 2492.9828880200475
      }
    },
    {
      "id": "680dc3bb-f8b3-4fe6-adad-d0e969f0dec8",
      "createdAt": 1772201080380,
      "stage": "challenger",
      "source": "rl_offline_q_learning",
      "featureNames": [
        "returns",
        "volatility",
        "atr_norm",
        "rsi_norm",
        "ema_spread",
        "macd_hist_norm",
        "bb_pos",
        "adx_norm",
        "mom_3",
        "mom_12",
        "volume_z",
        "flow_imbalance",
        "returns_autocorr",
        "ema34_dist",
        "hurst_proxy",
        "bb_squeeze",
        "cross_trend_mom3",
        "cross_trend_rsi",
        "cross_vol_bbpos"
      ],
      "weights": [
        0.8589392129772041,
        -0.35158742295055945,
        -2.3667309042270412,
        -0.004273653059211014,
        0.09135917075776435,
        -0.8822056005238605,
        -0.029747276620026,
        -0.009191232966002652,
        0.029126582460325654,
        0.03834985713857331,
        -0.00009474934655410011,
        -0.3917898314164647,
        0.016429576561479173,
        -0.2740144147274062,
        0.02448816747310801,
        -0.019561043544538755,
        -0.620044968671567,
        0.05434114354492734,
        0.5141059771206355,
        0.7379520368030404,
        -0.26899127911792986,
        -2.0634301035699365,
        0.002828412021412931,
        -0.19667128808398787,
        0.1558474559473756,
        -0.023127084578564525,
        -0.011895624112313768,
        0.028996144295721324,
        -0.017890117063085218,
        0.0012009063089863617,
        0.4068406723369807,
        0.021166617121715144,
        -0.10336381388402414,
        -0.05992323314146218,
        -0.016017846985509582,
        -0.5155774086850988,
        0.044563638759481786,
        0.3096610698030115,
        0.4908816666584838,
        -0.24825230993410938,
        -1.6130886422556603,
        0.008850733203026269,
        -0.39689599481888616,
        0.8818321056067796,
        -0.022058780017496005,
        -0.003216963556527248,
        0.023299008537769964,
        -0.008726992504199166,
        0.0014239312153782645,
        -0.4656184109127405,
        0.015235072418737491,
        0.00010055061358905907,
        -0.0744366972222852,
        -0.00834946062099696,
        -0.26291266641964667,
        0.026111627752056128,
        0.0457489836161347
      ],
      "bias": 0,
      "kind": "rl_linear_q",
      "qWeights": [
        [
          0.8589392129772041,
          -0.35158742295055945,
          -2.3667309042270412,
          -0.004273653059211014,
          0.09135917075776435,
          -0.8822056005238605,
          -0.029747276620026,
          -0.009191232966002652,
          0.029126582460325654,
          0.03834985713857331,
          -0.00009474934655410011,
          -0.3917898314164647,
          0.016429576561479173,
          -0.2740144147274062,
          0.02448816747310801,
          -0.019561043544538755,
          -0.620044968671567,
          0.05434114354492734,
          0.5141059771206355
        ],
        [
          0.7379520368030404,
          -0.26899127911792986,
          -2.0634301035699365,
          0.002828412021412931,
          -0.19667128808398787,
          0.1558474559473756,
          -0.023127084578564525,
          -0.011895624112313768,
          0.028996144295721324,
          -0.017890117063085218,
          0.0012009063089863617,
          0.4068406723369807,
          0.021166617121715144,
          -0.10336381388402414,
          -0.05992323314146218,
          -0.016017846985509582,
          -0.5155774086850988,
          0.044563638759481786,
          0.3096610698030115
        ],
        [
          0.4908816666584838,
          -0.24825230993410938,
          -1.6130886422556603,
          0.008850733203026269,
          -0.39689599481888616,
          0.8818321056067796,
          -0.022058780017496005,
          -0.003216963556527248,
          0.023299008537769964,
          -0.008726992504199166,
          0.0014239312153782645,
          -0.4656184109127405,
          0.015235072418737491,
          0.00010055061358905907,
          -0.0744366972222852,
          -0.00834946062099696,
          -0.26291266641964667,
          0.026111627752056128,
          0.0457489836161347
        ]
      ],
      "qBias": [
        0.16911262192164842,
        0.2131891404893458,
        0.20754552369761536
      ],
      "training": {
        "episodes": 4,
        "avgEpisodeReward": 2.6210354431775786,
        "warmStartModelId": "0bc5f860-5e65-41bb-a849-a5539629a276",
        "pretrainEpisodes": 150,
        "replayEpisodes": 0
      },
      "metrics": {
        "accuracy": 0.773109243697479,
        "f1": 49.35179148240951,
        "precision": 0.9990297175293193,
        "recall": 11.285974073631227
      },
      "evaluation": {
        "walkForwardSharpe": 3.123204876807112,
        "walkForwardProfitFactor": 9.0389733270459,
        "walkForwardMaxDrawdown": 0.0005624547405278382,
        "paperWindowProfitFactor": 50,
        "paperWindowSharpe": 12.938881625282232,
        "paperWindowNetPnl": 829.91534825915,
        "paperWindowTrades": 63,
        "unseenProfitFactor": 0,
        "unseenSharpe": 0,
        "unseenNetPnl": 0,
        "unseenTrades": 0,
        "inSampleWinRate": 0.773109243697479,
        "inSampleNetPnl": 2383.2414515636738
      }
    },
    {
      "id": "0bc5f860-5e65-41bb-a849-a5539629a276",
      "createdAt": 1772201008707,
      "stage": "challenger",
      "source": "rl_offline_q_learning",
      "featureNames": [
        "returns",
        "volatility",
        "atr_norm",
        "rsi_norm",
        "ema_spread",
        "macd_hist_norm",
        "bb_pos",
        "adx_norm",
        "mom_3",
        "mom_12",
        "volume_z",
        "flow_imbalance",
        "returns_autocorr",
        "ema34_dist",
        "hurst_proxy",
        "bb_squeeze",
        "cross_trend_mom3",
        "cross_trend_rsi",
        "cross_vol_bbpos"
      ],
      "weights": [
        0.8520792228469665,
        -0.3368218484235006,
        -2.3707652780468966,
        0.0036260214846912104,
        0.07195878897205057,
        -0.8757705691687007,
        -0.03077590522634257,
        -0.011668720608224823,
        0.0586174300745556,
        0.01756143251456024,
        -0.0008698932016126438,
        -0.3917898314164647,
        0.018350887924265355,
        -0.3137869914139296,
        0.003905691524430441,
        -0.024006480464245687,
        -0.6006333187311543,
        0.05611888416969969,
        0.532104521050347,
        0.7298712483492493,
        -0.26953938222764623,
        -2.0743865962695534,
        0.0005622231427482675,
        -0.2133809105048808,
        0.1668656970526655,
        -0.015122176019699705,
        -0.0056960200983439575,
        0.0376692511426851,
        -0.023700336987570007,
        -0.0014141336204282083,
        0.4068406723369807,
        0.016421320088650562,
        -0.14871749392113687,
        -0.05989371077376768,
        -0.01850327528077541,
        -0.5020375921101521,
        0.04485073846947438,
        0.3169051958801027,
        0.48544025386990625,
        -0.2483445718098214,
        -1.621914979750455,
        0.0045917382439092345,
        -0.41206847745970737,
        0.8859033071688165,
        -0.009339932343161763,
        -0.0004989313847028095,
        0.035646653580529666,
        -0.014727738453597377,
        -0.00046614438341257544,
        -0.4656184109127405,
        0.013513570905663993,
        -0.03491761304551114,
        -0.06745568328739315,
        -0.006811847229036533,
        -0.2501165972361705,
        0.023510524560358497,
        0.054811768597630706
      ],
      "bias": 0,
      "kind": "rl_linear_q",
      "qWeights": [
        [
          0.8520792228469665,
          -0.3368218484235006,
          -2.3707652780468966,
          0.0036260214846912104,
          0.07195878897205057,
          -0.8757705691687007,
          -0.03077590522634257,
          -0.011668720608224823,
          0.0586174300745556,
          0.01756143251456024,
          -0.0008698932016126438,
          -0.3917898314164647,
          0.018350887924265355,
          -0.3137869914139296,
          0.003905691524430441,
          -0.024006480464245687,
          -0.6006333187311543,
          0.05611888416969969,
          0.532104521050347
        ],
        [
          0.7298712483492493,
          -0.26953938222764623,
          -2.0743865962695534,
          0.0005622231427482675,
          -0.2133809105048808,
          0.1668656970526655,
          -0.015122176019699705,
          -0.0056960200983439575,
          0.0376692511426851,
          -0.023700336987570007,
          -0.0014141336204282083,
          0.4068406723369807,
          0.016421320088650562,
          -0.14871749392113687,
          -0.05989371077376768,
          -0.01850327528077541,
          -0.5020375921101521,
          0.04485073846947438,
          0.3169051958801027
        ],
        [
          0.48544025386990625,
          -0.2483445718098214,
          -1.621914979750455,
          0.0045917382439092345,
          -0.41206847745970737,
          0.8859033071688165,
          -0.009339932343161763,
          -0.0004989313847028095,
          0.035646653580529666,
          -0.014727738453597377,
          -0.00046614438341257544,
          -0.4656184109127405,
          0.013513570905663993,
          -0.03491761304551114,
          -0.06745568328739315,
          -0.006811847229036533,
          -0.2501165972361705,
          0.023510524560358497,
          0.054811768597630706
        ]
      ],
      "qBias": [
        0.1798133609943042,
        0.20942399075761245,
        0.2012844194284899
      ],
      "training": {
        "episodes": 4,
        "avgEpisodeReward": 2.2854052818198216,
        "warmStartModelId": "5bdeed71-09d2-419f-a6b8-286fb0f000c4",
        "pretrainEpisodes": 150,
        "replayEpisodes": 0
      },
      "metrics": {
        "accuracy": 0.8693467336683417,
        "f1": 50,
        "precision": 0.9986154941968507,
        "recall": 12.187468846791198
      },
      "evaluation": {
        "walkForwardSharpe": 4.240269619979415,
        "walkForwardProfitFactor": 2.2014336608528136,
        "walkForwardMaxDrawdown": 0.0019346835534516048,
        "paperWindowProfitFactor": 50,
        "paperWindowSharpe": 14.69407685401047,
        "paperWindowNetPnl": 900.7150998590678,
        "paperWindowTrades": 63,
        "unseenProfitFactor": 0,
        "unseenSharpe": 0,
        "unseenNetPnl": 0,
        "unseenTrades": 0,
        "inSampleWinRate": 0.8693467336683417,
        "inSampleNetPnl": 2644.3268791657774
      }
    },
    {
      "id": "5bdeed71-09d2-419f-a6b8-286fb0f000c4",
      "createdAt": 1772200923529,
      "stage": "challenger",
      "source": "rl_offline_q_learning",
      "featureNames": [
        "returns",
        "volatility",
        "atr_norm",
        "rsi_norm",
        "ema_spread",
        "macd_hist_norm",
        "bb_pos",
        "adx_norm",
        "mom_3",
        "mom_12",
        "volume_z",
        "flow_imbalance",
        "returns_autocorr",
        "ema34_dist",
        "hurst_proxy",
        "bb_squeeze",
        "cross_trend_mom3",
        "cross_trend_rsi",
        "cross_vol_bbpos"
      ],
      "weights": [
        0.8503321024737732,
        -0.3798591311127119,
        -2.3983835696463363,
        -0.02068779230420884,
        0.0883110676440994,
        -0.8736486684586944,
        -0.0006068472375376862,
        -0.002636240391301633,
        0.058514170093661444,
        0.030844341670117233,
        0.0020182085275130264,
        -0.3917898314164647,
        0.015602306399459634,
        -0.30062897557463253,
        0.00023828042497515384,
        -0.013637755864773246,
        -0.6072209839399889,
        0.06586546662384193,
        0.534114167450422,
        0.7308904120189728,
        -0.29293019423530486,
        -2.094894528407426,
        -0.014956386402178879,
        -0.19278255875091033,
        0.1686483766424911,
        0.00441279905516868,
        -0.0010816632632781541,
        0.04324026406600957,
        -0.012654523643788274,
        0.0007854733401330453,
        0.4068406723369807,
        0.018537570856494857,
        -0.11306721329451157,
        -0.06092173809765576,
        -0.00964679868519602,
        -0.5094935387234115,
        0.05519395110046374,
        0.31576776101699133,
        0.48474052669364565,
        -0.2819786890099443,
        -1.655955887928068,
        -0.009053882538776453,
        -0.4047680715962557,
        0.8840792790644455,
        0.009345970381344212,
        0.00956326078389678,
        0.041711540506906446,
        -0.00020309529601179763,
        -0.001065431291551975,
        -0.4656184109127405,
        0.010164779782622965,
        -0.03477907382257148,
        -0.08354215795686908,
        -0.0009940219802283185,
        -0.25364433352251314,
        0.04017422922105973,
        0.05137757287050821
      ],
      "bias": 0,
      "kind": "rl_linear_q",
      "qWeights": [
        [
          0.8503321024737732,
          -0.3798591311127119,
          -2.3983835696463363,
          -0.02068779230420884,
          0.0883110676440994,
          -0.8736486684586944,
          -0.0006068472375376862,
          -0.002636240391301633,
          0.058514170093661444,
          0.030844341670117233,
          0.0020182085275130264,
          -0.3917898314164647,
          0.015602306399459634,
          -0.30062897557463253,
          0.00023828042497515384,
          -0.013637755864773246,
          -0.6072209839399889,
          0.06586546662384193,
          0.534114167450422
        ],
        [
          0.7308904120189728,
          -0.29293019423530486,
          -2.094894528407426,
          -0.014956386402178879,
          -0.19278255875091033,
          0.1686483766424911,
          0.00441279905516868,
          -0.0010816632632781541,
          0.04324026406600957,
          -0.012654523643788274,
          0.0007854733401330453,
          0.4068406723369807,
          0.018537570856494857,
          -0.11306721329451157,
          -0.06092173809765576,
          -0.00964679868519602,
          -0.5094935387234115,
          0.05519395110046374,
          0.31576776101699133
        ],
        [
          0.48474052669364565,
          -0.2819786890099443,
          -1.655955887928068,
          -0.009053882538776453,
          -0.4047680715962557,
          0.8840792790644455,
          0.009345970381344212,
          0.00956326078389678,
          0.041711540506906446,
          -0.00020309529601179763,
          -0.001065431291551975,
          -0.4656184109127405,
          0.010164779782622965,
          -0.03477907382257148,
          -0.08354215795686908,
          -0.0009940219802283185,
          -0.25364433352251314,
          0.04017422922105973,
          0.05137757287050821
        ]
      ],
      "qBias": [
        0.17205748060194995,
        0.20258315143837963,
        0.20752007979414278
      ],
      "training": {
        "episodes": 4,
        "avgEpisodeReward": 2.357206899375199,
        "warmStartModelId": "4624141a-b0fd-4c84-918b-36e0dd717327",
        "pretrainEpisodes": 150,
        "replayEpisodes": 0
      },
      "metrics": {
        "accuracy": 0.6325,
        "f1": 18.23947805083175,
        "precision": 0.9985177708412715,
        "recall": 10.565676985294427
      },
      "evaluation": {
        "walkForwardSharpe": 0.8873910434752343,
        "walkForwardProfitFactor": 1.367832811880026,
        "walkForwardMaxDrawdown": 0.001946801441862683,
        "paperWindowProfitFactor": 18.148173283040794,
        "paperWindowSharpe": 12.82098396154167,
        "paperWindowNetPnl": 830.2985774443441,
        "paperWindowTrades": 111,
        "unseenProfitFactor": 0,
        "unseenSharpe": 0,
        "unseenNetPnl": 0,
        "unseenTrades": 0,
        "inSampleWinRate": 0.6325,
        "inSampleNetPnl": 2379.4296904626535
      }
    },
    {
      "id": "4624141a-b0fd-4c84-918b-36e0dd717327",
      "createdAt": 1772200848962,
      "stage": "challenger",
      "source": "rl_offline_q_learning",
      "featureNames": [
        "returns",
        "volatility",
        "atr_norm",
        "rsi_norm",
        "ema_spread",
        "macd_hist_norm",
        "bb_pos",
        "adx_norm",
        "mom_3",
        "mom_12",
        "volume_z",
        "flow_imbalance",
        "returns_autocorr",
        "ema34_dist",
        "hurst_proxy",
        "bb_squeeze",
        "cross_trend_mom3",
        "cross_trend_rsi",
        "cross_vol_bbpos"
      ],
      "weights": [
        0.8585362173724711,
        -0.3783313560180896,
        -2.3962918951233867,
        -0.029927129098145152,
        0.1262382149014442,
        -0.8838732121835381,
        -0.004992438674423871,
        -0.008849489797511826,
        0.0565399739702418,
        0.03658758906354242,
        0.00147110602405071,
        -0.3917898314164647,
        0.018278731249164886,
        -0.2196922390594873,
        -0.010112547830700942,
        -0.01159978335755538,
        -0.6286742969843172,
        0.06852091366141197,
        0.5436301845023864,
        0.7371782293328858,
        -0.28811359711335627,
        -2.0904584022970343,
        -0.029354191816449163,
        -0.15269405058680913,
        0.15879930560011304,
        0.01146343556652822,
        -0.0031428684743825207,
        0.019894806970997318,
        -0.02422988999245645,
        0.0003277039981484189,
        0.4068406723369807,
        0.024741477008923828,
        -0.04223086006236209,
        -0.07664382151819711,
        -0.004119048336034865,
        -0.5327181386179998,
        0.059215230695144894,
        0.32316951217523937,
        0.49119545768990347,
        -0.28358993413683303,
        -1.6572910090402009,
        -0.026808049488306788,
        -0.37454784078044684,
        0.8707331106245114,
        0.01957444515693161,
        0.001920900982127126,
        0.052643328731843485,
        0.010458387449975974,
        -0.00013815748180830533,
        -0.4656184109127405,
        0.021683286016795783,
        0.0372459333731326,
        -0.08725316278018662,
        0.006750110722166145,
        -0.27273143368240227,
        0.03984660349194859,
        0.0667319076224591
      ],
      "bias": 0,
      "kind": "rl_linear_q",
      "qWeights": [
        [
          0.8585362173724711,
          -0.3783313560180896,
          -2.3962918951233867,
          -0.029927129098145152,
          0.1262382149014442,
          -0.8838732121835381,
          -0.004992438674423871,
          -0.008849489797511826,
          0.0565399739702418,
          0.03658758906354242,
          0.00147110602405071,
          -0.3917898314164647,
          0.018278731249164886,
          -0.2196922390594873,
          -0.010112547830700942,
          -0.01159978335755538,
          -0.6286742969843172,
          0.06852091366141197,
          0.5436301845023864
        ],
        [
          0.7371782293328858,
          -0.28811359711335627,
          -2.0904584022970343,
          -0.029354191816449163,
          -0.15269405058680913,
          0.15879930560011304,
          0.01146343556652822,
          -0.0031428684743825207,
          0.019894806970997318,
          -0.02422988999245645,
          0.0003277039981484189,
          0.4068406723369807,
          0.024741477008923828,
          -0.04223086006236209,
          -0.07664382151819711,
          -0.004119048336034865,
          -0.5327181386179998,
          0.059215230695144894,
          0.32316951217523937
        ],
        [
          0.49119545768990347,
          -0.28358993413683303,
          -1.6572910090402009,
          -0.026808049488306788,
          -0.37454784078044684,
          0.8707331106245114,
          0.01957444515693161,
          0.001920900982127126,
          0.052643328731843485,
          0.010458387449975974,
          -0.00013815748180830533,
          -0.4656184109127405,
          0.021683286016795783,
          0.0372459333731326,
          -0.08725316278018662,
          0.006750110722166145,
          -0.27273143368240227,
          0.03984660349194859,
          0.0667319076224591
        ]
      ],
      "qBias": [
        0.18616669579412826,
        0.21436891670525193,
        0.20956999125541567
      ],
      "training": {
        "episodes": 4,
        "avgEpisodeReward": 2.3331169934279137,
        "warmStartModelId": "120c4305-9dfa-4262-858c-530f02b190cf",
        "pretrainEpisodes": 150,
        "replayEpisodes": 0
      },
      "metrics": {
        "accuracy": 0.8943089430894309,
        "f1": 50,
        "precision": 0.9987929979791986,
        "recall": 11.150109832027548
      },
      "evaluation": {
        "walkForwardSharpe": 7.380288011953113,
        "walkForwardProfitFactor": 4.950948622718128,
        "walkForwardMaxDrawdown": 0.0012072317855286662,
        "paperWindowProfitFactor": 50,
        "paperWindowSharpe": 16.56154648431153,
        "paperWindowNetPnl": 811.1333767044689,
        "paperWindowTrades": 71,
        "unseenProfitFactor": 0,
        "unseenSharpe": 0,
        "unseenNetPnl": 0,
        "unseenTrades": 0,
        "inSampleWinRate": 0.8943089430894309,
        "inSampleNetPnl": 2329.0400493376783
      }
    },
    {
      "id": "120c4305-9dfa-4262-858c-530f02b190cf",
      "createdAt": 1772200778184,
      "stage": "challenger",
      "source": "rl_offline_q_learning",
      "featureNames": [
        "returns",
        "volatility",
        "atr_norm",
        "rsi_norm",
        "ema_spread",
        "macd_hist_norm",
        "bb_pos",
        "adx_norm",
        "mom_3",
        "mom_12",
        "volume_z",
        "flow_imbalance",
        "returns_autocorr",
        "ema34_dist",
        "hurst_proxy",
        "bb_squeeze",
        "cross_trend_mom3",
        "cross_trend_rsi",
        "cross_vol_bbpos"
      ],
      "weights": [
        0.8660041343611066,
        -0.3440062663971835,
        -2.376608076670765,
        -0.04679955441192374,
        0.1809060211346886,
        -0.8993484547113518,
        0.0013334618187230316,
        -0.017669813503238353,
        0.006024185525193541,
        0.05188138614275863,
        -0.0005132365961306214,
        -0.3917898314164647,
        0.02522394789548013,
        -0.12819847576123355,
        0.008045451919603734,
        -0.013278759648451596,
        -0.660677314709323,
        0.07500834797593772,
        0.5703881877073271,
        0.7434713695468629,
        -0.25598934211408686,
        -2.077860866359408,
        -0.04353049900192154,
        -0.09922487171386762,
        0.15116040574285305,
        0.00937014429276256,
        -0.018698220592109,
        -0.005505000478768474,
        -0.0001377472279550018,
        -0.0007932935317395782,
        0.4068406723369807,
        0.02630864089559572,
        0.05448083126929067,
        -0.042228587196536146,
        -0.011745415408583565,
        -0.5511019045362745,
        0.05986244554317387,
        0.34094419145021876,
        0.4998294708441138,
        -0.232376731121357,
        -1.64531700323431,
        -0.03759652491038119,
        -0.3219335952934022,
        0.8481190098765017,
        0.015068611441231727,
        -0.009954060703588645,
        0.012498988769747468,
        0.010148133437585463,
        -0.0007322410037599144,
        -0.4656184109127405,
        0.02199206259034962,
        0.1264828077637397,
        -0.06311616819057071,
        0.0017494533029193062,
        -0.30045184791072815,
        0.04351128982879261,
        0.10205636701651091
      ],
      "bias": 0,
      "kind": "rl_linear_q",
      "qWeights": [
        [
          0.8660041343611066,
          -0.3440062663971835,
          -2.376608076670765,
          -0.04679955441192374,
          0.1809060211346886,
          -0.8993484547113518,
          0.0013334618187230316,
          -0.017669813503238353,
          0.006024185525193541,
          0.05188138614275863,
          -0.0005132365961306214,
          -0.3917898314164647,
          0.02522394789548013,
          -0.12819847576123355,
          0.008045451919603734,
          -0.013278759648451596,
          -0.660677314709323,
          0.07500834797593772,
          0.5703881877073271
        ],
        [
          0.7434713695468629,
          -0.25598934211408686,
          -2.077860866359408,
          -0.04353049900192154,
          -0.09922487171386762,
          0.15116040574285305,
          0.00937014429276256,
          -0.018698220592109,
          -0.005505000478768474,
          -0.0001377472279550018,
          -0.0007932935317395782,
          0.4068406723369807,
          0.02630864089559572,
          0.05448083126929067,
          -0.042228587196536146,
          -0.011745415408583565,
          -0.5511019045362745,
          0.05986244554317387,
          0.34094419145021876
        ],
        [
          0.4998294708441138,
          -0.232376731121357,
          -1.64531700323431,
          -0.03759652491038119,
          -0.3219335952934022,
          0.8481190098765017,
          0.015068611441231727,
          -0.009954060703588645,
          0.012498988769747468,
          0.010148133437585463,
          -0.0007322410037599144,
          -0.4656184109127405,
          0.02199206259034962,
          0.1264828077637397,
          -0.06311616819057071,
          0.0017494533029193062,
          -0.30045184791072815,
          0.04351128982879261,
          0.10205636701651091
        ]
      ],
      "qBias": [
        0.1838500979727948,
        0.20801261637492002,
        0.2038276708823181
      ],
      "training": {
        "episodes": 4,
        "avgEpisodeReward": 2.571089042204587,
        "warmStartModelId": "5d449e3a-62f4-434c-9677-2dec2a53e567",
        "pretrainEpisodes": 150,
        "replayEpisodes": 0
      },
      "metrics": {
        "accuracy": 0.8994708994708994,
        "f1": 50,
        "precision": 0.9981907516804019,
        "recall": 12.011638083768174
      },
      "evaluation": {
        "walkForwardSharpe": 3.792588201633952,
        "walkForwardProfitFactor": 5.786667979750193,
        "walkForwardMaxDrawdown": 0.0009692729238798726,
        "paperWindowProfitFactor": 50,
        "paperWindowSharpe": 14.415457240530047,
        "paperWindowNetPnl": 891.1823527353135,
        "paperWindowTrades": 54,
        "unseenProfitFactor": 0,
        "unseenSharpe": 0,
        "unseenNetPnl": 0,
        "unseenTrades": 0,
        "inSampleWinRate": 0.8994708994708994,
        "inSampleNetPnl": 2618.4347348046504
      }
    },
    {
      "id": "5d449e3a-62f4-434c-9677-2dec2a53e567",
      "createdAt": 1772200704682,
      "stage": "challenger",
      "source": "rl_offline_q_learning",
      "featureNames": [
        "returns",
        "volatility",
        "atr_norm",
        "rsi_norm",
        "ema_spread",
        "macd_hist_norm",
        "bb_pos",
        "adx_norm",
        "mom_3",
        "mom_12",
        "volume_z",
        "flow_imbalance",
        "returns_autocorr",
        "ema34_dist",
        "hurst_proxy",
        "bb_squeeze",
        "cross_trend_mom3",
        "cross_trend_rsi",
        "cross_vol_bbpos"
      ],
      "weights": [
        0.869242293077361,
        -0.3567515568739452,
        -2.393219780527908,
        -0.008165599731377914,
        0.20147125546632697,
        -0.9089148411315326,
        -0.048007867568867824,
        -0.018630340347573323,
        -0.040228367267068625,
        -0.009839495457900544,
        0.00162936714771826,
        -0.3917898314164647,
        0.017909749123147033,
        -0.10367845610890421,
        0.04983891743466826,
        -0.022307358060710783,
        -0.6885481220399849,
        0.06377185821818018,
        0.5561322041992989,
        0.7450517963095828,
        -0.25907573310146215,
        -2.08014411052342,
        0.009264770750644889,
        -0.09180181569945157,
        0.1450499240126778,
        -0.04156935709226975,
        -0.01578595898630026,
        -0.02919482673753344,
        -0.040907209143805155,
        0.00021493694810458423,
        0.4068406723369807,
        0.018951899754677915,
        0.06482324769849614,
        -0.03220836119794433,
        -0.020865791593627024,
        -0.5671009098886354,
        0.04236696207258895,
        0.3313590017284527,
        0.5038861796557323,
        -0.21613885084273646,
        -1.6330383999537363,
        0.013505795425575845,
        -0.29935134341324143,
        0.8347316952032277,
        -0.040040273335854595,
        -0.01572254884320171,
        -0.03388050461537577,
        -0.027516803920371823,
        0.0006123059357805595,
        -0.4656184109127405,
        0.026704481091804157,
        0.16899046792032163,
        -0.03657580594182716,
        -0.010786960097742033,
        -0.3232764952972161,
        0.019383747347857125,
        0.1006070080564153
      ],
      "bias": 0,
      "kind": "rl_linear_q",
      "qWeights": [
        [
          0.869242293077361,
          -0.3567515568739452,
          -2.393219780527908,
          -0.008165599731377914,
          0.20147125546632697,
          -0.9089148411315326,
          -0.048007867568867824,
          -0.018630340347573323,
          -0.040228367267068625,
          -0.009839495457900544,
          0.00162936714771826,
          -0.3917898314164647,
          0.017909749123147033,
          -0.10367845610890421,
          0.04983891743466826,
          -0.022307358060710783,
          -0.6885481220399849,
          0.06377185821818018,
          0.5561322041992989
        ],
        [
          0.7450517963095828,
          -0.25907573310146215,
          -2.08014411052342,
          0.009264770750644889,
          -0.09180181569945157,
          0.1450499240126778,
          -0.04156935709226975,
          -0.01578595898630026,
          -0.02919482673753344,
          -0.040907209143805155,
          0.00021493694810458423,
          0.4068406723369807,
          0.018951899754677915,
          0.06482324769849614,
          -0.03220836119794433,
          -0.020865791593627024,
          -0.5671009098886354,
          0.04236696207258895,
          0.3313590017284527
        ],
        [
          0.5038861796557323,
          -0.21613885084273646,
          -1.6330383999537363,
          0.013505795425575845,
          -0.29935134341324143,
          0.8347316952032277,
          -0.040040273335854595,
          -0.01572254884320171,
          -0.03388050461537577,
          -0.027516803920371823,
          0.0006123059357805595,
          -0.4656184109127405,
          0.026704481091804157,
          0.16899046792032163,
          -0.03657580594182716,
          -0.010786960097742033,
          -0.3232764952972161,
          0.019383747347857125,
          0.1006070080564153
        ]
      ],
      "qBias": [
        0.1712136160858275,
        0.21024979167852753,
        0.1990173739980424
      ],
      "training": {
        "episodes": 4,
        "avgEpisodeReward": 2.496015926273667,
        "warmStartModelId": "5feeb4d9-03e1-4893-b55f-deeed906b6e3",
        "pretrainEpisodes": 150,
        "replayEpisodes": 0
      },
      "metrics": {
        "accuracy": 0.8393782383419689,
        "f1": 50,
        "precision": 0.9990311659144444,
        "recall": 11.926920515871872
      },
      "evaluation": {
        "walkForwardSharpe": 3.9282375834568053,
        "walkForwardProfitFactor": 6.2436449550821385,
        "walkForwardMaxDrawdown": 0.0013492537501082864,
        "paperWindowProfitFactor": 50,
        "paperWindowSharpe": 13.527372692962665,
        "paperWindowNetPnl": 851.8911166087819,
        "paperWindowTrades": 60,
        "unseenProfitFactor": 0,
        "unseenSharpe": 0,
        "unseenNetPnl": 0,
        "unseenTrades": 0,
        "inSampleWinRate": 0.8393782383419689,
        "inSampleNetPnl": 2380.2990553987092
      }
    },
    {
      "id": "5feeb4d9-03e1-4893-b55f-deeed906b6e3",
      "createdAt": 1772200630001,
      "stage": "challenger",
      "source": "rl_offline_q_learning",
      "featureNames": [
        "returns",
        "volatility",
        "atr_norm",
        "rsi_norm",
        "ema_spread",
        "macd_hist_norm",
        "bb_pos",
        "adx_norm",
        "mom_3",
        "mom_12",
        "volume_z",
        "flow_imbalance",
        "returns_autocorr",
        "ema34_dist",
        "hurst_proxy",
        "bb_squeeze",
        "cross_trend_mom3",
        "cross_trend_rsi",
        "cross_vol_bbpos"
      ],
      "weights": [
        0.8520923094989732,
        -0.36098020732774605,
        -2.410679816777151,
        0.01082292624664087,
        0.1705679476196207,
        -0.8820104138557585,
        -0.048443847664697816,
        -0.02290036785434041,
        -0.009418962726263719,
        0.0068753317190542555,
        -0.00012713534333489804,
        -0.3917898314164647,
        0.01748002995333131,
        -0.17925099544074116,
        0.039852976267667144,
        -0.025443184373807364,
        -0.6512010680898609,
        0.03904947088407316,
        0.5327157259484725,
        0.7315758699612328,
        -0.26796046279153446,
        -2.0966767050686017,
        0.022001099088598135,
        -0.12228502872122668,
        0.16588107203086935,
        -0.040846501309167164,
        -0.018518041528120085,
        -0.008752976725980832,
        -0.03280801898457087,
        0.0008943634148028578,
        0.4068406723369807,
        0.028366868482745864,
        -0.009028009066538,
        -0.03769645962709502,
        -0.022789038453413207,
        -0.5395493816972613,
        0.015486021006565013,
        0.31803584245315164,
        0.49050592179956654,
        -0.22908271355210919,
        -1.6490294207543412,
        0.021501968884541433,
        -0.33419247668635843,
        0.8527081271397999,
        -0.03202359653420471,
        -0.011225355650122695,
        -0.00977264476380372,
        -0.02761368915524667,
        -0.0009267468694162993,
        -0.4656184109127405,
        0.012335768417530374,
        0.099484601005091,
        -0.05466874372659785,
        -0.013020830228998113,
        -0.2959407721834325,
        0.004771214099610281,
        0.07910640073957503
      ],
      "bias": 0,
      "kind": "rl_linear_q",
      "qWeights": [
        [
          0.8520923094989732,
          -0.36098020732774605,
          -2.410679816777151,
          0.01082292624664087,
          0.1705679476196207,
          -0.8820104138557585,
          -0.048443847664697816,
          -0.02290036785434041,
          -0.009418962726263719,
          0.0068753317190542555,
          -0.00012713534333489804,
          -0.3917898314164647,
          0.01748002995333131,
          -0.17925099544074116,
          0.039852976267667144,
          -0.025443184373807364,
          -0.6512010680898609,
          0.03904947088407316,
          0.5327157259484725
        ],
        [
          0.7315758699612328,
          -0.26796046279153446,
          -2.0966767050686017,
          0.022001099088598135,
          -0.12228502872122668,
          0.16588107203086935,
          -0.040846501309167164,
          -0.018518041528120085,
          -0.008752976725980832,
          -0.03280801898457087,
          0.0008943634148028578,
          0.4068406723369807,
          0.028366868482745864,
          -0.009028009066538,
          -0.03769645962709502,
          -0.022789038453413207,
          -0.5395493816972613,
          0.015486021006565013,
          0.31803584245315164
        ],
        [
          0.49050592179956654,
          -0.22908271355210919,
          -1.6490294207543412,
          0.021501968884541433,
          -0.33419247668635843,
          0.8527081271397999,
          -0.03202359653420471,
          -0.011225355650122695,
          -0.00977264476380372,
          -0.02761368915524667,
          -0.0009267468694162993,
          -0.4656184109127405,
          0.012335768417530374,
          0.099484601005091,
          -0.05466874372659785,
          -0.013020830228998113,
          -0.2959407721834325,
          0.004771214099610281,
          0.07910640073957503
        ]
      ],
      "qBias": [
        0.1789120972495284,
        0.2080063014148317,
        0.2075107645819072
      ],
      "training": {
        "episodes": 4,
        "avgEpisodeReward": 2.5913913758186746,
        "warmStartModelId": "1b22f8c5-18c4-486d-939f-6301991477d2",
        "pretrainEpisodes": 150,
        "replayEpisodes": 0
      },
      "metrics": {
        "accuracy": 0.8955223880597015,
        "f1": 33.60215777843764,
        "precision": 0.9973452780997494,
        "recall": 10.838023957628439
      },
      "evaluation": {
        "walkForwardSharpe": -1.6156607939638876,
        "walkForwardProfitFactor": 0.7175263883924373,
        "walkForwardMaxDrawdown": 0.018114559609083626,
        "paperWindowProfitFactor": 50,
        "paperWindowSharpe": 18.330173025963667,
        "paperWindowNetPnl": 791.5106081354934,
        "paperWindowTrades": 107,
        "unseenProfitFactor": 0,
        "unseenSharpe": 0,
        "unseenNetPnl": 0,
        "unseenTrades": 0,
        "inSampleWinRate": 0.8955223880597015,
        "inSampleNetPnl": 2215.9697350295937
      }
    },
    {
      "id": "1b22f8c5-18c4-486d-939f-6301991477d2",
      "createdAt": 1772200553490,
      "stage": "challenger",
      "source": "rl_offline_q_learning",
      "featureNames": [
        "returns",
        "volatility",
        "atr_norm",
        "rsi_norm",
        "ema_spread",
        "macd_hist_norm",
        "bb_pos",
        "adx_norm",
        "mom_3",
        "mom_12",
        "volume_z",
        "flow_imbalance",
        "returns_autocorr",
        "ema34_dist",
        "hurst_proxy",
        "bb_squeeze",
        "cross_trend_mom3",
        "cross_trend_rsi",
        "cross_vol_bbpos"
      ],
      "weights": [
        0.8396013202440978,
        -0.3635598756843514,
        -2.416580415111897,
        0.004529582659379858,
        0.1512493076270282,
        -0.865107706381173,
        -0.033507604453561025,
        -0.022858542020139275,
        -0.003581311081226797,
        -0.004019354515338797,
        -0.0024712447037027745,
        -0.3917898314164647,
        0.01751148555263285,
        -0.2366962051757979,
        0.023325542253127222,
        -0.025780117805124046,
        -0.6238321892605783,
        0.04391055978803766,
        0.5148755368759617,
        0.720194180389128,
        -0.27613822777272623,
        -2.1053432557241973,
        0.016575914545769926,
        -0.15501480889501898,
        0.18240152113138808,
        -0.03582458674713839,
        -0.014976320675086944,
        0.013965200273016232,
        -0.040808209558617824,
        0.00028314413105756897,
        0.4068406723369807,
        0.02165594241289678,
        -0.08200126665200423,
        -0.04901204622667026,
        -0.02086753844749183,
        -0.5161393875648838,
        0.030015962620041612,
        0.3099271515765933,
        0.47727087227149223,
        -0.23805339941483633,
        -1.6562024834301539,
        0.01907070739500386,
        -0.36749036009079905,
        0.8699872302658611,
        -0.023462571689211717,
        -0.00964346713061589,
        -0.00040515383366199095,
        -0.024222412327165776,
        -0.001056194620861355,
        -0.4656184109127405,
        0.014968438683541094,
        0.024333578641566486,
        -0.058615760491533685,
        -0.011965249211602429,
        -0.26400356038262357,
        0.00944094083370998,
        0.057533888985393675
      ],
      "bias": 0,
      "kind": "rl_linear_q",
      "qWeights": [
        [
          0.8396013202440978,
          -0.3635598756843514,
          -2.416580415111897,
          0.004529582659379858,
          0.1512493076270282,
          -0.865107706381173,
          -0.033507604453561025,
          -0.022858542020139275,
          -0.003581311081226797,
          -0.004019354515338797,
          -0.0024712447037027745,
          -0.3917898314164647,
          0.01751148555263285,
          -0.2366962051757979,
          0.023325542253127222,
          -0.025780117805124046,
          -0.6238321892605783,
          0.04391055978803766,
          0.5148755368759617
        ],
        [
          0.720194180389128,
          -0.27613822777272623,
          -2.1053432557241973,
          0.016575914545769926,
          -0.15501480889501898,
          0.18240152113138808,
          -0.03582458674713839,
          -0.014976320675086944,
          0.013965200273016232,
          -0.040808209558617824,
          0.00028314413105756897,
          0.4068406723369807,
          0.02165594241289678,
          -0.08200126665200423,
          -0.04901204622667026,
          -0.02086753844749183,
          -0.5161393875648838,
          0.030015962620041612,
          0.3099271515765933
        ],
        [
          0.47727087227149223,
          -0.23805339941483633,
          -1.6562024834301539,
          0.01907070739500386,
          -0.36749036009079905,
          0.8699872302658611,
          -0.023462571689211717,
          -0.00964346713061589,
          -0.00040515383366199095,
          -0.024222412327165776,
          -0.001056194620861355,
          -0.4656184109127405,
          0.014968438683541094,
          0.024333578641566486,
          -0.058615760491533685,
          -0.011965249211602429,
          -0.26400356038262357,
          0.00944094083370998,
          0.057533888985393675
        ]
      ],
      "qBias": [
        0.18416510986548837,
        0.2174779769619248,
        0.20940331156148265
      ],
      "training": {
        "episodes": 4,
        "avgEpisodeReward": 2.4287534854009745,
        "warmStartModelId": "f31771a1-8731-4ffc-b54a-8b7204d17338",
        "pretrainEpisodes": 150,
        "replayEpisodes": 0
      },
      "metrics": {
        "accuracy": 0.8910614525139665,
        "f1": 50,
        "precision": 0.9989239657277627,
        "recall": 12.160927124373144
      },
      "evaluation": {
        "walkForwardSharpe": 6.747344156074985,
        "walkForwardProfitFactor": 4.776276157599044,
        "walkForwardMaxDrawdown": 0.0022503460006104785,
        "paperWindowProfitFactor": 50,
        "paperWindowSharpe": 17.937318154962878,
        "paperWindowNetPnl": 853.6756364597859,
        "paperWindowTrades": 121,
        "unseenProfitFactor": 0,
        "unseenSharpe": 0,
        "unseenNetPnl": 0,
        "unseenTrades": 0,
        "inSampleWinRate": 0.8910614525139665,
        "inSampleNetPnl": 2468.3228770622172
      }
    },
    {
      "id": "f31771a1-8731-4ffc-b54a-8b7204d17338",
      "createdAt": 1772200478142,
      "stage": "challenger",
      "source": "rl_offline_q_learning",
      "featureNames": [
        "returns",
        "volatility",
        "atr_norm",
        "rsi_norm",
        "ema_spread",
        "macd_hist_norm",
        "bb_pos",
        "adx_norm",
        "mom_3",
        "mom_12",
        "volume_z",
        "flow_imbalance",
        "returns_autocorr",
        "ema34_dist",
        "hurst_proxy",
        "bb_squeeze",
        "cross_trend_mom3",
        "cross_trend_rsi",
        "cross_vol_bbpos"
      ],
      "weights": [
        0.8212845892600931,
        -0.3337124710197341,
        -2.4032977004855467,
        0.0007819244938526762,
        0.10615245400669258,
        -0.8395141255130154,
        -0.02863812140663803,
        -0.010481597520653368,
        0.04265686688401562,
        0.018238998378563267,
        -0.0009653897657549768,
        -0.3917898314164647,
        0.021965901392367745,
        -0.33713281315538673,
        -0.0022801575304396394,
        -0.018442887031522335,
        -0.5890600597973209,
        0.052595295468439385,
        0.5200525137773934,
        0.7072677329842192,
        -0.2667148474098423,
        -2.106404657816259,
        0.012756748510997177,
        -0.19346620434214323,
        0.20233870860163092,
        -0.028759462393309638,
        -0.006589780241401051,
        0.058271907874849496,
        -0.02525399318159708,
        0.0002122116133388977,
        0.4068406723369807,
        0.02325510648920936,
        -0.15939806732210351,
        -0.08507066457160113,
        -0.015502687273688765,
        -0.4918053304166614,
        0.03787852288834778,
        0.3156807979336316,
        0.46280263944076905,
        -0.23554116805038208,
        -1.6557848448209116,
        0.008156720831033547,
        -0.40966277348830754,
        0.8911015498790522,
        -0.01597461283008288,
        -0.003090072751947911,
        0.030231372869442098,
        -0.005491087297815347,
        0.002479922115237172,
        -0.4656184109127405,
        0.016404791589473326,
        -0.0624047837117715,
        -0.0978419631788157,
        -0.010068608514341302,
        -0.23329176909243146,
        0.02401243882352436,
        0.05182309701074133
      ],
      "bias": 0,
      "kind": "rl_linear_q",
      "qWeights": [
        [
          0.8212845892600931,
          -0.3337124710197341,
          -2.4032977004855467,
          0.0007819244938526762,
          0.10615245400669258,
          -0.8395141255130154,
          -0.02863812140663803,
          -0.010481597520653368,
          0.04265686688401562,
          0.018238998378563267,
          -0.0009653897657549768,
          -0.3917898314164647,
          0.021965901392367745,
          -0.33713281315538673,
          -0.0022801575304396394,
          -0.018442887031522335,
          -0.5890600597973209,
          0.052595295468439385,
          0.5200525137773934
        ],
        [
          0.7072677329842192,
          -0.2667148474098423,
          -2.106404657816259,
          0.012756748510997177,
          -0.19346620434214323,
          0.20233870860163092,
          -0.028759462393309638,
          -0.006589780241401051,
          0.058271907874849496,
          -0.02525399318159708,
          0.0002122116133388977,
          0.4068406723369807,
          0.02325510648920936,
          -0.15939806732210351,
          -0.08507066457160113,
          -0.015502687273688765,
          -0.4918053304166614,
          0.03787852288834778,
          0.3156807979336316
        ],
        [
          0.46280263944076905,
          -0.23554116805038208,
          -1.6557848448209116,
          0.008156720831033547,
          -0.40966277348830754,
          0.8911015498790522,
          -0.01597461283008288,
          -0.003090072751947911,
          0.030231372869442098,
          -0.005491087297815347,
          0.002479922115237172,
          -0.4656184109127405,
          0.016404791589473326,
          -0.0624047837117715,
          -0.0978419631788157,
          -0.010068608514341302,
          -0.23329176909243146,
          0.02401243882352436,
          0.05182309701074133
        ]
      ],
      "qBias": [
        0.18456858958193129,
        0.22876945110454136,
        0.2269799687234459
      ],
      "training": {
        "episodes": 4,
        "avgEpisodeReward": 2.2514635608812275,
        "warmStartModelId": "65318f9e-918f-4c59-810a-7e0e29d97ecf",
        "pretrainEpisodes": 151,
        "replayEpisodes": 0
      },
      "metrics": {
        "accuracy": 0.72544080604534,
        "f1": 31.723859202360998,
        "precision": 0.9982657524016879,
        "recall": 11.697779909215038
      },
      "evaluation": {
        "walkForwardSharpe": 1.2539189394075418,
        "walkForwardProfitFactor": 1.4504339390955396,
        "walkForwardMaxDrawdown": 0.002198699027437541,
        "paperWindowProfitFactor": 50,
        "paperWindowSharpe": 13.885485538398807,
        "paperWindowNetPnl": 863.9598042249236,
        "paperWindowTrades": 122,
        "unseenProfitFactor": 0,
        "unseenSharpe": 0,
        "unseenNetPnl": 0,
        "unseenTrades": 0,
        "inSampleWinRate": 0.72544080604534,
        "inSampleNetPnl": 2426.909931395383
      }
    },
    {
      "id": "65318f9e-918f-4c59-810a-7e0e29d97ecf",
      "createdAt": 1772200403767,
      "stage": "challenger",
      "source": "rl_offline_q_learning",
      "featureNames": [
        "returns",
        "volatility",
        "atr_norm",
        "rsi_norm",
        "ema_spread",
        "macd_hist_norm",
        "bb_pos",
        "adx_norm",
        "mom_3",
        "mom_12",
        "volume_z",
        "flow_imbalance",
        "returns_autocorr",
        "ema34_dist",
        "hurst_proxy",
        "bb_squeeze",
        "cross_trend_mom3",
        "cross_trend_rsi",
        "cross_vol_bbpos"
      ],
      "weights": [
        0.8049895585730235,
        -0.3250536519830172,
        -2.4151566042053396,
        -0.0163015814093467,
        0.0701970800061302,
        -0.8102897957730559,
        -0.006062826349812259,
        -0.006788983510663275,
        0.1286995033805887,
        0.05741515743234626,
        -0.0009893721195371455,
        -0.3917898314164647,
        0.016613478338716237,
        -0.40488500509592384,
        -0.05540079293145464,
        -0.018000550520106642,
        -0.5433590838023943,
        0.057747853322572866,
        0.5317544901970738,
        0.6958971087532484,
        -0.26391134213494694,
        -2.114118389735363,
        -0.02254142506724756,
        -0.22323737770108334,
        0.2215779773750026,
        0.010573876545826305,
        -0.0016552961934031525,
        0.10371927176041185,
        -0.0034824983208281168,
        -0.00013897065899042758,
        0.4068406723369807,
        0.017518875570545635,
        -0.21851905231019428,
        -0.10673742449328995,
        -0.01341668675151579,
        -0.463881653391104,
        0.05610383129414847,
        0.32207532835153335,
        0.449275886621537,
        -0.23280492955426121,
        -1.6730248924225692,
        -0.009069819896463391,
        -0.4456733915438735,
        0.9125528466101704,
        0.004043592892875721,
        0.004448605680993777,
        0.09236827937972682,
        0.02487463004663725,
        -0.001475136686900216,
        -0.4656184109127405,
        0.01708440107890492,
        -0.13552577200055807,
        -0.1324462290707884,
        0.0008990880014188088,
        -0.19690681049224748,
        0.03724324286951506,
        0.05298782986316962
      ],
      "bias": 0,
      "kind": "rl_linear_q",
      "qWeights": [
        [
          0.8049895585730235,
          -0.3250536519830172,
          -2.4151566042053396,
          -0.0163015814093467,
          0.0701970800061302,
          -0.8102897957730559,
          -0.006062826349812259,
          -0.006788983510663275,
          0.1286995033805887,
          0.05741515743234626,
          -0.0009893721195371455,
          -0.3917898314164647,
          0.016613478338716237,
          -0.40488500509592384,
          -0.05540079293145464,
          -0.018000550520106642,
          -0.5433590838023943,
          0.057747853322572866,
          0.5317544901970738
        ],
        [
          0.6958971087532484,
          -0.26391134213494694,
          -2.114118389735363,
          -0.02254142506724756,
          -0.22323737770108334,
          0.2215779773750026,
          0.010573876545826305,
          -0.0016552961934031525,
          0.10371927176041185,
          -0.0034824983208281168,
          -0.00013897065899042758,
          0.4068406723369807,
          0.017518875570545635,
          -0.21851905231019428,
          -0.10673742449328995,
          -0.01341668675151579,
          -0.463881653391104,
          0.05610383129414847,
          0.32207532835153335
        ],
        [
          0.449275886621537,
          -0.23280492955426121,
          -1.6730248924225692,
          -0.009069819896463391,
          -0.4456733915438735,
          0.9125528466101704,
          0.004043592892875721,
          0.004448605680993777,
          0.09236827937972682,
          0.02487463004663725,
          -0.001475136686900216,
          -0.4656184109127405,
          0.01708440107890492,
          -0.13552577200055807,
          -0.1324462290707884,
          0.0008990880014188088,
          -0.19690681049224748,
          0.03724324286951506,
          0.05298782986316962
        ]
      ],
      "qBias": [
        0.21815960889037853,
        0.2396963564440069,
        0.23963226886401126
      ],
      "training": {
        "episodes": 4,
        "avgEpisodeReward": 2.4118603414934565,
        "warmStartModelId": "b3372306-72fb-4d65-ba8c-df9693045617",
        "pretrainEpisodes": 150,
        "replayEpisodes": 0
      },
      "metrics": {
        "accuracy": 0.8609271523178808,
        "f1": 50,
        "precision": 0.9990288038161388,
        "recall": 11.82459443966757
      },
      "evaluation": {
        "walkForwardSharpe": 4.324361272204368,
        "walkForwardProfitFactor": 2.315512801018093,
        "walkForwardMaxDrawdown": 0.0013158708154274012,
        "paperWindowProfitFactor": 50,
        "paperWindowSharpe": 13.691518914566805,
        "paperWindowNetPnl": 811.6199333315872,
        "paperWindowTrades": 95,
        "unseenProfitFactor": 0,
        "unseenSharpe": 0,
        "unseenNetPnl": 0,
        "unseenTrades": 0,
        "inSampleWinRate": 0.8609271523178808,
        "inSampleNetPnl": 2411.1594377173024
      }
    },
    {
      "id": "b3372306-72fb-4d65-ba8c-df9693045617",
      "createdAt": 1772200325145,
      "stage": "challenger",
      "source": "rl_offline_q_learning",
      "featureNames": [
        "returns",
        "volatility",
        "atr_norm",
        "rsi_norm",
        "ema_spread",
        "macd_hist_norm",
        "bb_pos",
        "adx_norm",
        "mom_3",
        "mom_12",
        "volume_z",
        "flow_imbalance",
        "returns_autocorr",
        "ema34_dist",
        "hurst_proxy",
        "bb_squeeze",
        "cross_trend_mom3",
        "cross_trend_rsi",
        "cross_vol_bbpos"
      ],
      "weights": [
        0.809330583637301,
        -0.35568352557578514,
        -2.43756133287635,
        -0.032254936357291854,
        0.09637045241461782,
        -0.8194477300416563,
        0.016005777277350607,
        -0.006174656861318793,
        0.12870916287324713,
        0.034275559707131274,
        0.001534276559121322,
        -0.3917898314164647,
        0.01278272138890313,
        -0.362597463701527,
        -0.04987691618787895,
        -0.016863597784056248,
        -0.5616576263911742,
        0.06958061985165342,
        0.5449825138811494,
        0.699332086460438,
        -0.2826528155205222,
        -2.128990547549156,
        -0.03308544599238524,
        -0.19118555750558514,
        0.2169427816653567,
        0.031883789702975465,
        -0.002940224304541845,
        0.08698017485963368,
        -0.012602293938859088,
        0.00010750742004105874,
        0.4068406723369807,
        0.018124924351931183,
        -0.1690572078426159,
        -0.11172682788266465,
        -0.007491172826523518,
        -0.4763428072522206,
        0.054003727013543015,
        0.323835445776896,
        0.45397754099987336,
        -0.25166994306530843,
        -1.7043690267498022,
        -0.020508661034652514,
        -0.42055916126177306,
        0.9002409739126306,
        0.030598009649607245,
        0.009094722296112197,
        0.10403070325510791,
        0.002810065768220168,
        -0.00035354893596400847,
        -0.4656184109127405,
        0.012330765804901908,
        -0.09456178801098408,
        -0.14569367189898771,
        0.002288174960261401,
        -0.21081148129213378,
        0.04073662152321714,
        0.05911324684825924
      ],
      "bias": 0,
      "kind": "rl_linear_q",
      "qWeights": [
        [
          0.809330583637301,
          -0.35568352557578514,
          -2.43756133287635,
          -0.032254936357291854,
          0.09637045241461782,
          -0.8194477300416563,
          0.016005777277350607,
          -0.006174656861318793,
          0.12870916287324713,
          0.034275559707131274,
          0.001534276559121322,
          -0.3917898314164647,
          0.01278272138890313,
          -0.362597463701527,
          -0.04987691618787895,
          -0.016863597784056248,
          -0.5616576263911742,
          0.06958061985165342,
          0.5449825138811494
        ],
        [
          0.699332086460438,
          -0.2826528155205222,
          -2.128990547549156,
          -0.03308544599238524,
          -0.19118555750558514,
          0.2169427816653567,
          0.031883789702975465,
          -0.002940224304541845,
          0.08698017485963368,
          -0.012602293938859088,
          0.00010750742004105874,
          0.4068406723369807,
          0.018124924351931183,
          -0.1690572078426159,
          -0.11172682788266465,
          -0.007491172826523518,
          -0.4763428072522206,
          0.054003727013543015,
          0.323835445776896
        ],
        [
          0.45397754099987336,
          -0.25166994306530843,
          -1.7043690267498022,
          -0.020508661034652514,
          -0.42055916126177306,
          0.9002409739126306,
          0.030598009649607245,
          0.009094722296112197,
          0.10403070325510791,
          0.002810065768220168,
          -0.00035354893596400847,
          -0.4656184109127405,
          0.012330765804901908,
          -0.09456178801098408,
          -0.14569367189898771,
          0.002288174960261401,
          -0.21081148129213378,
          0.04073662152321714,
          0.05911324684825924
        ]
      ],
      "qBias": [
        0.21304408413320328,
        0.23859455342205874,
        0.24567550857608192
      ],
      "training": {
        "episodes": 4,
        "avgEpisodeReward": 2.522289148413368,
        "warmStartModelId": "81ecd5f3-53d7-4bf6-9019-0f0ae7dc1927",
        "pretrainEpisodes": 150,
        "replayEpisodes": 0
      },
      "metrics": {
        "accuracy": 0.7594501718213058,
        "f1": 42.85361977382755,
        "precision": 0.9989904061569096,
        "recall": 11.781895616888859
      },
      "evaluation": {
        "walkForwardSharpe": 5.528588079763272,
        "walkForwardProfitFactor": 6.605529705700431,
        "walkForwardMaxDrawdown": 0.0007155912586052315,
        "paperWindowProfitFactor": 25.531595877773547,
        "paperWindowSharpe": 13.760745774968894,
        "paperWindowNetPnl": 867.5984288143263,
        "paperWindowTrades": 83,
        "unseenProfitFactor": 0,
        "unseenSharpe": 0,
        "unseenNetPnl": 0,
        "unseenTrades": 0,
        "inSampleWinRate": 0.7594501718213058,
        "inSampleNetPnl": 2572.218005332954
      }
    },
    {
      "id": "81ecd5f3-53d7-4bf6-9019-0f0ae7dc1927",
      "createdAt": 1772200250509,
      "stage": "challenger",
      "source": "rl_offline_q_learning",
      "featureNames": [
        "returns",
        "volatility",
        "atr_norm",
        "rsi_norm",
        "ema_spread",
        "macd_hist_norm",
        "bb_pos",
        "adx_norm",
        "mom_3",
        "mom_12",
        "volume_z",
        "flow_imbalance",
        "returns_autocorr",
        "ema34_dist",
        "hurst_proxy",
        "bb_squeeze",
        "cross_trend_mom3",
        "cross_trend_rsi",
        "cross_vol_bbpos"
      ],
      "weights": [
        0.8241219807917604,
        -0.35606234430850664,
        -2.4484370039523697,
        -0.0397268142532619,
        0.17555596862853173,
        -0.8424034686429553,
        0.009610848930970915,
        -0.01133705467179817,
        0.07709391177793641,
        0.018112764740591647,
        -0.0013797221651848,
        -0.3917898314164647,
        0.01818704746333175,
        -0.22606797080644872,
        -0.018949553261401485,
        -0.013955462370099543,
        -0.6092134989293471,
        0.0764095802826625,
        0.5876440744316493,
        0.7123589574089316,
        -0.26904146269022416,
        -2.1282178231912052,
        -0.03402392782329243,
        -0.11889389860191352,
        0.19639158320925898,
        0.025022465125292766,
        -0.0072498120828131075,
        0.04056749889441717,
        -0.031337929096308906,
        -0.0002669694099376296,
        0.4068406723369807,
        0.022722307905814504,
        -0.03995468732842407,
        -0.07504399985166577,
        -0.007081581327441119,
        -0.5173721785195357,
        0.054358368469759985,
        0.3437708734255774,
        0.4681411201274931,
        -0.23130487925575186,
        -1.7215646156653486,
        -0.03465467240563626,
        -0.34183892244369773,
        0.8692771487801996,
        0.02516682845306686,
        -0.006934040790733498,
        0.06941927910976334,
        -0.008647173014881724,
        0.0006596512561409219,
        -0.4656184109127405,
        0.01772688133323565,
        0.034848254472409954,
        -0.09330910893644835,
        -0.0008903115961236339,
        -0.2584911056691785,
        0.05108544303418731,
        0.10910658132587486
      ],
      "bias": 0,
      "kind": "rl_linear_q",
      "qWeights": [
        [
          0.8241219807917604,
          -0.35606234430850664,
          -2.4484370039523697,
          -0.0397268142532619,
          0.17555596862853173,
          -0.8424034686429553,
          0.009610848930970915,
          -0.01133705467179817,
          0.07709391177793641,
          0.018112764740591647,
          -0.0013797221651848,
          -0.3917898314164647,
          0.01818704746333175,
          -0.22606797080644872,
          -0.018949553261401485,
          -0.013955462370099543,
          -0.6092134989293471,
          0.0764095802826625,
          0.5876440744316493
        ],
        [
          0.7123589574089316,
          -0.26904146269022416,
          -2.1282178231912052,
          -0.03402392782329243,
          -0.11889389860191352,
          0.19639158320925898,
          0.025022465125292766,
          -0.0072498120828131075,
          0.04056749889441717,
          -0.031337929096308906,
          -0.0002669694099376296,
          0.4068406723369807,
          0.022722307905814504,
          -0.03995468732842407,
          -0.07504399985166577,
          -0.007081581327441119,
          -0.5173721785195357,
          0.054358368469759985,
          0.3437708734255774
        ],
        [
          0.4681411201274931,
          -0.23130487925575186,
          -1.7215646156653486,
          -0.03465467240563626,
          -0.34183892244369773,
          0.8692771487801996,
          0.02516682845306686,
          -0.006934040790733498,
          0.06941927910976334,
          -0.008647173014881724,
          0.0006596512561409219,
          -0.4656184109127405,
          0.01772688133323565,
          0.034848254472409954,
          -0.09330910893644835,
          -0.0008903115961236339,
          -0.2584911056691785,
          0.05108544303418731,
          0.10910658132587486
        ]
      ],
      "qBias": [
        0.197797512784422,
        0.2171016478963384,
        0.22737031282138573
      ],
      "training": {
        "episodes": 4,
        "avgEpisodeReward": 2.428599686199008,
        "warmStartModelId": "5c495de6-4a18-4133-8cb5-5086c35f3681",
        "pretrainEpisodes": 151,
        "replayEpisodes": 0
      },
      "metrics": {
        "accuracy": 0.8125,
        "f1": 40.44965851578109,
        "precision": 0.999019785850702,
        "recall": 11.941962079313404
      },
      "evaluation": {
        "walkForwardSharpe": -1.3225835672518798,
        "walkForwardProfitFactor": 0.7687031757505679,
        "walkForwardMaxDrawdown": 0.012749115636913678,
        "paperWindowProfitFactor": 50,
        "paperWindowSharpe": 18.094003142884887,
        "paperWindowNetPnl": 870.1044575463893,
        "paperWindowTrades": 92,
        "unseenProfitFactor": 0,
        "unseenSharpe": 0,
        "unseenNetPnl": 0,
        "unseenTrades": 0,
        "inSampleWinRate": 0.8125,
        "inSampleNetPnl": 2507.3317764061867
      }
    },
    {
      "id": "5c495de6-4a18-4133-8cb5-5086c35f3681",
      "createdAt": 1772200182683,
      "stage": "challenger",
      "source": "rl_offline_q_learning",
      "featureNames": [
        "returns",
        "volatility",
        "atr_norm",
        "rsi_norm",
        "ema_spread",
        "macd_hist_norm",
        "bb_pos",
        "adx_norm",
        "mom_3",
        "mom_12",
        "volume_z",
        "flow_imbalance",
        "returns_autocorr",
        "ema34_dist",
        "hurst_proxy",
        "bb_squeeze",
        "cross_trend_mom3",
        "cross_trend_rsi",
        "cross_vol_bbpos"
      ],
      "weights": [
        0.8331854500101721,
        -0.37251832333876583,
        -2.465988716401516,
        -0.034864309104244894,
        0.23487956263532864,
        -0.8569566271911956,
        -0.006792827610469906,
        -0.020301326860867438,
        0.027638327486676953,
        0.0008005009167164195,
        0.0003580066750312821,
        -0.3917898314164647,
        0.016986566214480654,
        -0.1310270665368137,
        0.01780780060452997,
        -0.02006350629324144,
        -0.643625796529328,
        0.06778668837946833,
        0.6018815435678936,
        0.7202585834813703,
        -0.27268098296004334,
        -2.13076765808277,
        -0.036604422444221095,
        -0.060684519870553115,
        0.18696676690752942,
        0.01031247431173526,
        -0.01157771251517088,
        -0.002704312038277859,
        -0.034589168491677244,
        -0.0008980226341398571,
        0.4068406723369807,
        0.02153032788547568,
        0.0587809524521783,
        -0.04765101113872216,
        -0.012819483507023804,
        -0.5436588854320867,
        0.050085840742172205,
        0.3479177085272486,
        0.47642564125626263,
        -0.22920180765704726,
        -1.7390000250404742,
        -0.026622670097464506,
        -0.27576484396383927,
        0.8515048402727411,
        0.0063308693992176115,
        -0.015268781360390683,
        0.03846505885383527,
        -0.018087285752134707,
        0.0013446853570149716,
        -0.4656184109127405,
        0.016737701400965414,
        0.14112174404860697,
        -0.06883286041460507,
        -0.0063051749737248666,
        -0.29028354896032393,
        0.03507244445680313,
        0.12601346088555332
      ],
      "bias": 0,
      "kind": "rl_linear_q",
      "qWeights": [
        [
          0.8331854500101721,
          -0.37251832333876583,
          -2.465988716401516,
          -0.034864309104244894,
          0.23487956263532864,
          -0.8569566271911956,
          -0.006792827610469906,
          -0.020301326860867438,
          0.027638327486676953,
          0.0008005009167164195,
          0.0003580066750312821,
          -0.3917898314164647,
          0.016986566214480654,
          -0.1310270665368137,
          0.01780780060452997,
          -0.02006350629324144,
          -0.643625796529328,
          0.06778668837946833,
          0.6018815435678936
        ],
        [
          0.7202585834813703,
          -0.27268098296004334,
          -2.13076765808277,
          -0.036604422444221095,
          -0.060684519870553115,
          0.18696676690752942,
          0.01031247431173526,
          -0.01157771251517088,
          -0.002704312038277859,
          -0.034589168491677244,
          -0.0008980226341398571,
          0.4068406723369807,
          0.02153032788547568,
          0.0587809524521783,
          -0.04765101113872216,
          -0.012819483507023804,
          -0.5436588854320867,
          0.050085840742172205,
          0.3479177085272486
        ],
        [
          0.47642564125626263,
          -0.22920180765704726,
          -1.7390000250404742,
          -0.026622670097464506,
          -0.27576484396383927,
          0.8515048402727411,
          0.0063308693992176115,
          -0.015268781360390683,
          0.03846505885383527,
          -0.018087285752134707,
          0.0013446853570149716,
          -0.4656184109127405,
          0.016737701400965414,
          0.14112174404860697,
          -0.06883286041460507,
          -0.0063051749737248666,
          -0.29028354896032393,
          0.03507244445680313,
          0.12601346088555332
        ]
      ],
      "qBias": [
        0.19079290357439022,
        0.20962557694150732,
        0.2167246877371318
      ],
      "training": {
        "episodes": 4,
        "avgEpisodeReward": 2.685220048592198,
        "warmStartModelId": "f7f3e844-391e-4b34-901d-958982aab7ea",
        "pretrainEpisodes": 150,
        "replayEpisodes": 0
      },
      "metrics": {
        "accuracy": 0.7913043478260869,
        "f1": 33.89085423697089,
        "precision": 0.9983890966521235,
        "recall": 10.589852284265636
      },
      "evaluation": {
        "walkForwardSharpe": 5.82463469407215,
        "walkForwardProfitFactor": 4.505275917335672,
        "walkForwardMaxDrawdown": 0.0026214474283767714,
        "paperWindowProfitFactor": 50,
        "paperWindowSharpe": 12.955456547331728,
        "paperWindowNetPnl": 778.4592197219972,
        "paperWindowTrades": 105,
        "unseenProfitFactor": 0,
        "unseenSharpe": 0,
        "unseenNetPnl": 0,
        "unseenTrades": 0,
        "inSampleWinRate": 0.7913043478260869,
        "inSampleNetPnl": 2263.805298956515
      }
    },
    {
      "id": "f7f3e844-391e-4b34-901d-958982aab7ea",
      "createdAt": 1772200112840,
      "stage": "challenger",
      "source": "rl_offline_q_learning",
      "featureNames": [
        "returns",
        "volatility",
        "atr_norm",
        "rsi_norm",
        "ema_spread",
        "macd_hist_norm",
        "bb_pos",
        "adx_norm",
        "mom_3",
        "mom_12",
        "volume_z",
        "flow_imbalance",
        "returns_autocorr",
        "ema34_dist",
        "hurst_proxy",
        "bb_squeeze",
        "cross_trend_mom3",
        "cross_trend_rsi",
        "cross_vol_bbpos"
      ],
      "weights": [
        0.8413811974117725,
        -0.375732429207396,
        -2.4671537598449267,
        -0.028332011089924284,
        0.28808533696513067,
        -0.8706706033506927,
        -0.011200411663841612,
        -0.014664005573987506,
        -0.03531490394902556,
        -0.005254173673120491,
        -0.0003835214842967895,
        -0.3917898314164647,
        0.016659728834686655,
        -0.04940381941578997,
        0.04930983731326153,
        -0.013198237539456387,
        -0.679825318143735,
        0.050328232970084784,
        0.5902071375115843,
        0.7251365486168273,
        -0.25644943383223007,
        -2.126276419862494,
        -0.021009552042539518,
        -0.01978416641082203,
        0.18067485819541199,
        -0.007156829585776546,
        -0.015591908796145968,
        -0.03955154918690462,
        -0.03179888265403101,
        -0.0003172317643839214,
        0.4068406723369807,
        0.020720601938698263,
        0.12543688657560162,
        -0.015548653612341581,
        -0.011620461235409645,
        -0.5672894223547756,
        0.035548322889392615,
        0.3473936612213856,
        0.4824887192453977,
        -0.19929393420950686,
        -1.7297457824803313,
        -0.015463131395874033,
        -0.2382945809229914,
        0.836884765113967,
        -0.006610614486449202,
        -0.010208303838264942,
        -0.003955010633750648,
        -0.020337716501230986,
        0.0002508705400362667,
        -0.4656184109127405,
        0.017948246051499417,
        0.21148088651991667,
        -0.0369740356691339,
        -0.00472076019399017,
        -0.322398515329218,
        0.01770591865127988,
        0.14088950347832677
      ],
      "bias": 0,
      "kind": "rl_linear_q",
      "qWeights": [
        [
          0.8413811974117725,
          -0.375732429207396,
          -2.4671537598449267,
          -0.028332011089924284,
          0.28808533696513067,
          -0.8706706033506927,
          -0.011200411663841612,
          -0.014664005573987506,
          -0.03531490394902556,
          -0.005254173673120491,
          -0.0003835214842967895,
          -0.3917898314164647,
          0.016659728834686655,
          -0.04940381941578997,
          0.04930983731326153,
          -0.013198237539456387,
          -0.679825318143735,
          0.050328232970084784,
          0.5902071375115843
        ],
        [
          0.7251365486168273,
          -0.25644943383223007,
          -2.126276419862494,
          -0.021009552042539518,
          -0.01978416641082203,
          0.18067485819541199,
          -0.007156829585776546,
          -0.015591908796145968,
          -0.03955154918690462,
          -0.03179888265403101,
          -0.0003172317643839214,
          0.4068406723369807,
          0.020720601938698263,
          0.12543688657560162,
          -0.015548653612341581,
          -0.011620461235409645,
          -0.5672894223547756,
          0.035548322889392615,
          0.3473936612213856
        ],
        [
          0.4824887192453977,
          -0.19929393420950686,
          -1.7297457824803313,
          -0.015463131395874033,
          -0.2382945809229914,
          0.836884765113967,
          -0.006610614486449202,
          -0.010208303838264942,
          -0.003955010633750648,
          -0.020337716501230986,
          0.0002508705400362667,
          -0.4656184109127405,
          0.017948246051499417,
          0.21148088651991667,
          -0.0369740356691339,
          -0.00472076019399017,
          -0.322398515329218,
          0.01770591865127988,
          0.14088950347832677
        ]
      ],
      "qBias": [
        0.15683360033492527,
        0.18831352602485307,
        0.18713373050070675
      ],
      "training": {
        "episodes": 4,
        "avgEpisodeReward": 2.497918906722614,
        "warmStartModelId": "58a9a01d-5c17-4095-880a-d63b5d954fb5",
        "pretrainEpisodes": 150,
        "replayEpisodes": 0
      },
      "metrics": {
        "accuracy": 0.8725490196078431,
        "f1": 50,
        "precision": 0.9990285862451739,
        "recall": 12.167201077954413
      },
      "evaluation": {
        "walkForwardSharpe": 8.692164654931668,
        "walkForwardProfitFactor": 26.15670324462821,
        "walkForwardMaxDrawdown": 0.000739452235235286,
        "paperWindowProfitFactor": 50,
        "paperWindowSharpe": 13.999920153592765,
        "paperWindowNetPnl": 871.8035695915096,
        "paperWindowTrades": 56,
        "unseenProfitFactor": 0,
        "unseenSharpe": 0,
        "unseenNetPnl": 0,
        "unseenTrades": 0,
        "inSampleWinRate": 0.8725490196078431,
        "inSampleNetPnl": 2552.845664616965
      }
    },
    {
      "id": "58a9a01d-5c17-4095-880a-d63b5d954fb5",
      "createdAt": 1772200044225,
      "stage": "challenger",
      "source": "rl_offline_q_learning",
      "featureNames": [
        "returns",
        "volatility",
        "atr_norm",
        "rsi_norm",
        "ema_spread",
        "macd_hist_norm",
        "bb_pos",
        "adx_norm",
        "mom_3",
        "mom_12",
        "volume_z",
        "flow_imbalance",
        "returns_autocorr",
        "ema34_dist",
        "hurst_proxy",
        "bb_squeeze",
        "cross_trend_mom3",
        "cross_trend_rsi",
        "cross_vol_bbpos"
      ],
      "weights": [
        0.8340973323755918,
        -0.35699837913426474,
        -2.4611195031446313,
        0.004715684675157091,
        0.2883922078126891,
        -0.8609603195327047,
        -0.05129446245553221,
        -0.018967151043921483,
        -0.07012386020725364,
        -0.006555076537382613,
        -0.002300517578391529,
        -0.3917898314164647,
        0.007834864996565905,
        -0.07322475052874863,
        0.0660369488829482,
        -0.02389061373101441,
        -0.6728784923815214,
        0.037627791444875845,
        0.561428093208675,
        0.7194230967294896,
        -0.2555360353335773,
        -2.127103620873857,
        0.025811484169097516,
        -0.030423293140282647,
        0.18715843512026675,
        -0.052168248248318436,
        -0.017069628651397464,
        -0.05313173007218628,
        -0.052179565297437856,
        -0.0006641077238687622,
        0.4068406723369807,
        0.010131787593378164,
        0.09255976341197766,
        -0.005467946287030784,
        -0.020766852962247236,
        -0.5644763231465335,
        0.012874611112405388,
        0.33012319359442865,
        0.47772758548514876,
        -0.21070930634734594,
        -1.7350217500072407,
        0.03310763984461247,
        -0.23471279396235425,
        0.8396571683083192,
        -0.05317983975220825,
        -0.010452523888259999,
        -0.050385632448465306,
        -0.040069528344505785,
        0.0007121147078841134,
        -0.4656184109127405,
        0.008163738570154002,
        0.19776571380875807,
        -0.012422586987393128,
        -0.00870493642201048,
        -0.32189019482444015,
        0.005821905957539656,
        0.11095839480182335
      ],
      "bias": 0,
      "kind": "rl_linear_q",
      "qWeights": [
        [
          0.8340973323755918,
          -0.35699837913426474,
          -2.4611195031446313,
          0.004715684675157091,
          0.2883922078126891,
          -0.8609603195327047,
          -0.05129446245553221,
          -0.018967151043921483,
          -0.07012386020725364,
          -0.006555076537382613,
          -0.002300517578391529,
          -0.3917898314164647,
          0.007834864996565905,
          -0.07322475052874863,
          0.0660369488829482,
          -0.02389061373101441,
          -0.6728784923815214,
          0.037627791444875845,
          0.561428093208675
        ],
        [
          0.7194230967294896,
          -0.2555360353335773,
          -2.127103620873857,
          0.025811484169097516,
          -0.030423293140282647,
          0.18715843512026675,
          -0.052168248248318436,
          -0.017069628651397464,
          -0.05313173007218628,
          -0.052179565297437856,
          -0.0006641077238687622,
          0.4068406723369807,
          0.010131787593378164,
          0.09255976341197766,
          -0.005467946287030784,
          -0.020766852962247236,
          -0.5644763231465335,
          0.012874611112405388,
          0.33012319359442865
        ],
        [
          0.47772758548514876,
          -0.21070930634734594,
          -1.7350217500072407,
          0.03310763984461247,
          -0.23471279396235425,
          0.8396571683083192,
          -0.05317983975220825,
          -0.010452523888259999,
          -0.050385632448465306,
          -0.040069528344505785,
          0.0007121147078841134,
          -0.4656184109127405,
          0.008163738570154002,
          0.19776571380875807,
          -0.012422586987393128,
          -0.00870493642201048,
          -0.32189019482444015,
          0.005821905957539656,
          0.11095839480182335
        ]
      ],
      "qBias": [
        0.1547008106210998,
        0.18722878236654425,
        0.17574392668265007
      ],
      "training": {
