{
  "challengers": [
    {
      "id": "44685587-8e74-4d9d-9128-d7091b5eaff1",
      "createdAt": 1772142888626,
      "stage": "challenger",
      "source": "rl_offline_q_learning",
      "featureNames": [
        "returns",
        "volatility",
        "atr_norm",
        "rsi_norm",
        "ema_spread",
        "macd_hist_norm",
        "bb_pos",
        "adx_norm",
        "mom_3",
        "mom_12",
        "volume_z",
        "flow_imbalance",
        "returns_autocorr",
        "ema34_dist",
        "hurst_proxy",
        "bb_squeeze",
        "cross_trend_mom3",
        "cross_trend_rsi",
        "cross_vol_bbpos"
      ],
      "weights": [
        0.1785728623274352,
        0.4376334622869173,
        -2.4462014848491123,
        -0.022091783029331517,
        0.5315273798658652,
        -0.1972666719685719,
        0.0069923151141077985,
        0.04228346324622194,
        -0.031898265193141,
        -0.158931962818247,
        0.0007437438173889396,
        -0.11828619364924227,
        0.11920730044514262,
        -0.24800140154010947,
        0.040091858821586904,
        0.03537881750253206,
        -0.7602539296493218,
        0.04877005527531429,
        0.6331702990240565,
        -0.3334838901191778,
        0.46874301556180115,
        -1.844141549785607,
        -0.0011172294245650376,
        0.31424777754553235,
        0.30347698355157254,
        0.0028252114483887027,
        0.04299754728828622,
        -0.014218684181028321,
        -0.07641169813716578,
        -0.00016117103846021908,
        0.24530511109660683,
        0.11548170181705063,
        -0.15524204321761295,
        0.033101742253055566,
        0.03998088097128787,
        -0.5717054301571879,
        0.016340567620931366,
        0.40801037734810985,
        -0.15190155834460384,
        0.5574483415513268,
        -1.982705083363184,
        -0.008054965248345437,
        0.19517636383734355,
        0.7662725815501952,
        0.007092828382206842,
        0.04691005722693002,
        0.1257846958778779,
        -0.02625973039189562,
        -0.00031886442644325796,
        -0.2523556434674729,
        0.11890060006373779,
        -0.2366506669629438,
        0.019334306103853605,
        0.042815872948720995,
        -0.375138851098321,
        0.027411867655638803,
        0.3204753460673584
      ],
      "bias": 0,
      "kind": "rl_linear_q",
      "qWeights": [
        [
          0.1785728623274352,
          0.4376334622869173,
          -2.4462014848491123,
          -0.022091783029331517,
          0.5315273798658652,
          -0.1972666719685719,
          0.0069923151141077985,
          0.04228346324622194,
          -0.031898265193141,
          -0.158931962818247,
          0.0007437438173889396,
          -0.11828619364924227,
          0.11920730044514262,
          -0.24800140154010947,
          0.040091858821586904,
          0.03537881750253206,
          -0.7602539296493218,
          0.04877005527531429,
          0.6331702990240565
        ],
        [
          -0.3334838901191778,
          0.46874301556180115,
          -1.844141549785607,
          -0.0011172294245650376,
          0.31424777754553235,
          0.30347698355157254,
          0.0028252114483887027,
          0.04299754728828622,
          -0.014218684181028321,
          -0.07641169813716578,
          -0.00016117103846021908,
          0.24530511109660683,
          0.11548170181705063,
          -0.15524204321761295,
          0.033101742253055566,
          0.03998088097128787,
          -0.5717054301571879,
          0.016340567620931366,
          0.40801037734810985
        ],
        [
          -0.15190155834460384,
          0.5574483415513268,
          -1.982705083363184,
          -0.008054965248345437,
          0.19517636383734355,
          0.7662725815501952,
          0.007092828382206842,
          0.04691005722693002,
          0.1257846958778779,
          -0.02625973039189562,
          -0.00031886442644325796,
          -0.2523556434674729,
          0.11890060006373779,
          -0.2366506669629438,
          0.019334306103853605,
          0.042815872948720995,
          -0.375138851098321,
          0.027411867655638803,
          0.3204753460673584
        ]
      ],
      "qBias": [
        -0.011484219319759115,
        -0.01735617335903238,
        -0.008608947425497709
      ],
      "training": {
        "episodes": 4,
        "avgEpisodeReward": 1.9135791061883027,
        "warmStartModelId": "193b9433-388f-4402-9c49-bafb00fa1208",
        "pretrainEpisodes": 150,
        "replayEpisodes": 0
      },
      "metrics": {
        "accuracy": 0.5884476534296029,
        "f1": 15.578262388771321,
        "precision": 0.9990096448345057,
        "recall": 6.028569003409051
      },
      "evaluation": {
        "walkForwardSharpe": 5.168943672876153,
        "walkForwardProfitFactor": 10.29819992435509,
        "walkForwardMaxDrawdown": 0.0012943952857327084,
        "paperWindowProfitFactor": 50,
        "paperWindowSharpe": 23.18672589565527,
        "paperWindowNetPnl": 840.9005646750793,
        "paperWindowTrades": 57,
        "unseenProfitFactor": 0,
        "unseenSharpe": 0,
        "unseenNetPnl": 0,
        "unseenTrades": 0,
        "inSampleWinRate": 0.5884476534296029,
        "inSampleNetPnl": 1166.3301623432017
      }
    },
    {
      "id": "193b9433-388f-4402-9c49-bafb00fa1208",
      "createdAt": 1772142825063,
      "stage": "challenger",
      "source": "rl_offline_q_learning",
      "featureNames": [
        "returns",
        "volatility",
        "atr_norm",
        "rsi_norm",
        "ema_spread",
        "macd_hist_norm",
        "bb_pos",
        "adx_norm",
        "mom_3",
        "mom_12",
        "volume_z",
        "flow_imbalance",
        "returns_autocorr",
        "ema34_dist",
        "hurst_proxy",
        "bb_squeeze",
        "cross_trend_mom3",
        "cross_trend_rsi",
        "cross_vol_bbpos"
      ],
      "weights": [
        0.19008081373725227,
        0.41481230474375175,
        -2.425876656983522,
        0.00009817376493070807,
        0.5882429882676156,
        -0.21071691278397994,
        0.008816770424740784,
        0.048903493434010806,
        -0.13990853799235758,
        -0.24434629091298318,
        -0.000058334235570844665,
        -0.11828619364924227,
        0.10891909274127225,
        -0.14693950742400647,
        0.06180604055633591,
        0.031500333276430634,
        -0.7883692397520561,
        0.016438921627622727,
        0.6168439422756405,
        -0.3262328132811033,
        0.4447673661473208,
        -1.7960346323915668,
        0.008620851620737826,
        0.380589143229454,
        0.286097716907079,
        0.0013572801068901707,
        0.050302746742179834,
        -0.09974811598615031,
        -0.13256948655218923,
        0.00021500533728180775,
        0.24530511109660683,
        0.11158547792181027,
        -0.06514821869795194,
        0.0434154127940501,
        0.042268866556060526,
        -0.5942915895065662,
        -0.0031097828020355735,
        0.3635914653281474,
        -0.14196116379968535,
        0.5316043113073732,
        -1.9452465309428812,
        0.004957923733176872,
        0.2630070281379648,
        0.7306789939357016,
        0.005817760149331882,
        0.04728797554480108,
        0.05474992882566093,
        -0.07287525702164634,
        -0.0011109082917456345,
        -0.2523556434674729,
        0.11251083980221943,
        -0.14443917707258247,
        0.021622933281008748,
        0.03577560931681599,
        -0.3905074663726318,
        -0.0027897042638084877,
        0.28042951644139996
      ],
      "bias": 0,
      "kind": "rl_linear_q",
      "qWeights": [
        [
          0.19008081373725227,
          0.41481230474375175,
          -2.425876656983522,
          0.00009817376493070807,
          0.5882429882676156,
          -0.21071691278397994,
          0.008816770424740784,
          0.048903493434010806,
          -0.13990853799235758,
          -0.24434629091298318,
          -0.000058334235570844665,
          -0.11828619364924227,
          0.10891909274127225,
          -0.14693950742400647,
          0.06180604055633591,
          0.031500333276430634,
          -0.7883692397520561,
          0.016438921627622727,
          0.6168439422756405
        ],
        [
          -0.3262328132811033,
          0.4447673661473208,
          -1.7960346323915668,
          0.008620851620737826,
          0.380589143229454,
          0.286097716907079,
          0.0013572801068901707,
          0.050302746742179834,
          -0.09974811598615031,
          -0.13256948655218923,
          0.00021500533728180775,
          0.24530511109660683,
          0.11158547792181027,
          -0.06514821869795194,
          0.0434154127940501,
          0.042268866556060526,
          -0.5942915895065662,
          -0.0031097828020355735,
          0.3635914653281474
        ],
        [
          -0.14196116379968535,
          0.5316043113073732,
          -1.9452465309428812,
          0.004957923733176872,
          0.2630070281379648,
          0.7306789939357016,
          0.005817760149331882,
          0.04728797554480108,
          0.05474992882566093,
          -0.07287525702164634,
          -0.0011109082917456345,
          -0.2523556434674729,
          0.11251083980221943,
          -0.14443917707258247,
          0.021622933281008748,
          0.03577560931681599,
          -0.3905074663726318,
          -0.0027897042638084877,
          0.28042951644139996
        ]
      ],
      "qBias": [
        -0.029171547175450188,
        -0.025984874334821887,
        -0.006211317666704718
      ],
      "training": {
        "episodes": 4,
        "avgEpisodeReward": 1.502078107550838,
        "warmStartModelId": "94d737ab-8bac-4b2e-8f06-e4d64deb4f2b",
        "pretrainEpisodes": 150,
        "replayEpisodes": 0
      },
      "metrics": {
        "accuracy": 0.5578947368421052,
        "f1": 15.922470470050758,
        "precision": 0.999029030931799,
        "recall": 6.360499871237069
      },
      "evaluation": {
        "walkForwardSharpe": -0.6057639115251817,
        "walkForwardProfitFactor": 0.6855304119732268,
        "walkForwardMaxDrawdown": 0.00776366623111846,
        "paperWindowProfitFactor": 50,
        "paperWindowSharpe": 25.389545796719933,
        "paperWindowNetPnl": 871.4574358149457,
        "paperWindowTrades": 53,
        "unseenProfitFactor": 0,
        "unseenSharpe": 0,
        "unseenNetPnl": 0,
        "unseenTrades": 0,
        "inSampleWinRate": 0.5578947368421052,
        "inSampleNetPnl": 1272.7932222278832
      }
    },
    {
      "id": "94d737ab-8bac-4b2e-8f06-e4d64deb4f2b",
      "createdAt": 1772142761295,
      "stage": "challenger",
      "source": "rl_offline_q_learning",
      "featureNames": [
        "returns",
        "volatility",
        "atr_norm",
        "rsi_norm",
        "ema_spread",
        "macd_hist_norm",
        "bb_pos",
        "adx_norm",
        "mom_3",
        "mom_12",
        "volume_z",
        "flow_imbalance",
        "returns_autocorr",
        "ema34_dist",
        "hurst_proxy",
        "bb_squeeze",
        "cross_trend_mom3",
        "cross_trend_rsi",
        "cross_vol_bbpos"
      ],
      "weights": [
        0.19437503089949662,
        0.39060804762593226,
        -2.388221853187337,
        0.031558743234004955,
        0.6134739926998352,
        -0.21371892452615188,
        -0.022615358954225777,
        0.0614507200466857,
        -0.2181674464276715,
        -0.3452326894529895,
        -0.0000645317478774656,
        -0.11828619364924227,
        0.11859539525959548,
        -0.08876434115809721,
        0.07482196369820206,
        0.04514537594630806,
        -0.8010347292389839,
        0.0010855861689985063,
        0.5969790523785761,
        -0.32868072118149255,
        0.4253835808686279,
        -1.7398511978307005,
        0.046290318618103746,
        0.4034433845999358,
        0.28302460190003415,
        -0.030375628117245715,
        0.05991178605585372,
        -0.16733262103824326,
        -0.20706666933230555,
        -0.00040112768299534836,
        0.24530511109660683,
        0.11755170138093667,
        -0.04761702952964123,
        0.06175664126963623,
        0.05319720522478894,
        -0.5949451763858934,
        -0.02629030016635824,
        0.33535627530452916,
        -0.13445733481571623,
        0.5210478331901837,
        -1.8890850484499897,
        0.04183686899977187,
        0.3117356960244188,
        0.6944640511616763,
        -0.028736344821859054,
        0.061361169881009404,
        -0.04258019405875726,
        -0.1654437489325559,
        0.003963666602048463,
        -0.2523556434674729,
        0.11390769517870505,
        -0.08750110443564597,
        0.049118772754110245,
        0.05404927916389998,
        -0.3969204246414972,
        -0.030582224764782524,
        0.24433148720245504
      ],
      "bias": 0,
      "kind": "rl_linear_q",
      "qWeights": [
        [
          0.19437503089949662,
          0.39060804762593226,
          -2.388221853187337,
          0.031558743234004955,
          0.6134739926998352,
          -0.21371892452615188,
          -0.022615358954225777,
          0.0614507200466857,
          -0.2181674464276715,
          -0.3452326894529895,
          -0.0000645317478774656,
          -0.11828619364924227,
          0.11859539525959548,
          -0.08876434115809721,
          0.07482196369820206,
          0.04514537594630806,
          -0.8010347292389839,
          0.0010855861689985063,
          0.5969790523785761
        ],
        [
          -0.32868072118149255,
          0.4253835808686279,
          -1.7398511978307005,
          0.046290318618103746,
          0.4034433845999358,
          0.28302460190003415,
          -0.030375628117245715,
          0.05991178605585372,
          -0.16733262103824326,
          -0.20706666933230555,
          -0.00040112768299534836,
          0.24530511109660683,
          0.11755170138093667,
          -0.04761702952964123,
          0.06175664126963623,
          0.05319720522478894,
          -0.5949451763858934,
          -0.02629030016635824,
          0.33535627530452916
        ],
        [
          -0.13445733481571623,
          0.5210478331901837,
          -1.8890850484499897,
          0.04183686899977187,
          0.3117356960244188,
          0.6944640511616763,
          -0.028736344821859054,
          0.061361169881009404,
          -0.04258019405875726,
          -0.1654437489325559,
          0.003963666602048463,
          -0.2523556434674729,
          0.11390769517870505,
          -0.08750110443564597,
          0.049118772754110245,
          0.05404927916389998,
          -0.3969204246414972,
          -0.030582224764782524,
          0.24433148720245504
        ]
      ],
      "qBias": [
        -0.04657462711315558,
        -0.04931436606936907,
        -0.04501264074002922
      ],
      "training": {
        "episodes": 4,
        "avgEpisodeReward": 1.6965768748949737,
        "warmStartModelId": "ab3ad3a8-1112-46e5-9517-022595ae546b",
        "pretrainEpisodes": 150,
        "replayEpisodes": 0
      },
      "metrics": {
        "accuracy": 0.6643835616438356,
        "f1": 11.175344447824806,
        "precision": 0.9982161251776571,
        "recall": 5.542266842058779
      },
      "evaluation": {
        "walkForwardSharpe": -0.6903663399750094,
        "walkForwardProfitFactor": 0.8410485685047093,
        "walkForwardMaxDrawdown": 0.006095855376989249,
        "paperWindowProfitFactor": 50,
        "paperWindowSharpe": 18.71339957540253,
        "paperWindowNetPnl": 686.3304827361317,
        "paperWindowTrades": 169,
        "unseenProfitFactor": 0,
        "unseenSharpe": 0,
        "unseenNetPnl": 0,
        "unseenTrades": 0,
        "inSampleWinRate": 0.6643835616438356,
        "inSampleNetPnl": 1015.5947760309919
      }
    },
    {
      "id": "ab3ad3a8-1112-46e5-9517-022595ae546b",
      "createdAt": 1772142697680,
      "stage": "challenger",
      "source": "rl_offline_q_learning",
      "featureNames": [
        "returns",
        "volatility",
        "atr_norm",
        "rsi_norm",
        "ema_spread",
        "macd_hist_norm",
        "bb_pos",
        "adx_norm",
        "mom_3",
        "mom_12",
        "volume_z",
        "flow_imbalance",
        "returns_autocorr",
        "ema34_dist",
        "hurst_proxy",
        "bb_squeeze",
        "cross_trend_mom3",
        "cross_trend_rsi",
        "cross_vol_bbpos"
      ],
      "weights": [
        0.1697654432415118,
        0.34636764431906425,
        -2.3448117365828307,
        0.028675319927323712,
        0.5273461179297454,
        -0.15836285322297564,
        -0.02456668554456435,
        0.07073805576550153,
        -0.176703586444132,
        -0.2549045976919562,
        0.0008235141604341268,
        -0.11828619364924227,
        0.12177743215288794,
        -0.21370060812332198,
        0.051818448019793316,
        0.05936273428258952,
        -0.7201983487620808,
        -0.0034897958098117215,
        0.6055242051965561,
        -0.35487931715079996,
        0.3881726509751484,
        -1.6797470319507637,
        0.03240456590983065,
        0.3293194044767761,
        0.32642788681532847,
        -0.021059608734699458,
        0.06451819452148314,
        -0.1154030433805182,
        -0.1082361738840377,
        0.0006507642448356935,
        0.24530511109660683,
        0.11853188312442474,
        -0.1973640462929443,
        0.045311756165108866,
        0.06196100666840675,
        -0.5254743697825845,
        -0.02651418698433494,
        0.3438728960906823,
        -0.15827407567206386,
        0.49236744367798324,
        -1.8569552214134528,
        0.04445461810859294,
        0.2378670142098958,
        0.7240733761866914,
        -0.034106194720021674,
        0.06988706794759282,
        0.002456778812354779,
        -0.08913916906030246,
        -0.0015739302344850385,
        -0.2523556434674729,
        0.11713600092898682,
        -0.24521061559150203,
        0.024658582040533856,
        0.061273549184590145,
        -0.31211937698401737,
        -0.034813299670166956,
        0.24220981551263346
      ],
      "bias": 0,
      "kind": "rl_linear_q",
      "qWeights": [
        [
          0.1697654432415118,
          0.34636764431906425,
          -2.3448117365828307,
          0.028675319927323712,
          0.5273461179297454,
          -0.15836285322297564,
          -0.02456668554456435,
          0.07073805576550153,
          -0.176703586444132,
          -0.2549045976919562,
          0.0008235141604341268,
          -0.11828619364924227,
          0.12177743215288794,
          -0.21370060812332198,
          0.051818448019793316,
          0.05936273428258952,
          -0.7201983487620808,
          -0.0034897958098117215,
          0.6055242051965561
        ],
        [
          -0.35487931715079996,
          0.3881726509751484,
          -1.6797470319507637,
          0.03240456590983065,
          0.3293194044767761,
          0.32642788681532847,
          -0.021059608734699458,
          0.06451819452148314,
          -0.1154030433805182,
          -0.1082361738840377,
          0.0006507642448356935,
          0.24530511109660683,
          0.11853188312442474,
          -0.1973640462929443,
          0.045311756165108866,
          0.06196100666840675,
          -0.5254743697825845,
          -0.02651418698433494,
          0.3438728960906823
        ],
        [
          -0.15827407567206386,
          0.49236744367798324,
          -1.8569552214134528,
          0.04445461810859294,
          0.2378670142098958,
          0.7240733761866914,
          -0.034106194720021674,
          0.06988706794759282,
          0.002456778812354779,
          -0.08913916906030246,
          -0.0015739302344850385,
          -0.2523556434674729,
          0.11713600092898682,
          -0.24521061559150203,
          0.024658582040533856,
          0.061273549184590145,
          -0.31211937698401737,
          -0.034813299670166956,
          0.24220981551263346
        ]
      ],
      "qBias": [
        -0.040830148352545365,
        -0.042974258139010776,
        -0.04160631176339808
      ],
      "training": {
        "episodes": 4,
        "avgEpisodeReward": 1.76196888951788,
        "warmStartModelId": "efeb5f25-4c39-4038-bc8e-d708b7e39643",
        "pretrainEpisodes": 150,
        "replayEpisodes": 0
      },
      "metrics": {
        "accuracy": 0.5446808510638298,
        "f1": 16.117935664139864,
        "precision": 0.9985370322710166,
        "recall": 4.474856261098979
      },
      "evaluation": {
        "walkForwardSharpe": 1.933762787910799,
        "walkForwardProfitFactor": 1.6360921071148198,
        "walkForwardMaxDrawdown": 0.0022090251836745524,
        "paperWindowProfitFactor": 50,
        "paperWindowSharpe": 13.337177229275236,
        "paperWindowNetPnl": 457.0697654677497,
        "paperWindowTrades": 59,
        "unseenProfitFactor": 0,
        "unseenSharpe": 0,
        "unseenNetPnl": 0,
        "unseenTrades": 0,
        "inSampleWinRate": 0.5446808510638298,
        "inSampleNetPnl": 657.8164807914582
      }
    },
    {
      "id": "efeb5f25-4c39-4038-bc8e-d708b7e39643",
      "createdAt": 1772142633816,
      "stage": "challenger",
      "source": "rl_offline_q_learning",
      "featureNames": [
        "returns",
        "volatility",
        "atr_norm",
        "rsi_norm",
        "ema_spread",
        "macd_hist_norm",
        "bb_pos",
        "adx_norm",
        "mom_3",
        "mom_12",
        "volume_z",
        "flow_imbalance",
        "returns_autocorr",
        "ema34_dist",
        "hurst_proxy",
        "bb_squeeze",
        "cross_trend_mom3",
        "cross_trend_rsi",
        "cross_vol_bbpos"
      ],
      "weights": [
        0.15152493406069822,
        0.34151763545845576,
        -2.2842880415549547,
        0.02138690351018868,
        0.46413215660354606,
        -0.12162920531724548,
        -0.02014434591712059,
        0.0531819120433602,
        -0.1638409154345894,
        -0.21465519380470913,
        0.002368119755010218,
        -0.11828619364924227,
        0.12438844042593167,
        -0.3062071655981687,
        0.06447757087907913,
        0.053378218091471266,
        -0.6632607192468574,
        0.0015845934543218265,
        0.595551426311979,
        -0.369276552782436,
        0.3698369201257488,
        -1.6185678792175107,
        0.02854159771469554,
        0.29591121650503605,
        0.34759722687741984,
        -0.013367086034074422,
        0.05209833033904441,
        -0.10213719342332217,
        -0.07622238210368816,
        -0.0005396857231435406,
        0.24530511109660683,
        0.11871276933311758,
        -0.27324577294229785,
        0.055554657288862073,
        0.05657774392806389,
        -0.4889420747452006,
        -0.03367322460478216,
        0.34729038122984895,
        -0.17267113571883558,
        0.4776372392102595,
        -1.8106193280269987,
        0.04168566310617139,
        0.19792109267128247,
        0.7301066007246813,
        -0.02295909011881836,
        0.054905629342212894,
        0.03643085009493736,
        -0.038681199908758394,
        0.00022878844633815454,
        -0.2523556434674729,
        0.11792931138116004,
        -0.3401895999488419,
        0.03961770002185878,
        0.05640731615767224,
        -0.25672711700597495,
        -0.03685980320791791,
        0.22957911167118106
      ],
      "bias": 0,
      "kind": "rl_linear_q",
      "qWeights": [
        [
          0.15152493406069822,
          0.34151763545845576,
          -2.2842880415549547,
          0.02138690351018868,
          0.46413215660354606,
          -0.12162920531724548,
          -0.02014434591712059,
          0.0531819120433602,
          -0.1638409154345894,
          -0.21465519380470913,
          0.002368119755010218,
          -0.11828619364924227,
          0.12438844042593167,
          -0.3062071655981687,
          0.06447757087907913,
          0.053378218091471266,
          -0.6632607192468574,
          0.0015845934543218265,
          0.595551426311979
        ],
        [
          -0.369276552782436,
          0.3698369201257488,
          -1.6185678792175107,
          0.02854159771469554,
          0.29591121650503605,
          0.34759722687741984,
          -0.013367086034074422,
          0.05209833033904441,
          -0.10213719342332217,
          -0.07622238210368816,
          -0.0005396857231435406,
          0.24530511109660683,
          0.11871276933311758,
          -0.27324577294229785,
          0.055554657288862073,
          0.05657774392806389,
          -0.4889420747452006,
          -0.03367322460478216,
          0.34729038122984895
        ],
        [
          -0.17267113571883558,
          0.4776372392102595,
          -1.8106193280269987,
          0.04168566310617139,
          0.19792109267128247,
          0.7301066007246813,
          -0.02295909011881836,
          0.054905629342212894,
          0.03643085009493736,
          -0.038681199908758394,
          0.00022878844633815454,
          -0.2523556434674729,
          0.11792931138116004,
          -0.3401895999488419,
          0.03961770002185878,
          0.05640731615767224,
          -0.25672711700597495,
          -0.03685980320791791,
          0.22957911167118106
        ]
      ],
      "qBias": [
        -0.04205544674520518,
        -0.04517894989015649,
        -0.03910023375395788
      ],
      "training": {
        "episodes": 4,
        "avgEpisodeReward": 1.8890246302615172,
        "warmStartModelId": "32bd3ec1-623f-4d74-a9ce-9e0b1437b8cc",
        "pretrainEpisodes": 150,
        "replayEpisodes": 0
      },
      "metrics": {
        "accuracy": 0.5654450261780105,
        "f1": 16.270455465062973,
        "precision": 0.9974024595416163,
        "recall": 6.345538938753275
      },
      "evaluation": {
        "walkForwardSharpe": -3.8230570179061862,
        "walkForwardProfitFactor": 0.18774171468527404,
        "walkForwardMaxDrawdown": 0.031039179268975748,
        "paperWindowProfitFactor": 50,
        "paperWindowSharpe": 23.76547955559877,
        "paperWindowNetPnl": 844.8447557929794,
        "paperWindowTrades": 84,
        "unseenProfitFactor": 0,
        "unseenSharpe": 0,
        "unseenNetPnl": 0,
        "unseenTrades": 0,
        "inSampleWinRate": 0.5654450261780105,
        "inSampleNetPnl": 1212.4007511067612
      }
    },
    {
      "id": "32bd3ec1-623f-4d74-a9ce-9e0b1437b8cc",
      "createdAt": 1772142570209,
      "stage": "challenger",
      "source": "rl_offline_q_learning",
      "featureNames": [
        "returns",
        "volatility",
        "atr_norm",
        "rsi_norm",
        "ema_spread",
        "macd_hist_norm",
        "bb_pos",
        "adx_norm",
        "mom_3",
        "mom_12",
        "volume_z",
        "flow_imbalance",
        "returns_autocorr",
        "ema34_dist",
        "hurst_proxy",
        "bb_squeeze",
        "cross_trend_mom3",
        "cross_trend_rsi",
        "cross_vol_bbpos"
      ],
      "weights": [
        0.12891125294584624,
        0.315658094992966,
        -2.236394805158166,
        0.028526120367935535,
        0.38917988144924587,
        -0.07568010607962712,
        -0.01535126689160543,
        0.06042875172251618,
        -0.10989669109334799,
        -0.13123814033040843,
        0.0016550732636790597,
        -0.11828619364924227,
        0.12910192735845533,
        -0.4159967158127671,
        0.06576520185827804,
        0.061337675226818794,
        -0.5983633395249074,
        -0.011400766008700115,
        0.5921811050097918,
        -0.39079004472779494,
        0.3623456611726839,
        -1.5579080119048063,
        0.02882790785632897,
        0.23723777657047343,
        0.3792824070368889,
        -0.012235724987409245,
        0.05460293380568611,
        -0.05751271807400131,
        -0.019607781922594207,
        -0.0008175042401984032,
        0.24530511109660683,
        0.12198209350931809,
        -0.39853751575643065,
        0.050121444496464745,
        0.06052614968666714,
        -0.43221527257806247,
        -0.023720403528018557,
        0.3498692893955305,
        -0.18874985821255932,
        0.45615209177792376,
        -1.7722867726710598,
        0.026920690060007208,
        0.15811463687350957,
        0.7383991356313395,
        -0.012786881403904644,
        0.053021893703048564,
        0.06653973457978071,
        0.026101253279643112,
        -0.000558016229963178,
        -0.2523556434674729,
        0.12565940590805263,
        -0.44374005127884386,
        0.0324291437311919,
        0.06024574645723425,
        -0.19462524779477064,
        -0.03106607668898565,
        0.2249312801986088
      ],
      "bias": 0,
      "kind": "rl_linear_q",
      "qWeights": [
        [
          0.12891125294584624,
          0.315658094992966,
          -2.236394805158166,
          0.028526120367935535,
          0.38917988144924587,
          -0.07568010607962712,
          -0.01535126689160543,
          0.06042875172251618,
          -0.10989669109334799,
          -0.13123814033040843,
          0.0016550732636790597,
          -0.11828619364924227,
          0.12910192735845533,
          -0.4159967158127671,
          0.06576520185827804,
          0.061337675226818794,
          -0.5983633395249074,
          -0.011400766008700115,
          0.5921811050097918
        ],
        [
          -0.39079004472779494,
          0.3623456611726839,
          -1.5579080119048063,
          0.02882790785632897,
          0.23723777657047343,
          0.3792824070368889,
          -0.012235724987409245,
          0.05460293380568611,
          -0.05751271807400131,
          -0.019607781922594207,
          -0.0008175042401984032,
          0.24530511109660683,
          0.12198209350931809,
          -0.39853751575643065,
          0.050121444496464745,
          0.06052614968666714,
          -0.43221527257806247,
          -0.023720403528018557,
          0.3498692893955305
        ],
        [
          -0.18874985821255932,
          0.45615209177792376,
          -1.7722867726710598,
          0.026920690060007208,
          0.15811463687350957,
          0.7383991356313395,
          -0.012786881403904644,
          0.053021893703048564,
          0.06653973457978071,
          0.026101253279643112,
          -0.000558016229963178,
          -0.2523556434674729,
          0.12565940590805263,
          -0.44374005127884386,
          0.0324291437311919,
          0.06024574645723425,
          -0.19462524779477064,
          -0.03106607668898565,
          0.2249312801986088
        ]
      ],
      "qBias": [
        -0.05698767013141231,
        -0.05097116461166518,
        -0.039553036743893565
      ],
      "training": {
        "episodes": 4,
        "avgEpisodeReward": 1.8335989367243817,
        "warmStartModelId": "f1bfe959-544d-42b2-bed5-9aaafc7ed262",
        "pretrainEpisodes": 150,
        "replayEpisodes": 0
      },
      "metrics": {
        "accuracy": 0.5532407407407407,
        "f1": 16.204959156219402,
        "precision": 0.9983910537232565,
        "recall": 6.286135629989387
      },
      "evaluation": {
        "walkForwardSharpe": 6.039631705344826,
        "walkForwardProfitFactor": 50,
        "walkForwardMaxDrawdown": 0.0006152218314532763,
        "paperWindowProfitFactor": 50,
        "paperWindowSharpe": 22.55400681027805,
        "paperWindowNetPnl": 823.4365973447057,
        "paperWindowTrades": 64,
        "unseenProfitFactor": 0,
        "unseenSharpe": 0,
        "unseenNetPnl": 0,
        "unseenTrades": 0,
        "inSampleWinRate": 0.5532407407407407,
        "inSampleNetPnl": 1184.1656383758527
      }
    },
    {
      "id": "f1bfe959-544d-42b2-bed5-9aaafc7ed262",
      "createdAt": 1772142506709,
      "stage": "challenger",
      "source": "rl_offline_q_learning",
      "featureNames": [
        "returns",
        "volatility",
        "atr_norm",
        "rsi_norm",
        "ema_spread",
        "macd_hist_norm",
        "bb_pos",
        "adx_norm",
        "mom_3",
        "mom_12",
        "volume_z",
        "flow_imbalance",
        "returns_autocorr",
        "ema34_dist",
        "hurst_proxy",
        "bb_squeeze",
        "cross_trend_mom3",
        "cross_trend_rsi",
        "cross_vol_bbpos"
      ],
      "weights": [
        0.11660430625177302,
        0.3128553375868532,
        -2.16163893818165,
        0.03740839403250082,
        0.34090060515600107,
        -0.05385551998139443,
        -0.027040880984177108,
        0.05687590173527304,
        -0.11121267253014164,
        -0.1635700257479373,
        0.003993347811503663,
        -0.11828619364924227,
        0.13503647806582436,
        -0.4826478325394585,
        0.04534936961229994,
        0.061118160208007706,
        -0.5772115372500715,
        -0.00008659021199137355,
        0.5866625852292062,
        -0.40642968987218353,
        0.3353062803000937,
        -1.4794914565082342,
        0.03860441314597495,
        0.20102819125895124,
        0.3968741173258074,
        -0.025549146499866525,
        0.05107799380049736,
        -0.018823764511191502,
        -0.015066347970567967,
        0.0006123720079918402,
        0.24530511109660683,
        0.13371785900820396,
        -0.477616658500312,
        0.0511601459216931,
        0.06632488658794224,
        -0.4020418534552744,
        -0.023775898907264705,
        0.3357066462756403,
        -0.19926170093909967,
        0.43896740017324426,
        -1.7172801850755601,
        0.052565142397456986,
        0.12484779471681941,
        0.7301595772621777,
        -0.032193286459192894,
        0.054877801920718595,
        0.10086906446751166,
        0.030748965681035183,
        0.00007889876371726265,
        -0.2523556434674729,
        0.13201128915628965,
        -0.5319476380226016,
        0.02286966466964871,
        0.06400490826992375,
        -0.15360664450848255,
        -0.03937112779246662,
        0.22915255229519876
      ],
      "bias": 0,
      "kind": "rl_linear_q",
      "qWeights": [
        [
          0.11660430625177302,
          0.3128553375868532,
          -2.16163893818165,
          0.03740839403250082,
          0.34090060515600107,
          -0.05385551998139443,
          -0.027040880984177108,
          0.05687590173527304,
          -0.11121267253014164,
          -0.1635700257479373,
          0.003993347811503663,
          -0.11828619364924227,
          0.13503647806582436,
          -0.4826478325394585,
          0.04534936961229994,
          0.061118160208007706,
          -0.5772115372500715,
          -0.00008659021199137355,
          0.5866625852292062
        ],
        [
          -0.40642968987218353,
          0.3353062803000937,
          -1.4794914565082342,
          0.03860441314597495,
          0.20102819125895124,
          0.3968741173258074,
          -0.025549146499866525,
          0.05107799380049736,
          -0.018823764511191502,
          -0.015066347970567967,
          0.0006123720079918402,
          0.24530511109660683,
          0.13371785900820396,
          -0.477616658500312,
          0.0511601459216931,
          0.06632488658794224,
          -0.4020418534552744,
          -0.023775898907264705,
          0.3357066462756403
        ],
        [
          -0.19926170093909967,
          0.43896740017324426,
          -1.7172801850755601,
          0.052565142397456986,
          0.12484779471681941,
          0.7301595772621777,
          -0.032193286459192894,
          0.054877801920718595,
          0.10086906446751166,
          0.030748965681035183,
          0.00007889876371726265,
          -0.2523556434674729,
          0.13201128915628965,
          -0.5319476380226016,
          0.02286966466964871,
          0.06400490826992375,
          -0.15360664450848255,
          -0.03937112779246662,
          0.22915255229519876
        ]
      ],
      "qBias": [
        -0.04020458972111035,
        -0.04759634115833763,
        -0.03418750243833266
      ],
      "training": {
        "episodes": 4,
        "avgEpisodeReward": 2.1101005301824225,
        "warmStartModelId": "192444e3-b269-4bed-a939-cbab6cb7449a",
        "pretrainEpisodes": 150,
        "replayEpisodes": 0
      },
      "metrics": {
        "accuracy": 0.5503105590062112,
        "f1": 12.148677230980228,
        "precision": 0.9983717120927217,
        "recall": 5.974364670333008
      },
      "evaluation": {
        "walkForwardSharpe": 0.7822377628931498,
        "walkForwardProfitFactor": 1.5448542698198924,
        "walkForwardMaxDrawdown": 0.004716966843346299,
        "paperWindowProfitFactor": 50,
        "paperWindowSharpe": 24.096098100668726,
        "paperWindowNetPnl": 848.3853736369601,
        "paperWindowTrades": 94,
        "unseenProfitFactor": 0,
        "unseenSharpe": 0,
        "unseenNetPnl": 0,
        "unseenTrades": 0,
        "inSampleWinRate": 0.5503105590062112,
        "inSampleNetPnl": 1192.2716772688764
      }
    },
    {
      "id": "192444e3-b269-4bed-a939-cbab6cb7449a",
      "createdAt": 1772142443963,
      "stage": "challenger",
      "source": "rl_offline_q_learning",
      "featureNames": [
        "returns",
        "volatility",
        "atr_norm",
        "rsi_norm",
        "ema_spread",
        "macd_hist_norm",
        "bb_pos",
        "adx_norm",
        "mom_3",
        "mom_12",
        "volume_z",
        "flow_imbalance",
        "returns_autocorr",
        "ema34_dist",
        "hurst_proxy",
        "bb_squeeze",
        "cross_trend_mom3",
        "cross_trend_rsi",
        "cross_vol_bbpos"
      ],
      "weights": [
        0.10411584556218817,
        0.30414373563914615,
        -2.106944758601181,
        0.009525523093327519,
        0.3049530983329748,
        -0.0241628148122936,
        0.000006460904123431718,
        0.055220843980689355,
        -0.07131052370252498,
        -0.11476595230926816,
        0.0006690407385419291,
        -0.11828619364924227,
        0.13394817508668963,
        -0.5126277228796399,
        0.055695569704463814,
        0.05587537382930054,
        -0.5330635898870599,
        0.014239412169615377,
        0.5851435883455556,
        -0.4158542701913577,
        0.3273520381922847,
        -1.4087145659456257,
        0.016760628208467618,
        0.2036893599104193,
        0.40886826285661393,
        -0.0020833784373357257,
        0.055827356670601916,
        0.007566989527441394,
        0.018085200740343338,
        0.0006071907455642611,
        0.24530511109660683,
        0.13587970870398264,
        -0.494417768919362,
        0.04896298470470556,
        0.07057204901836071,
        -0.3719146451205754,
        -0.012251526852389389,
        0.32510629447978295,
        -0.21019014328704633,
        0.4263514670231119,
        -1.6740644049506586,
        0.02262556294944769,
        0.11234981906946308,
        0.7218713379253026,
        -0.0017668433639327467,
        0.06738980723988555,
        0.145459923449075,
        0.07525952030683848,
        0.0014550440013192082,
        -0.2523556434674729,
        0.1312239885235448,
        -0.5971334235432438,
        0.02572818898306376,
        0.07220188283294862,
        -0.09980784477217162,
        -0.015131811517337371,
        0.19856498523229346
      ],
      "bias": 0,
      "kind": "rl_linear_q",
      "qWeights": [
        [
          0.10411584556218817,
          0.30414373563914615,
          -2.106944758601181,
          0.009525523093327519,
          0.3049530983329748,
          -0.0241628148122936,
          0.000006460904123431718,
          0.055220843980689355,
          -0.07131052370252498,
          -0.11476595230926816,
          0.0006690407385419291,
          -0.11828619364924227,
          0.13394817508668963,
          -0.5126277228796399,
          0.055695569704463814,
          0.05587537382930054,
          -0.5330635898870599,
          0.014239412169615377,
          0.5851435883455556
        ],
        [
          -0.4158542701913577,
          0.3273520381922847,
          -1.4087145659456257,
          0.016760628208467618,
          0.2036893599104193,
          0.40886826285661393,
          -0.0020833784373357257,
          0.055827356670601916,
          0.007566989527441394,
          0.018085200740343338,
          0.0006071907455642611,
          0.24530511109660683,
          0.13587970870398264,
          -0.494417768919362,
          0.04896298470470556,
          0.07057204901836071,
          -0.3719146451205754,
          -0.012251526852389389,
          0.32510629447978295
        ],
        [
          -0.21019014328704633,
          0.4263514670231119,
          -1.6740644049506586,
          0.02262556294944769,
          0.11234981906946308,
          0.7218713379253026,
          -0.0017668433639327467,
          0.06738980723988555,
          0.145459923449075,
          0.07525952030683848,
          0.0014550440013192082,
          -0.2523556434674729,
          0.1312239885235448,
          -0.5971334235432438,
          0.02572818898306376,
          0.07220188283294862,
          -0.09980784477217162,
          -0.015131811517337371,
          0.19856498523229346
        ]
      ],
      "qBias": [
        -0.0424173414388699,
        -0.05378571144374247,
        -0.048573171424855975
      ],
      "training": {
        "episodes": 4,
        "avgEpisodeReward": 1.7777987392309926,
        "warmStartModelId": "0c5b9115-1401-43a5-ab69-830a41f9dcfe",
        "pretrainEpisodes": 150,
        "replayEpisodes": 0
      },
      "metrics": {
        "accuracy": 0.5852417302798982,
        "f1": 15.149753081958101,
        "precision": 0.9979936719299641,
        "recall": 6.283353090589972
      },
      "evaluation": {
        "walkForwardSharpe": -4.624923481331447,
        "walkForwardProfitFactor": 0.2376956700702485,
        "walkForwardMaxDrawdown": 0.0498431824717195,
        "paperWindowProfitFactor": 50,
        "paperWindowSharpe": 25.02275802431082,
        "paperWindowNetPnl": 861.552003500994,
        "paperWindowTrades": 51,
        "unseenProfitFactor": 0,
        "unseenSharpe": 0,
        "unseenNetPnl": 0,
        "unseenTrades": 0,
        "inSampleWinRate": 0.5852417302798982,
        "inSampleNetPnl": 1210.2895935946253
      }
    },
    {
      "id": "0c5b9115-1401-43a5-ab69-830a41f9dcfe",
      "createdAt": 1772142380698,
      "stage": "challenger",
      "source": "rl_offline_q_learning",
      "featureNames": [
        "returns",
        "volatility",
        "atr_norm",
        "rsi_norm",
        "ema_spread",
        "macd_hist_norm",
        "bb_pos",
        "adx_norm",
        "mom_3",
        "mom_12",
        "volume_z",
        "flow_imbalance",
        "returns_autocorr",
        "ema34_dist",
        "hurst_proxy",
        "bb_squeeze",
        "cross_trend_mom3",
        "cross_trend_rsi",
        "cross_vol_bbpos"
      ],
      "weights": [
        0.09545189300916,
        0.31447341083500907,
        -2.028325143047761,
        0.007174563612421809,
        0.29320304477127024,
        -0.003935490916635957,
        -0.0026722099275883577,
        0.05574384293749126,
        -0.031278083115269584,
        -0.06543989397075706,
        0.0003196942133230979,
        -0.11828619364924227,
        0.1489071355386783,
        -0.4976496809985751,
        0.05473896356600433,
        0.07058704881085433,
        -0.5065707125586777,
        0.022988040373664042,
        0.5784502817598267,
        -0.4245019595824835,
        0.3133163669292065,
        -1.3281907743691967,
        0.015312230289814805,
        0.20685003456398615,
        0.41517564281320973,
        -0.0037011145651758164,
        0.055466679724856534,
        0.048698068291910084,
        0.04264488762133753,
        -0.0004670601735885517,
        0.24530511109660683,
        0.14773233537810437,
        -0.502549172402395,
        0.047424067039993696,
        0.07836678378916241,
        -0.3544572955409048,
        0.0023474655015674577,
        0.31198443791244185,
        -0.2139293029030349,
        0.42539758812267026,
        -1.5813829042696634,
        0.00878018550322751,
        0.11212057386852364,
        0.7018824141621867,
        -0.0015047865936131707,
        0.05770550597068943,
        0.19364429335894381,
        0.12047030272431095,
        0.00317892369217531,
        -0.2523556434674729,
        0.14226551521765948,
        -0.6110490338954893,
        0.033566957442189155,
        0.07400184416533123,
        -0.06378790157828004,
        0.0014307149466782992,
        0.20288504268253346
      ],
      "bias": 0,
      "kind": "rl_linear_q",
      "qWeights": [
        [
          0.09545189300916,
          0.31447341083500907,
          -2.028325143047761,
          0.007174563612421809,
          0.29320304477127024,
          -0.003935490916635957,
          -0.0026722099275883577,
          0.05574384293749126,
          -0.031278083115269584,
          -0.06543989397075706,
          0.0003196942133230979,
          -0.11828619364924227,
          0.1489071355386783,
          -0.4976496809985751,
          0.05473896356600433,
          0.07058704881085433,
          -0.5065707125586777,
          0.022988040373664042,
          0.5784502817598267
        ],
        [
          -0.4245019595824835,
          0.3133163669292065,
          -1.3281907743691967,
          0.015312230289814805,
          0.20685003456398615,
          0.41517564281320973,
          -0.0037011145651758164,
          0.055466679724856534,
          0.048698068291910084,
          0.04264488762133753,
          -0.0004670601735885517,
          0.24530511109660683,
          0.14773233537810437,
          -0.502549172402395,
          0.047424067039993696,
          0.07836678378916241,
          -0.3544572955409048,
          0.0023474655015674577,
          0.31198443791244185
        ],
        [
          -0.2139293029030349,
          0.42539758812267026,
          -1.5813829042696634,
          0.00878018550322751,
          0.11212057386852364,
          0.7018824141621867,
          -0.0015047865936131707,
          0.05770550597068943,
          0.19364429335894381,
          0.12047030272431095,
          0.00317892369217531,
          -0.2523556434674729,
          0.14226551521765948,
          -0.6110490338954893,
          0.033566957442189155,
          0.07400184416533123,
          -0.06378790157828004,
          0.0014307149466782992,
          0.20288504268253346
        ]
      ],
      "qBias": [
        -0.0501260468142824,
        -0.056923514571427886,
        -0.047658973134934925
      ],
      "training": {
        "episodes": 4,
        "avgEpisodeReward": 1.89948587402416,
        "warmStartModelId": "56ccee95-210b-4d64-89fa-2e42ac033d95",
        "pretrainEpisodes": 150,
        "replayEpisodes": 0
      },
      "metrics": {
        "accuracy": 0.6303939962476548,
        "f1": 16.981170212854593,
        "precision": 0.9989499010690758,
        "recall": 5.930915328619863
      },
      "evaluation": {
        "walkForwardSharpe": 5.9760002750419146,
        "walkForwardProfitFactor": 5.9885518172257175,
        "walkForwardMaxDrawdown": 0.0013675182292045797,
        "paperWindowProfitFactor": 50,
        "paperWindowSharpe": 21.375411102119546,
        "paperWindowNetPnl": 761.878698278244,
        "paperWindowTrades": 120,
        "unseenProfitFactor": 0,
        "unseenSharpe": 0,
        "unseenNetPnl": 0,
        "unseenTrades": 0,
        "inSampleWinRate": 0.6303939962476548,
        "inSampleNetPnl": 1129.1003462624867
      }
    },
    {
      "id": "56ccee95-210b-4d64-89fa-2e42ac033d95",
      "createdAt": 1772142317031,
      "stage": "challenger",
      "source": "rl_offline_q_learning",
      "featureNames": [
        "returns",
        "volatility",
        "atr_norm",
        "rsi_norm",
        "ema_spread",
        "macd_hist_norm",
        "bb_pos",
        "adx_norm",
        "mom_3",
        "mom_12",
        "volume_z",
        "flow_imbalance",
        "returns_autocorr",
        "ema34_dist",
        "hurst_proxy",
        "bb_squeeze",
        "cross_trend_mom3",
        "cross_trend_rsi",
        "cross_vol_bbpos"
      ],
      "weights": [
        0.10774454631663576,
        0.2922107476604329,
        -1.9391289201252218,
        -0.009187039004046372,
        0.3548789120295466,
        -0.02091451962929199,
        0.008137811945217507,
        0.05779376194522638,
        -0.07658695821073443,
        -0.08873357103598413,
        0.0007869874000430752,
        -0.11828619364924227,
        0.13618664183397086,
        -0.34009676522892857,
        0.037323783252552215,
        0.06268433861555693,
        -0.5505582421020271,
        0.028350886180931033,
        0.5462824782876131,
        -0.4121900670936316,
        0.3122377922550571,
        -1.2349641762080246,
        0.012028693550885088,
        0.28911514258874466,
        0.38445562170439446,
        0.005340247370412779,
        0.059073738813494224,
        0.005095651611972006,
        0.02197822208060033,
        -0.0008839089896181943,
        0.24530511109660683,
        0.13615712811469052,
        -0.35872366707901315,
        0.03640531070968516,
        0.07320680261816008,
        -0.3905260644198456,
        -0.007807548472624935,
        0.2787719873414769,
        -0.1963003118064708,
        0.4222443127875176,
        -1.4822952521063983,
        0.009146283229138734,
        0.20601095484976129,
        0.6423060442804333,
        0.009956739362778258,
        0.05904985271553977,
        0.14124106548991813,
        0.09866030265603436,
        -0.0005392963251877104,
        -0.2523556434674729,
        0.13383454230266073,
        -0.456952010669565,
        0.02151015645866253,
        0.06546460019187045,
        -0.09027313785514998,
        -0.013308482630002273,
        0.17179577460134177
      ],
      "bias": 0,
      "kind": "rl_linear_q",
      "qWeights": [
        [
          0.10774454631663576,
          0.2922107476604329,
          -1.9391289201252218,
          -0.009187039004046372,
          0.3548789120295466,
          -0.02091451962929199,
          0.008137811945217507,
          0.05779376194522638,
          -0.07658695821073443,
          -0.08873357103598413,
          0.0007869874000430752,
          -0.11828619364924227,
          0.13618664183397086,
          -0.34009676522892857,
          0.037323783252552215,
          0.06268433861555693,
          -0.5505582421020271,
          0.028350886180931033,
          0.5462824782876131
        ],
        [
          -0.4121900670936316,
          0.3122377922550571,
          -1.2349641762080246,
          0.012028693550885088,
          0.28911514258874466,
          0.38445562170439446,
          0.005340247370412779,
          0.059073738813494224,
          0.005095651611972006,
          0.02197822208060033,
          -0.0008839089896181943,
          0.24530511109660683,
          0.13615712811469052,
          -0.35872366707901315,
          0.03640531070968516,
          0.07320680261816008,
          -0.3905260644198456,
          -0.007807548472624935,
          0.2787719873414769
        ],
        [
          -0.1963003118064708,
          0.4222443127875176,
          -1.4822952521063983,
          0.009146283229138734,
          0.20601095484976129,
          0.6423060442804333,
          0.009956739362778258,
          0.05904985271553977,
          0.14124106548991813,
          0.09866030265603436,
          -0.0005392963251877104,
          -0.2523556434674729,
          0.13383454230266073,
          -0.456952010669565,
          0.02151015645866253,
          0.06546460019187045,
          -0.09027313785514998,
          -0.013308482630002273,
          0.17179577460134177
        ]
      ],
      "qBias": [
        -0.036807557990177354,
        -0.05359915064253477,
        -0.03896068127574284
      ],
      "training": {
        "episodes": 4,
        "avgEpisodeReward": 1.8871101372654362,
        "warmStartModelId": "a7eeffe4-5f51-4d90-b8b5-dd987ffb51a2",
        "pretrainEpisodes": 150,
        "replayEpisodes": 0
      },
      "metrics": {
        "accuracy": 0.508,
        "f1": 12.179518159046777,
        "precision": 0.9978294284868993,
        "recall": 5.958944997621818
      },
      "evaluation": {
        "walkForwardSharpe": 4.204414095968813,
        "walkForwardProfitFactor": 3.4098255209106507,
        "walkForwardMaxDrawdown": 0.001694878934512631,
        "paperWindowProfitFactor": 50,
        "paperWindowSharpe": 23.966180647895577,
        "paperWindowNetPnl": 850.3415207584658,
        "paperWindowTrades": 65,
        "unseenProfitFactor": 0,
        "unseenSharpe": 0,
        "unseenNetPnl": 0,
        "unseenTrades": 0,
        "inSampleWinRate": 0.508,
        "inSampleNetPnl": 1183.396947302048
      }
    },
    {
      "id": "a7eeffe4-5f51-4d90-b8b5-dd987ffb51a2",
      "createdAt": 1772142253379,
      "stage": "challenger",
      "source": "rl_offline_q_learning",
      "featureNames": [
        "returns",
        "volatility",
        "atr_norm",
        "rsi_norm",
        "ema_spread",
        "macd_hist_norm",
        "bb_pos",
        "adx_norm",
        "mom_3",
        "mom_12",
        "volume_z",
        "flow_imbalance",
        "returns_autocorr",
        "ema34_dist",
        "hurst_proxy",
        "bb_squeeze",
        "cross_trend_mom3",
        "cross_trend_rsi",
        "cross_vol_bbpos"
      ],
      "weights": [
        0.11689625136962907,
        0.27964972932761506,
        -1.8698672926281878,
        0.0030420326100769326,
        0.4085960873503564,
        -0.03088288677933288,
        0.0041769680917360195,
        0.06179926766331289,
        -0.16501528587982553,
        -0.13974989265316526,
        0.0011511128553635232,
        -0.11828619364924227,
        0.12886001635871655,
        -0.22380669371100465,
        0.057728943962175164,
        0.059665129361684686,
        -0.5846371589771516,
        0.011284425306577616,
        0.5241457911641849,
        -0.4003476901385596,
        0.30774716629701765,
        -1.1494300704198812,
        0.008381242098980295,
        0.3655276810307132,
        0.3542947529351014,
        0.001565790496333616,
        0.0627010387781746,
        -0.0636222119804603,
        -0.021645341444704782,
        0.0009581653269761766,
        0.24530511109660683,
        0.1251936819458224,
        -0.2337356140922919,
        0.04788315310249584,
        0.06671678494734425,
        -0.4263619611352557,
        -0.008134240534966858,
        0.2470143651781901,
        -0.18059842457756933,
        0.42644924728550004,
        -1.3970628815950112,
        0.018390006907672188,
        0.29515447469472056,
        0.5844475896210184,
        -0.004147136039396267,
        0.06322255331951816,
        0.0762338007022179,
        0.04924183791611457,
        0.0007707714436646504,
        -0.2523556434674729,
        0.12553233343696268,
        -0.3274146318968737,
        0.025578828435003767,
        0.06265657986256766,
        -0.11050689084851562,
        -0.018815660912715696,
        0.12899254615632816
      ],
      "bias": 0,
      "kind": "rl_linear_q",
      "qWeights": [
        [
          0.11689625136962907,
          0.27964972932761506,
          -1.8698672926281878,
          0.0030420326100769326,
          0.4085960873503564,
          -0.03088288677933288,
          0.0041769680917360195,
          0.06179926766331289,
          -0.16501528587982553,
          -0.13974989265316526,
          0.0011511128553635232,
          -0.11828619364924227,
          0.12886001635871655,
          -0.22380669371100465,
          0.057728943962175164,
          0.059665129361684686,
          -0.5846371589771516,
          0.011284425306577616,
          0.5241457911641849
        ],
        [
          -0.4003476901385596,
          0.30774716629701765,
          -1.1494300704198812,
          0.008381242098980295,
          0.3655276810307132,
          0.3542947529351014,
          0.001565790496333616,
          0.0627010387781746,
          -0.0636222119804603,
          -0.021645341444704782,
          0.0009581653269761766,
          0.24530511109660683,
          0.1251936819458224,
          -0.2337356140922919,
          0.04788315310249584,
          0.06671678494734425,
          -0.4263619611352557,
          -0.008134240534966858,
          0.2470143651781901
        ],
        [
          -0.18059842457756933,
          0.42644924728550004,
          -1.3970628815950112,
          0.018390006907672188,
          0.29515447469472056,
          0.5844475896210184,
          -0.004147136039396267,
          0.06322255331951816,
          0.0762338007022179,
          0.04924183791611457,
          0.0007707714436646504,
          -0.2523556434674729,
          0.12553233343696268,
          -0.3274146318968737,
          0.025578828435003767,
          0.06265657986256766,
          -0.11050689084851562,
          -0.018815660912715696,
          0.12899254615632816
        ]
      ],
      "qBias": [
        -0.05181088265188091,
        -0.056380396701289616,
        -0.04154470423230486
      ],
      "training": {
        "episodes": 4,
        "avgEpisodeReward": 1.9946131406525813,
        "warmStartModelId": "cd2482fc-db72-45fa-b372-122cc531700a",
        "pretrainEpisodes": 152,
        "replayEpisodes": 0
      },
      "metrics": {
        "accuracy": 0.6289156626506024,
        "f1": 17.616543359472434,
        "precision": 0.9990298430285346,
        "recall": 6.360195841694695
      },
      "evaluation": {
        "walkForwardSharpe": -8.08656905478763,
        "walkForwardProfitFactor": 0.07290645750607969,
        "walkForwardMaxDrawdown": 0.07166609573768563,
        "paperWindowProfitFactor": 50,
        "paperWindowSharpe": 27.373672432088636,
        "paperWindowNetPnl": 889.6904054333008,
        "paperWindowTrades": 52,
        "unseenProfitFactor": 0,
        "unseenSharpe": 0,
        "unseenNetPnl": 0,
        "unseenTrades": 0,
        "inSampleWinRate": 0.6289156626506024,
        "inSampleNetPnl": 1301.3657221886642
      }
    },
    {
      "id": "cd2482fc-db72-45fa-b372-122cc531700a",
      "createdAt": 1772142189512,
      "stage": "challenger",
      "source": "rl_offline_q_learning",
      "featureNames": [
        "returns",
        "volatility",
        "atr_norm",
        "rsi_norm",
        "ema_spread",
        "macd_hist_norm",
        "bb_pos",
        "adx_norm",
        "mom_3",
        "mom_12",
        "volume_z",
        "flow_imbalance",
        "returns_autocorr",
        "ema34_dist",
        "hurst_proxy",
        "bb_squeeze",
        "cross_trend_mom3",
        "cross_trend_rsi",
        "cross_vol_bbpos"
      ],
      "weights": [
        0.1208418065660823,
        0.276712246565518,
        -1.8071444407084643,
        0.016399696675751595,
        0.4299986956235864,
        -0.036944872804543914,
        -0.011690883527328739,
        0.06450808730975303,
        -0.2645033934659676,
        -0.23768246571739896,
        0.000465931096846312,
        -0.11828619364924227,
        0.1310780310385277,
        -0.16905121212425017,
        0.0798823794214907,
        0.06448477473041377,
        -0.5975854793548272,
        0.012513866417276403,
        0.47440028035287424,
        -0.4001919035198921,
        0.29264588303911754,
        -1.0648766924418283,
        0.032691527575653405,
        0.39294168991388206,
        0.3437877022204586,
        -0.016646972307686067,
        0.065594700747664,
        -0.121728405727779,
        -0.07235253417801481,
        0.002092029540991819,
        0.24530511109660683,
        0.1259251286654348,
        -0.20698735393558115,
        0.08390936398291604,
        0.07260255103163783,
        -0.4364701729825713,
        -0.03297701282194161,
        0.21357449306824752,
        -0.1760394244279446,
        0.43083097231843387,
        -1.326038068048435,
        0.025525210337971033,
        0.33386283466703265,
        0.5474464754467354,
        -0.009162516548643761,
        0.07066350052652279,
        0.013150541411630568,
        0.006938383122489641,
        -0.0005782872359416442,
        -0.2523556434674729,
        0.12696813696850243,
        -0.29734311379256634,
        0.03929857655539093,
        0.07390744196577685,
        -0.1013247893831413,
        -0.03562233644580796,
        0.0876423633786958
      ],
      "bias": 0,
      "kind": "rl_linear_q",
      "qWeights": [
        [
          0.1208418065660823,
          0.276712246565518,
          -1.8071444407084643,
          0.016399696675751595,
          0.4299986956235864,
          -0.036944872804543914,
          -0.011690883527328739,
          0.06450808730975303,
          -0.2645033934659676,
          -0.23768246571739896,
          0.000465931096846312,
          -0.11828619364924227,
          0.1310780310385277,
          -0.16905121212425017,
          0.0798823794214907,
          0.06448477473041377,
          -0.5975854793548272,
          0.012513866417276403,
          0.47440028035287424
        ],
        [
          -0.4001919035198921,
          0.29264588303911754,
          -1.0648766924418283,
          0.032691527575653405,
          0.39294168991388206,
          0.3437877022204586,
          -0.016646972307686067,
          0.065594700747664,
          -0.121728405727779,
          -0.07235253417801481,
          0.002092029540991819,
          0.24530511109660683,
          0.1259251286654348,
          -0.20698735393558115,
          0.08390936398291604,
          0.07260255103163783,
          -0.4364701729825713,
          -0.03297701282194161,
          0.21357449306824752
        ],
        [
          -0.1760394244279446,
          0.43083097231843387,
          -1.326038068048435,
          0.025525210337971033,
          0.33386283466703265,
          0.5474464754467354,
          -0.009162516548643761,
          0.07066350052652279,
          0.013150541411630568,
          0.006938383122489641,
          -0.0005782872359416442,
          -0.2523556434674729,
          0.12696813696850243,
          -0.29734311379256634,
          0.03929857655539093,
          0.07390744196577685,
          -0.1013247893831413,
          -0.03562233644580796,
          0.0876423633786958
        ]
      ],
      "qBias": [
        -0.06659442888496467,
        -0.08357908553532968,
        -0.05708195559360134
      ],
      "training": {
        "episodes": 4,
        "avgEpisodeReward": 1.9198164554660295,
        "warmStartModelId": "aaec9305-da48-4db9-9d5c-2a6a797628b6",
        "pretrainEpisodes": 150,
        "replayEpisodes": 0
      },
      "metrics": {
        "accuracy": 0.5551724137931034,
        "f1": 11.048402304317056,
        "precision": 0.9976985121879928,
        "recall": 6.157017269753704
      },
      "evaluation": {
        "walkForwardSharpe": -1.9128311081840677,
        "walkForwardProfitFactor": 0.45294327305597154,
        "walkForwardMaxDrawdown": 0.017637900260471545,
        "paperWindowProfitFactor": 50,
        "paperWindowSharpe": 26.065973832202012,
        "paperWindowNetPnl": 876.2202420369613,
        "paperWindowTrades": 70,
        "unseenProfitFactor": 0,
        "unseenSharpe": 0,
        "unseenNetPnl": 0,
        "unseenTrades": 0,
        "inSampleWinRate": 0.5551724137931034,
        "inSampleNetPnl": 1221.0645121375856
      }
    },
    {
      "id": "cd2d17cd-51ad-49f2-a498-3ea9e627d74d",
      "createdAt": 1772142062148,
      "stage": "challenger",
      "source": "rl_offline_q_learning",
      "featureNames": [
        "returns",
        "volatility",
        "atr_norm",
        "rsi_norm",
        "ema_spread",
        "macd_hist_norm",
        "bb_pos",
        "adx_norm",
        "mom_3",
        "mom_12",
        "volume_z",
        "flow_imbalance",
        "returns_autocorr",
        "ema34_dist",
        "hurst_proxy",
        "bb_squeeze",
        "cross_trend_mom3",
        "cross_trend_rsi",
        "cross_vol_bbpos"
      ],
      "weights": [
        0.08937797951045796,
        0.21811880834906816,
        -1.64149286498286,
        0.029531396754755954,
        0.2994232890763041,
        0.031646631100713155,
        -0.00930899346939072,
        0.08405994583538677,
        -0.202547346514598,
        -0.18529125407831432,
        0.0035968337665859386,
        -0.11828619364924227,
        0.12885421733010077,
        -0.2793472808041466,
        0.05801842725526534,
        0.07954108585265211,
        -0.49751366254159296,
        -0.00030160975121401823,
        0.43657551718836946,
        -0.4317333623265237,
        0.222983981386285,
        -0.898883749512954,
        0.036901068376630486,
        0.3189046174707398,
        0.3849659524794424,
        -0.009119584094690282,
        0.08604701846375298,
        -0.09396506581698882,
        -0.020780267054653894,
        0.0006877853678022265,
        0.24530511109660683,
        0.12384861599865807,
        -0.37249591244864566,
        0.0561718184835619,
        0.08815806824342981,
        -0.36983551187068586,
        -0.027623854261201054,
        0.18811512862578886,
        -0.19860485113889012,
        0.33372136282538656,
        -1.1850250991458957,
        0.0507819583678146,
        0.26142873907265357,
        0.5309410396345859,
        -0.01641442303387547,
        0.08639179773052312,
        0.06971023099909546,
        0.04642063326162938,
        -0.000509886238122276,
        -0.2523556434674729,
        0.12445607779342725,
        -0.4717536221462263,
        0.03770485527166191,
        0.08274202178574717,
        -0.0002369097463867597,
        -0.03780564250874395,
        0.031112858682302156
      ],
      "bias": 0,
      "kind": "rl_linear_q",
      "qWeights": [
        [
          0.08937797951045796,
          0.21811880834906816,
          -1.64149286498286,
          0.029531396754755954,
          0.2994232890763041,
          0.031646631100713155,
          -0.00930899346939072,
          0.08405994583538677,
          -0.202547346514598,
          -0.18529125407831432,
          0.0035968337665859386,
          -0.11828619364924227,
          0.12885421733010077,
          -0.2793472808041466,
          0.05801842725526534,
          0.07954108585265211,
          -0.49751366254159296,
          -0.00030160975121401823,
          0.43657551718836946
        ],
        [
          -0.4317333623265237,
          0.222983981386285,
          -0.898883749512954,
          0.036901068376630486,
          0.3189046174707398,
          0.3849659524794424,
          -0.009119584094690282,
          0.08604701846375298,
          -0.09396506581698882,
          -0.020780267054653894,
          0.0006877853678022265,
          0.24530511109660683,
          0.12384861599865807,
          -0.37249591244864566,
          0.0561718184835619,
          0.08815806824342981,
          -0.36983551187068586,
          -0.027623854261201054,
          0.18811512862578886
        ],
        [
          -0.19860485113889012,
          0.33372136282538656,
          -1.1850250991458957,
          0.0507819583678146,
          0.26142873907265357,
          0.5309410396345859,
          -0.01641442303387547,
          0.08639179773052312,
          0.06971023099909546,
          0.04642063326162938,
          -0.000509886238122276,
          -0.2523556434674729,
          0.12445607779342725,
          -0.4717536221462263,
          0.03770485527166191,
          0.08274202178574717,
          -0.0002369097463867597,
          -0.03780564250874395,
          0.031112858682302156
        ]
      ],
      "qBias": [
        -0.08439751819481833,
        -0.09234842747356739,
        -0.07975775232550311
      ],
      "training": {
        "episodes": 4,
        "avgEpisodeReward": 1.9408947261611835,
        "warmStartModelId": "2ebbcde1-0d96-4bdc-8fda-a307336e9e6b",
        "pretrainEpisodes": 150,
        "replayEpisodes": 0
      },
      "metrics": {
        "accuracy": 0.5647208121827412,
        "f1": 9.87858521224269,
        "precision": 0.9970854487799036,
        "recall": 5.976483079347822
      },
      "evaluation": {
        "walkForwardSharpe": -2.315235992113951,
        "walkForwardProfitFactor": 0.5992882099239358,
        "walkForwardMaxDrawdown": 0.02717889271321708,
        "paperWindowProfitFactor": 50,
        "paperWindowSharpe": 24.00193073604736,
        "paperWindowNetPnl": 844.9041959046226,
        "paperWindowTrades": 89,
        "unseenProfitFactor": 0,
        "unseenSharpe": 0,
        "unseenNetPnl": 0,
        "unseenTrades": 0,
        "inSampleWinRate": 0.5647208121827412,
        "inSampleNetPnl": 1161.2551229456549
      }
    },
    {
      "id": "2ebbcde1-0d96-4bdc-8fda-a307336e9e6b",
      "createdAt": 1772141998091,
      "stage": "challenger",
      "source": "rl_offline_q_learning",
      "featureNames": [
        "returns",
        "volatility",
        "atr_norm",
        "rsi_norm",
        "ema_spread",
        "macd_hist_norm",
        "bb_pos",
        "adx_norm",
        "mom_3",
        "mom_12",
        "volume_z",
        "flow_imbalance",
        "returns_autocorr",
        "ema34_dist",
        "hurst_proxy",
        "bb_squeeze",
        "cross_trend_mom3",
        "cross_trend_rsi",
        "cross_vol_bbpos"
      ],
      "weights": [
        0.07393464010510557,
        0.20345572331396572,
        -1.527030566900333,
        0.04129765821975659,
        0.24693505486008188,
        0.058183492140590695,
        -0.01796849095901635,
        0.07154576134036768,
        -0.1930890735771845,
        -0.1634448187519223,
        0.0009555515760474416,
        -0.11828619364924227,
        0.1333582160076841,
        -0.32231165800935946,
        0.07043754990638028,
        0.08290280581105688,
        -0.46398810080193004,
        -0.002940060752897498,
        0.4214319281052217,
        -0.44653997501067744,
        0.19165947245815976,
        -0.797701647329177,
        0.05101643764124661,
        0.29014257906323027,
        0.4013853514077711,
        -0.015592955772733676,
        0.07336053744777885,
        -0.046114901949098994,
        0.0021810399714641427,
        -0.0003845016115743406,
        0.24530511109660683,
        0.12743381223451825,
        -0.4333659388956449,
        0.05860557435912677,
        0.08979225172180538,
        -0.3360151649802165,
        -0.03688475363584426,
        0.17449397760500657,
        -0.20890988753269996,
        0.3138693278716222,
        -1.0896920560579066,
        0.05633152267545634,
        0.23396182598619777,
        0.5195498777691441,
        -0.02033029450675622,
        0.07624641451620814,
        0.10503378643428825,
        0.08361804187737164,
        0.00120252730166161,
        -0.2523556434674729,
        0.12564477936537938,
        -0.541545494930698,
        0.04608729924568871,
        0.08960842494881495,
        0.05465801008874916,
        -0.04788002023490743,
        0.02177574082925016
      ],
      "bias": 0,
      "kind": "rl_linear_q",
      "qWeights": [
        [
          0.07393464010510557,
          0.20345572331396572,
          -1.527030566900333,
          0.04129765821975659,
          0.24693505486008188,
          0.058183492140590695,
          -0.01796849095901635,
          0.07154576134036768,
          -0.1930890735771845,
          -0.1634448187519223,
          0.0009555515760474416,
          -0.11828619364924227,
          0.1333582160076841,
          -0.32231165800935946,
          0.07043754990638028,
          0.08290280581105688,
          -0.46398810080193004,
          -0.002940060752897498,
          0.4214319281052217
        ],
        [
          -0.44653997501067744,
          0.19165947245815976,
          -0.797701647329177,
          0.05101643764124661,
          0.29014257906323027,
          0.4013853514077711,
          -0.015592955772733676,
          0.07336053744777885,
          -0.046114901949098994,
          0.0021810399714641427,
          -0.0003845016115743406,
          0.24530511109660683,
          0.12743381223451825,
          -0.4333659388956449,
          0.05860557435912677,
          0.08979225172180538,
          -0.3360151649802165,
          -0.03688475363584426,
          0.17449397760500657
        ],
        [
          -0.20890988753269996,
          0.3138693278716222,
          -1.0896920560579066,
          0.05633152267545634,
          0.23396182598619777,
          0.5195498777691441,
          -0.02033029450675622,
          0.07624641451620814,
          0.10503378643428825,
          0.08361804187737164,
          0.00120252730166161,
          -0.2523556434674729,
          0.12564477936537938,
          -0.541545494930698,
          0.04608729924568871,
          0.08960842494881495,
          0.05465801008874916,
          -0.04788002023490743,
          0.02177574082925016
        ]
      ],
      "qBias": [
        -0.08622984309501167,
        -0.09452687085182869,
        -0.0902151258169989
      ],
      "training": {
        "episodes": 4,
        "avgEpisodeReward": 1.979481837111512,
        "warmStartModelId": "55de1b19-150e-435f-8d2b-186913f00c0c",
        "pretrainEpisodes": 150,
        "replayEpisodes": 0
      },
      "metrics": {
        "accuracy": 0.5828571428571429,
        "f1": 18.56289215394391,
        "precision": 0.9987317740865832,
        "recall": 5.814834868855189
      },
      "evaluation": {
        "walkForwardSharpe": -4.19347513294259,
        "walkForwardProfitFactor": 0.10020021685750594,
        "walkForwardMaxDrawdown": 0.024035542091132706,
        "paperWindowProfitFactor": 50,
        "paperWindowSharpe": 21.916514789493032,
        "paperWindowNetPnl": 792.9474022315135,
        "paperWindowTrades": 66,
        "unseenProfitFactor": 0,
        "unseenSharpe": 0,
        "unseenNetPnl": 0,
        "unseenTrades": 0,
        "inSampleWinRate": 0.5828571428571429,
        "inSampleNetPnl": 1115.1658779364916
      }
    },
    {
      "id": "55de1b19-150e-435f-8d2b-186913f00c0c",
      "createdAt": 1772141929226,
      "stage": "challenger",
      "source": "rl_offline_q_learning",
      "featureNames": [
        "returns",
        "volatility",
        "atr_norm",
        "rsi_norm",
        "ema_spread",
        "macd_hist_norm",
        "bb_pos",
        "adx_norm",
        "mom_3",
        "mom_12",
        "volume_z",
        "flow_imbalance",
        "returns_autocorr",
        "ema34_dist",
        "hurst_proxy",
        "bb_squeeze",
        "cross_trend_mom3",
        "cross_trend_rsi",
        "cross_vol_bbpos"
      ],
      "weights": [
        0.06438635492391945,
        0.17053052843743996,
        -1.4339412852211268,
        0.027911020593252733,
        0.21856507043714266,
        0.08176046513975367,
        -0.013107901625351522,
        0.08202183744019746,
        -0.16530430905131657,
        -0.11778463643778482,
        -0.0007027242098091952,
        -0.11828619364924227,
        0.12257571893460735,
        -0.31145080522587987,
        0.057547933133281166,
        0.09058421487760297,
        -0.4390950853084153,
        0.0020073007718800404,
        0.4000976438069537,
        -0.44997306171162627,
        0.18150245567872095,
        -0.7098140789443693,
        0.029911848818256506,
        0.3074190349105047,
        0.39989034446101523,
        -0.010038970030315819,
        0.07900027736579893,
        -0.025604992835165798,
        0.024332900725824103,
        0.0006192952174844703,
        0.24530511109660683,
        0.11486929744832439,
        -0.4054201080407062,
        0.053210968095610225,
        0.09052264124697042,
        -0.3320443288402221,
        -0.01504481078599984,
        0.15293514595188382,
        -0.20917775070580705,
        0.27702998896579595,
        -1.0017976918479652,
        0.036755866006776154,
        0.2478895745062097,
        0.49323865052751653,
        -0.012485362308697817,
        0.08148802701757406,
        0.12446274289236228,
        0.1212002031327526,
        0.0005396745733721209,
        -0.2523556434674729,
        0.11665832733157203,
        -0.5369416860215157,
        0.026129773581761755,
        0.08773120141579188,
        0.08009258554161763,
        -0.02200823871499703,
        -0.0010942445820591637
      ],
      "bias": 0,
      "kind": "rl_linear_q",
      "qWeights": [
        [
          0.06438635492391945,
          0.17053052843743996,
          -1.4339412852211268,
          0.027911020593252733,
          0.21856507043714266,
          0.08176046513975367,
          -0.013107901625351522,
          0.08202183744019746,
          -0.16530430905131657,
          -0.11778463643778482,
          -0.0007027242098091952,
          -0.11828619364924227,
          0.12257571893460735,
          -0.31145080522587987,
          0.057547933133281166,
          0.09058421487760297,
          -0.4390950853084153,
          0.0020073007718800404,
          0.4000976438069537
        ],
        [
          -0.44997306171162627,
          0.18150245567872095,
          -0.7098140789443693,
          0.029911848818256506,
          0.3074190349105047,
          0.39989034446101523,
          -0.010038970030315819,
          0.07900027736579893,
          -0.025604992835165798,
          0.024332900725824103,
          0.0006192952174844703,
          0.24530511109660683,
          0.11486929744832439,
          -0.4054201080407062,
          0.053210968095610225,
          0.09052264124697042,
          -0.3320443288402221,
          -0.01504481078599984,
          0.15293514595188382
        ],
        [
          -0.20917775070580705,
          0.27702998896579595,
          -1.0017976918479652,
          0.036755866006776154,
          0.2478895745062097,
          0.49323865052751653,
          -0.012485362308697817,
          0.08148802701757406,
          0.12446274289236228,
          0.1212002031327526,
          0.0005396745733721209,
          -0.2523556434674729,
          0.11665832733157203,
          -0.5369416860215157,
          0.026129773581761755,
          0.08773120141579188,
          0.08009258554161763,
          -0.02200823871499703,
          -0.0010942445820591637
        ]
      ],
      "qBias": [
        -0.08852660560193047,
        -0.08443998398125668,
        -0.06828852865441533
      ],
      "training": {
        "episodes": 4,
        "avgEpisodeReward": 1.4317865364764226,
        "warmStartModelId": "2852f87e-d793-4357-a107-ba1cc18de488",
        "pretrainEpisodes": 150,
        "replayEpisodes": 0
      },
      "metrics": {
        "accuracy": 0.7314487632508834,
        "f1": 23.211715149022904,
        "precision": 0.9983583727699724,
        "recall": 6.625754701620843
      },
      "evaluation": {
        "walkForwardSharpe": 0.8538518218047892,
        "walkForwardProfitFactor": 2.303734667329828,
        "walkForwardMaxDrawdown": 0.002342863688724419,
        "paperWindowProfitFactor": 50,
        "paperWindowSharpe": 24.002899210303,
        "paperWindowNetPnl": 848.4933809671929,
        "paperWindowTrades": 61,
        "unseenProfitFactor": 0,
        "unseenSharpe": 0,
        "unseenNetPnl": 0,
        "unseenTrades": 0,
        "inSampleWinRate": 0.7314487632508834,
        "inSampleNetPnl": 1158.033582951779
      }
    },
    {
      "id": "2852f87e-d793-4357-a107-ba1cc18de488",
      "createdAt": 1772141863874,
      "stage": "challenger",
      "source": "rl_offline_q_learning",
      "featureNames": [
        "returns",
        "volatility",
        "atr_norm",
        "rsi_norm",
        "ema_spread",
        "macd_hist_norm",
        "bb_pos",
        "adx_norm",
        "mom_3",
        "mom_12",
        "volume_z",
        "flow_imbalance",
        "returns_autocorr",
        "ema34_dist",
        "hurst_proxy",
        "bb_squeeze",
        "cross_trend_mom3",
        "cross_trend_rsi",
        "cross_vol_bbpos"
      ],
      "weights": [
        0.06393069527971743,
        0.14934165031262944,
        -1.33153321260388,
        0.033426356331022394,
        0.20493154911613592,
        0.08867297294641294,
        -0.011791264820776044,
        0.08389089135709006,
        -0.15276670952077312,
        -0.13993312102138436,
        0.001995795471327356,
        -0.11828619364924227,
        0.1285115159483644,
        -0.2541390806506684,
        0.033739361101983625,
        0.09472103223577169,
        -0.43265114338784844,
        0.012006837882566512,
        0.3827027533217411,
        -0.45299999108966327,
        0.1529747081093917,
        -0.613138775321272,
        0.03371867186671899,
        0.3209308559429256,
        0.39565443172235903,
        -0.006949926519464064,
        0.08017245224427325,
        -0.011910305106141949,
        0.00216195876808259,
        0.00007038278706607118,
        0.24530511109660683,
        0.12353006765931139,
        -0.38447893951570017,
        0.03352896787368962,
        0.10059396767612967,
        -0.3326815759759763,
        -0.00939476021024345,
        0.1316031731786756,
        -0.20617389469127423,
        0.2555232459925849,
        -0.8915081809097518,
        0.05285045750895873,
        0.26441176776480746,
        0.4554506614699968,
        -0.019356251730068323,
        0.0850215026239714,
        0.13813090932758093,
        0.10587015888479129,
        -0.0003179620565377107,
        -0.2523556434674729,
        0.1263254902216379,
        -0.5176802787555584,
        0.014747989083259585,
        0.101961451864808,
        0.09542243983602627,
        -0.026291531120994336,
        -0.006555808938303706
      ],
      "bias": 0,
      "kind": "rl_linear_q",
      "qWeights": [
        [
          0.06393069527971743,
          0.14934165031262944,
          -1.33153321260388,
          0.033426356331022394,
          0.20493154911613592,
          0.08867297294641294,
          -0.011791264820776044,
          0.08389089135709006,
          -0.15276670952077312,
          -0.13993312102138436,
          0.001995795471327356,
          -0.11828619364924227,
          0.1285115159483644,
          -0.2541390806506684,
          0.033739361101983625,
          0.09472103223577169,
          -0.43265114338784844,
          0.012006837882566512,
          0.3827027533217411
        ],
        [
          -0.45299999108966327,
          0.1529747081093917,
          -0.613138775321272,
          0.03371867186671899,
          0.3209308559429256,
          0.39565443172235903,
          -0.006949926519464064,
          0.08017245224427325,
          -0.011910305106141949,
          0.00216195876808259,
          0.00007038278706607118,
          0.24530511109660683,
          0.12353006765931139,
          -0.38447893951570017,
          0.03352896787368962,
          0.10059396767612967,
          -0.3326815759759763,
          -0.00939476021024345,
          0.1316031731786756
        ],
        [
          -0.20617389469127423,
          0.2555232459925849,
          -0.8915081809097518,
          0.05285045750895873,
          0.26441176776480746,
          0.4554506614699968,
          -0.019356251730068323,
          0.0850215026239714,
          0.13813090932758093,
          0.10587015888479129,
          -0.0003179620565377107,
          -0.2523556434674729,
          0.1263254902216379,
          -0.5176802787555584,
          0.014747989083259585,
          0.101961451864808,
          0.09542243983602627,
          -0.026291531120994336,
          -0.006555808938303706
        ]
      ],
      "qBias": [
        -0.07607780928645218,
        -0.0823360337389092,
        -0.07653054717923717
      ],
      "training": {
        "episodes": 4,
        "avgEpisodeReward": 1.8162504514654512,
        "warmStartModelId": "30b920b9-2fc3-4ef2-ab72-1869c3d70a05",
        "pretrainEpisodes": 150,
        "replayEpisodes": 0
      },
      "metrics": {
        "accuracy": 0.5522827687776142,
        "f1": 16.4781889323655,
        "precision": 0.9988240536001535,
        "recall": 6.398619184101376
      },
      "evaluation": {
        "walkForwardSharpe": -0.0244403527001364,
        "walkForwardProfitFactor": 1.0158692573721484,
        "walkForwardMaxDrawdown": 0.003968379661370128,
        "paperWindowProfitFactor": 50,
        "paperWindowSharpe": 25.8468319125972,
        "paperWindowNetPnl": 874.2409941414207,
        "paperWindowTrades": 71,
        "unseenProfitFactor": 0,
        "unseenSharpe": 0,
        "unseenNetPnl": 0,
        "unseenTrades": 0,
        "inSampleWinRate": 0.5522827687776142,
        "inSampleNetPnl": 1252.7875461556723
      }
    },
    {
      "id": "dc74b1d2-353a-4f0c-8238-193338c83739",
      "createdAt": 1772141669856,
      "stage": "challenger",
      "source": "rl_offline_q_learning",
      "featureNames": [
        "returns",
        "volatility",
        "atr_norm",
        "rsi_norm",
        "ema_spread",
        "macd_hist_norm",
        "bb_pos",
        "adx_norm",
        "mom_3",
        "mom_12",
        "volume_z",
        "flow_imbalance",
        "returns_autocorr",
        "ema34_dist",
        "hurst_proxy",
        "bb_squeeze",
        "cross_trend_mom3",
        "cross_trend_rsi",
        "cross_vol_bbpos"
      ],
      "weights": [
        0.055098846968698115,
        0.1583019540333417,
        -1.0447349828864723,
        0.020641146485135695,
        0.18388976887179131,
        0.13007025223561272,
        0.0031355289090358143,
        0.08028523233335326,
        -0.17437433137030003,
        -0.13782217536694824,
        0.0010198404724096495,
        -0.11828619364924227,
        0.11988348825425328,
        -0.10674949262911539,
        0.05263131709122381,
        0.08987520197503646,
        -0.3788557521688668,
        0.00858879856737091,
        0.33978205561065455,
        -0.4590935432019545,
        0.14730386597523876,
        -0.3382376583604448,
        0.024335218475631634,
        0.39727005427107714,
        0.38789563098477237,
        0.002157923160267227,
        0.08603108714661874,
        0.0031361839714546293,
        -0.010582548372766332,
        0.00015504258501840442,
        0.24530511109660683,
        0.11426769486745793,
        -0.2579704978296447,
        0.03467700858473747,
        0.09693026691183539,
        -0.3255362749988607,
        -0.002638489388714963,
        0.10620354310930256,
        -0.1972168438548475,
        0.23965840945687408,
        -0.571513481728524,
        0.020217021853654073,
        0.3567605184277511,
        0.3558064327913205,
        0.00014523960771916963,
        0.08196850603535177,
        0.14494191479142374,
        0.09451428804773526,
        -0.0005800681254113696,
        -0.2523556434674729,
        0.11499724719669502,
        -0.3969405283765495,
        0.018576737607606083,
        0.09345937401761614,
        0.19442713156681982,
        -0.008435798683582857,
        -0.012401925924501941
      ],
      "bias": 0,
      "kind": "rl_linear_q",
      "qWeights": [
        [
          0.055098846968698115,
          0.1583019540333417,
          -1.0447349828864723,
          0.020641146485135695,
          0.18388976887179131,
          0.13007025223561272,
          0.0031355289090358143,
          0.08028523233335326,
          -0.17437433137030003,
          -0.13782217536694824,
          0.0010198404724096495,
          -0.11828619364924227,
          0.11988348825425328,
          -0.10674949262911539,
          0.05263131709122381,
          0.08987520197503646,
          -0.3788557521688668,
          0.00858879856737091,
          0.33978205561065455
        ],
        [
          -0.4590935432019545,
          0.14730386597523876,
          -0.3382376583604448,
          0.024335218475631634,
          0.39727005427107714,
          0.38789563098477237,
          0.002157923160267227,
          0.08603108714661874,
          0.0031361839714546293,
          -0.010582548372766332,
          0.00015504258501840442,
          0.24530511109660683,
          0.11426769486745793,
          -0.2579704978296447,
          0.03467700858473747,
          0.09693026691183539,
          -0.3255362749988607,
          -0.002638489388714963,
          0.10620354310930256
        ],
        [
          -0.1972168438548475,
          0.23965840945687408,
          -0.571513481728524,
          0.020217021853654073,
          0.3567605184277511,
          0.3558064327913205,
          0.00014523960771916963,
          0.08196850603535177,
          0.14494191479142374,
          0.09451428804773526,
          -0.0005800681254113696,
          -0.2523556434674729,
          0.11499724719669502,
          -0.3969405283765495,
          0.018576737607606083,
          0.09345937401761614,
          0.19442713156681982,
          -0.008435798683582857,
          -0.012401925924501941
        ]
      ],
      "qBias": [
        -0.08218747120104032,
        -0.0821410863467674,
        -0.07106936824568207
      ],
      "training": {
        "episodes": 4,
        "avgEpisodeReward": 2.0069564783091627,
        "warmStartModelId": "c047abcc-b547-4a52-9fa4-dcb2d31c4630",
        "pretrainEpisodes": 150,
        "replayEpisodes": 0
      },
      "metrics": {
        "accuracy": 0.6275862068965518,
        "f1": 19.517874564151473,
        "precision": 0.9985997253650706,
        "recall": 5.800238069882447
      },
      "evaluation": {
        "walkForwardSharpe": -1.6982120476440545,
        "walkForwardProfitFactor": 0.7070952733437107,
        "walkForwardMaxDrawdown": 0.019860446180566763,
        "paperWindowProfitFactor": 50,
        "paperWindowSharpe": 20.972072305835784,
        "paperWindowNetPnl": 773.8392265097064,
        "paperWindowTrades": 57,
        "unseenProfitFactor": 0,
        "unseenSharpe": 0,
        "unseenNetPnl": 0,
        "unseenTrades": 0,
        "inSampleWinRate": 0.6275862068965518,
        "inSampleNetPnl": 1101.0584828170631
      }
    },
    {
      "id": "c047abcc-b547-4a52-9fa4-dcb2d31c4630",
      "createdAt": 1772141605028,
      "stage": "challenger",
      "source": "rl_offline_q_learning",
      "featureNames": [
        "returns",
        "volatility",
        "atr_norm",
        "rsi_norm",
        "ema_spread",
        "macd_hist_norm",
        "bb_pos",
        "adx_norm",
        "mom_3",
        "mom_12",
        "volume_z",
        "flow_imbalance",
        "returns_autocorr",
        "ema34_dist",
        "hurst_proxy",
        "bb_squeeze",
        "cross_trend_mom3",
        "cross_trend_rsi",
        "cross_vol_bbpos"
      ],
      "weights": [
        0.07894823744011699,
        0.15605953968350997,
        -0.9634202883949187,
        0.024577292735991192,
        0.27216997308872065,
        0.09293359327598018,
        -0.0016389552348125818,
        0.0860484284160821,
        -0.2787547748918671,
        -0.24424854743476843,
        -0.0012895151134663754,
        -0.11828619364924227,
        0.11256036808438893,
        0.10817686055594496,
        0.07697143141945638,
        0.09221540802294223,
        -0.43729451786978213,
        0.006174371585964093,
        0.30516644513837105,
        -0.4384021415909952,
        0.1672049509968668,
        -0.250823244401257,
        0.029410474822901725,
        0.5096335295190779,
        0.3446225929468905,
        -0.00023892301216801536,
        0.08331646522285255,
        -0.09277853836396459,
        -0.10551370127289882,
        0.00016839984712942006,
        0.24530511109660683,
        0.11305029778764634,
        -0.06286790594430454,
        0.06336165569180105,
        0.09761439087375634,
        -0.38475343474993084,
        -0.01478076498523509,
        0.06361840295162172,
        -0.17146780767980413,
        0.2516308019184383,
        -0.45908016737797996,
        0.029032272462280892,
        0.4711207176762094,
        0.28170666047594467,
        -0.0004341305041339455,
        0.08597667879301583,
        0.047561105210773946,
        -0.008869072241429795,
        -0.0005816165107011968,
        -0.2523556434674729,
        0.11565706267476106,
        -0.20102156988785783,
        0.03982658110237185,
        0.09884392238611338,
        0.150359211634935,
        -0.022371675136501658,
        -0.031098090576117843
      ],
      "bias": 0,
      "kind": "rl_linear_q",
      "qWeights": [
        [
          0.07894823744011699,
          0.15605953968350997,
          -0.9634202883949187,
          0.024577292735991192,
          0.27216997308872065,
          0.09293359327598018,
          -0.0016389552348125818,
          0.0860484284160821,
          -0.2787547748918671,
          -0.24424854743476843,
          -0.0012895151134663754,
          -0.11828619364924227,
          0.11256036808438893,
          0.10817686055594496,
          0.07697143141945638,
          0.09221540802294223,
          -0.43729451786978213,
          0.006174371585964093,
          0.30516644513837105
        ],
        [
          -0.4384021415909952,
          0.1672049509968668,
          -0.250823244401257,
          0.029410474822901725,
          0.5096335295190779,
          0.3446225929468905,
          -0.00023892301216801536,
          0.08331646522285255,
          -0.09277853836396459,
          -0.10551370127289882,
          0.00016839984712942006,
          0.24530511109660683,
          0.11305029778764634,
          -0.06286790594430454,
          0.06336165569180105,
          0.09761439087375634,
          -0.38475343474993084,
          -0.01478076498523509,
          0.06361840295162172
        ],
        [
          -0.17146780767980413,
          0.2516308019184383,
          -0.45908016737797996,
          0.029032272462280892,
          0.4711207176762094,
          0.28170666047594467,
          -0.0004341305041339455,
          0.08597667879301583,
          0.047561105210773946,
          -0.008869072241429795,
          -0.0005816165107011968,
          -0.2523556434674729,
          0.11565706267476106,
          -0.20102156988785783,
          0.03982658110237185,
          0.09884392238611338,
          0.150359211634935,
          -0.022371675136501658,
          -0.031098090576117843
        ]
      ],
      "qBias": [
        -0.1022634468376797,
        -0.09917738383006756,
        -0.08446820763673547
      ],
      "training": {
        "episodes": 4,
        "avgEpisodeReward": 1.6569932043693318,
        "warmStartModelId": "b0f77af8-bc64-4b12-bb2f-aa1b6aa59aa5",
        "pretrainEpisodes": 150,
        "replayEpisodes": 0
      },
      "metrics": {
        "accuracy": 0.594017094017094,
        "f1": 17.86323062623289,
        "precision": 0.9987714179894839,
        "recall": 6.422402597967013
      },
      "evaluation": {
        "walkForwardSharpe": 0.6851637169661341,
        "walkForwardProfitFactor": 1.2504210566323744,
        "walkForwardMaxDrawdown": 0.0017186169135622016,
        "paperWindowProfitFactor": 50,
        "paperWindowSharpe": 22.81764831741824,
        "paperWindowNetPnl": 831.1441330086236,
        "paperWindowTrades": 62,
        "unseenProfitFactor": 0,
        "unseenSharpe": 0,
        "unseenNetPnl": 0,
        "unseenTrades": 0,
        "inSampleWinRate": 0.594017094017094,
        "inSampleNetPnl": 1240.8706237966035
      }
    },
    {
      "id": "b0f77af8-bc64-4b12-bb2f-aa1b6aa59aa5",
      "createdAt": 1772141540320,
      "stage": "challenger",
      "source": "rl_offline_q_learning",
      "featureNames": [
        "returns",
        "volatility",
        "atr_norm",
        "rsi_norm",
        "ema_spread",
        "macd_hist_norm",
        "bb_pos",
        "adx_norm",
        "mom_3",
        "mom_12",
        "volume_z",
        "flow_imbalance",
        "returns_autocorr",
        "ema34_dist",
        "hurst_proxy",
        "bb_squeeze",
        "cross_trend_mom3",
        "cross_trend_rsi",
        "cross_vol_bbpos"
      ],
      "weights": [
        0.09268890454405947,
        0.17414842902133038,
        -0.8461801878468235,
        0.00964667277289671,
        0.28871725318897323,
        0.08001891891064063,
        -0.0034984476411251664,
        0.08612176697406221,
        -0.358838521344983,
        -0.3087186781022663,
        0.00033564445859272446,
        -0.11828619364924227,
        0.12334076705704308,
        0.2361046692496632,
        0.07705871720932529,
        0.10566746501822881,
        -0.45134298587026456,
        0.013664959817315258,
        0.28097428633771565,
        -0.43161303830466924,
        0.18228808073895966,
        -0.15150402804863852,
        0.015007575740061417,
        0.5656120645222272,
        0.3289026768913136,
        -0.005659065048645764,
        0.07981702026642996,
        -0.1537476118306571,
        -0.15231293226179674,
        -0.0000927397595858173,
        0.24530511109660683,
        0.11610001121839177,
        0.03211974944584855,
        0.07145216283474858,
        0.10324569122212672,
        -0.40930790159555247,
        -0.0064866530737672816,
        0.03522608341784242,
        -0.15880618813802064,
        0.2577033121397145,
        -0.33716981966261655,
        0.024971603442670166,
        0.5322318475506325,
        0.2308920862324786,
        -0.010609679821596402,
        0.07822193878914593,
        -0.0007817075326988023,
        -0.03869625213980501,
        -0.001286831094658246,
        -0.2523556434674729,
        0.11694650746877847,
        -0.10326491213652407,
        0.04429536844868535,
        0.09942920274043877,
        0.14481957374464577,
        -0.030193238450706286,
        -0.043645894919989874
      ],
      "bias": 0,
      "kind": "rl_linear_q",
      "qWeights": [
        [
          0.09268890454405947,
          0.17414842902133038,
          -0.8461801878468235,
          0.00964667277289671,
          0.28871725318897323,
          0.08001891891064063,
          -0.0034984476411251664,
          0.08612176697406221,
          -0.358838521344983,
          -0.3087186781022663,
          0.00033564445859272446,
          -0.11828619364924227,
          0.12334076705704308,
          0.2361046692496632,
          0.07705871720932529,
          0.10566746501822881,
          -0.45134298587026456,
          0.013664959817315258,
          0.28097428633771565
        ],
        [
          -0.43161303830466924,
          0.18228808073895966,
          -0.15150402804863852,
          0.015007575740061417,
          0.5656120645222272,
          0.3289026768913136,
          -0.005659065048645764,
          0.07981702026642996,
          -0.1537476118306571,
          -0.15231293226179674,
          -0.0000927397595858173,
          0.24530511109660683,
          0.11610001121839177,
          0.03211974944584855,
          0.07145216283474858,
          0.10324569122212672,
          -0.40930790159555247,
          -0.0064866530737672816,
          0.03522608341784242
        ],
        [
          -0.15880618813802064,
          0.2577033121397145,
          -0.33716981966261655,
          0.024971603442670166,
          0.5322318475506325,
          0.2308920862324786,
          -0.010609679821596402,
          0.07822193878914593,
